svm_type c_svc
kernel_type rbf
gamma 0.00012207
nr_class 2
total_sv 1106
rho 2.21657
label 1 -1
nr_sv 557 549
SV
512 22:1 43:2 57:1 65:1 67:1 313:1 392:1 577:1 682:1 789:1 
512 0:1 5:1 6:1 11:1 22:1 24:1 27:1 29:1 32:1 38:1 40:1 43:1 44:1 185:1 189:1 190:1 192:1 193:1 307:1 443:1 495:1 
512 3:2 6:1 14:1 15:1 37:1 49:1 53:1 86:1 257:1 386:1 412:1 603:1 663:1 697:1 786:1 
57.05659024678801 1:1 22:1 24:1 111:1 361:2 691:1 942:1 
512 0:1 1:1 35:1 37:1 39:1 42:1 140:1 
478.4746253503462 1:1 3:1 5:1 10:1 15:1 91:1 341:1 351:1 674:1 787:2 
512 3:1 8:1 15:2 16:1 37:1 39:1 49:1 82:1 
512 15:1 22:1 37:1 258:1 259:1 
512 8:1 11:2 15:1 16:1 22:1 24:2 32:1 37:1 38:1 40:1 43:1 44:1 77:1 82:1 147:1 164:1 268:1 332:1 333:1 393:1 525:1 526:1 607:1 
512 1:1 17:1 35:1 37:1 91:1 153:1 432:1 671:1 
188.0326664427957 3:2 32:1 100:1 103:1 165:1 328:1 355:1 357:1 358:1 359:1 360:1 
512 16:1 37:1 42:1 43:1 82:1 408:1 436:1 478:1 479:1 691:1 
512 0:1 1:1 4:1 11:1 15:2 32:1 54:1 86:1 95:2 161:1 271:1 330:1 479:1 
512 15:1 91:1 118:1 315:1 369:1 421:1 422:1 434:1 980:1 
512 11:1 22:1 29:1 30:1 37:1 44:1 76:1 140:1 252:1 
512 1:1 15:1 36:1 91:1 146:1 203:2 443:1 623:2 793:2 796:1 
512 11:1 15:1 16:1 22:1 32:1 37:1 76:1 82:1 286:1 366:2 523:1 
480.9765442793518 33:1 34:1 36:1 256:1 265:1 319:1 321:1 923:1 
512 1:1 22:1 57:1 65:1 67:1 68:1 76:1 91:1 125:1 141:1 165:2 189:1 224:1 296:1 774:2 788:1 855:1 1051:1 
512 3:1 22:1 23:1 24:1 30:1 32:1 252:1 415:1 1572:1 
512 1:1 37:1 55:1 56:1 91:1 249:1 
512 0:1 1:1 4:1 11:1 26:1 32:2 36:1 165:1 252:1 284:1 451:1 520:1 523:1 
512 0:1 1:1 4:1 11:1 22:1 30:1 42:1 43:1 48:1 204:1 364:1 365:1 657:1 
512 23:1 30:1 36:1 186:1 187:1 
512 8:1 76:1 83:1 84:1 97:1 98:1 100:1 101:1 102:1 103:1 
512 0:1 1:1 11:1 37:1 43:2 140:1 332:1 333:1 392:1 682:1 
512 3:1 11:1 15:1 44:1 95:1 164:1 210:1 271:1 371:1 
512 0:1 3:1 8:1 22:1 24:1 39:1 72:1 203:2 243:1 295:1 296:1 299:1 300:1 301:1 1230:1 
512 0:1 32:1 57:1 71:1 91:1 106:1 111:1 875:1 
512 1:2 8:1 19:2 22:1 68:1 76:2 175:1 202:1 215:1 287:1 317:1 794:1 1235:1 
512 3:1 17:1 37:1 59:1 147:1 223:1 415:1 719:1 731:1 
158.7116184011365 0:1 6:1 22:1 23:1 32:1 36:1 143:1 159:1 274:1 633:1 
512 0:1 23:1 30:1 36:1 143:1 202:1 274:1 346:1 
512 3:1 74:1 91:1 117:1 175:1 284:2 287:1 370:1 1080:1 
512 6:1 11:1 15:1 16:1 22:1 37:1 38:1 40:1 44:1 77:1 82:1 125:1 129:1 141:1 164:1 165:1 500:1 576:1 
157.4308416333948 232:1 815:1 1018:1 
512 17:1 38:1 40:1 44:1 289:1 307:1 445:1 593:1 642:1 660:1 
512 3:1 8:1 15:2 37:1 92:1 189:1 203:1 249:1 296:1 486:1 
101.9920435991375 16:1 37:1 43:3 45:1 48:1 76:1 82:1 480:3 491:1 
512 0:1 1:1 22:1 24:1 69:2 70:1 71:1 72:1 73:1 74:1 76:1 
512 1:2 15:1 35:1 37:1 41:1 82:1 351:1 379:1 
512 15:2 17:1 35:2 37:1 82:1 141:1 477:1 1113:1 1217:1 
78.7762945162756 0:1 10:1 22:1 24:1 26:1 32:1 76:1 85:1 92:1 95:1 100:1 153:1 202:1 831:1 865:1 987:2 
512 1:1 8:1 35:1 223:1 
512 22:1 69:1 212:1 223:1 823:1 1077:1 1079:1 1080:1 
512 1:1 17:1 91:1 107:1 148:1 230:1 1018:1 
512 15:1 16:1 36:1 37:1 76:1 82:1 86:1 90:1 91:1 93:1 95:1 96:1 
512 1:2 8:1 19:2 22:1 24:1 47:1 57:1 65:1 67:1 68:3 76:2 89:1 125:1 127:1 141:1 195:1 224:1 774:2 788:1 855:1 1047:1 1209:1 
512 0:1 1:1 4:1 8:1 11:1 15:1 29:1 32:1 37:1 140:1 154:1 182:2 393:1 459:2 
512 16:1 37:1 82:1 91:1 97:1 173:1 324:1 423:1 432:1 446:1 447:1 671:1 673:1 674:1 718:1 
512 3:3 14:1 15:3 86:1 90:1 173:2 230:1 423:1 446:1 447:1 1014:2 1303:1 
512 11:1 22:1 29:1 30:1 37:1 38:1 40:1 44:1 76:1 140:1 252:1 
512 8:1 14:1 15:2 16:1 37:2 82:1 86:1 90:1 91:1 93:1 96:1 112:1 134:1 176:1 423:1 442:1 
357.2066087702091 1:1 6:1 11:1 14:1 32:1 37:2 49:1 53:1 76:1 82:1 91:1 178:1 346:1 438:1 448:1 663:1 664:1 
512 1:1 15:1 16:1 32:2 37:1 60:1 77:1 82:1 86:1 91:1 252:1 308:1 
512 0:1 32:1 37:1 38:1 40:1 44:1 56:1 82:1 154:1 185:1 301:1 495:1 
258.1169358572809 1:1 15:1 22:1 35:1 37:2 203:1 263:1 301:1 580:1 677:1 
512 5:1 8:1 23:1 30:1 36:1 43:2 76:1 143:1 144:1 159:1 313:1 415:1 579:1 649:1 846:2 
512 8:1 23:1 36:1 76:1 92:1 117:1 118:1 120:1 122:2 200:1 421:1 422:1 580:1 588:1 
512 22:1 125:1 258:1 259:1 264:1 553:3 649:1 1100:1 
512 3:1 15:3 17:1 22:1 24:1 35:1 39:1 125:1 129:1 141:2 221:1 223:1 312:1 331:1 341:1 408:1 409:1 410:1 411:1 714:1 
512 0:1 1:1 4:1 15:1 35:1 39:1 42:1 129:2 226:1 313:1 330:1 331:1 411:2 
512 22:1 69:2 73:1 79:1 111:2 112:2 
512 1:1 3:1 15:1 57:1 76:1 91:1 195:1 
196.3605951620838 0:2 1:1 4:1 22:1 24:2 57:2 59:1 67:1 69:1 72:1 76:1 86:1 190:1 192:1 224:1 425:1 436:1 437:1 438:1 
512 0:1 1:1 4:1 15:1 35:1 38:1 39:1 40:1 44:1 313:1 330:1 331:1 333:1 
512 3:1 91:1 92:1 185:1 203:1 296:1 367:1 
512 1:1 15:1 36:1 91:1 477:1 
512 36:1 69:1 73:1 91:1 202:1 363:1 593:1 660:1 736:1 
512 1:1 22:1 46:1 47:1 150:1 155:2 318:1 595:1 959:2 960:2 
512 0:2 1:2 2:1 3:1 4:1 8:1 14:1 37:1 48:1 91:1 186:2 187:1 360:1 427:1 438:1 
273.0131343003492 35:4 39:4 47:1 124:2 125:1 126:1 127:1 128:1 129:1 
242.1326239148815 22:1 23:1 24:1 30:1 59:1 159:1 345:1 
512 1:2 10:1 17:1 71:1 84:1 91:1 118:1 282:1 815:1 
290.6932382181616 16:1 37:1 44:2 48:1 82:1 90:1 91:1 95:2 96:1 166:1 263:1 552:1 757:1 
512 0:1 1:1 11:1 32:1 37:1 43:1 140:1 271:1 780:1 
512 15:1 16:1 36:1 37:1 76:1 82:1 86:1 90:1 91:1 93:1 95:1 96:1 
192.923328569353 14:1 15:1 22:1 29:1 30:2 31:1 32:1 33:1 37:2 48:1 56:1 82:1 154:1 159:1 185:1 268:1 523:1 650:1 
512 0:1 1:1 11:1 15:1 24:1 36:1 37:1 43:1 68:1 76:1 140:1 296:1 392:1 682:1 1047:1 
512 0:2 1:2 2:1 3:1 4:1 8:1 11:1 14:1 37:1 48:1 91:1 95:1 186:2 187:1 360:1 
512 35:1 39:1 53:1 127:1 147:1 
512 11:1 22:1 23:1 29:1 30:1 37:1 43:1 140:1 577:1 578:1 579:1 
512 0:1 4:1 11:1 23:1 30:1 36:1 42:1 44:1 143:1 158:1 159:1 195:1 199:1 
512 16:1 22:1 35:1 37:1 76:1 82:1 91:1 105:1 1113:1 
512 3:1 5:1 10:1 15:1 17:1 57:1 71:1 76:1 91:1 103:1 175:1 232:1 237:1 361:1 729:1 1018:1 
512 0:1 1:1 4:1 39:1 43:1 331:1 332:1 333:1 1256:1 1257:1 
512 1:1 8:1 35:1 223:1 374:1 1069:1 1161:1 
512 15:1 16:1 37:1 48:1 81:1 82:1 83:1 84:1 85:1 86:1 87:1 88:1 
512 15:1 24:1 35:1 37:1 76:1 89:1 165:1 189:1 380:1 
512 0:1 1:2 4:1 8:1 11:2 42:1 44:1 48:1 97:1 187:1 215:1 263:1 
512 0:1 76:1 91:1 96:1 287:1 317:1 328:1 374:1 375:1 580:1 
512 14:2 15:1 16:1 36:1 37:2 82:1 86:1 90:1 91:1 92:1 93:1 95:1 96:1 385:1 386:1 
512 3:1 15:2 16:1 36:1 37:1 72:1 76:1 82:1 86:1 91:1 127:1 128:1 147:1 263:1 427:1 521:1 850:1 
512 0:1 1:1 4:1 38:1 39:1 40:1 44:1 331:1 1256:1 1257:1 
512 0:1 1:2 4:1 8:1 11:2 15:1 37:1 38:1 40:1 43:1 44:2 82:1 97:1 103:1 164:1 187:1 208:1 209:1 210:1 
512 4:1 6:1 8:1 30:1 33:1 36:1 37:1 38:1 40:1 43:1 44:1 77:2 140:1 159:1 193:1 272:1 
393.6487777956721 0:1 1:1 4:1 10:1 32:1 42:1 57:1 58:2 66:2 67:2 223:1 226:1 279:1 
512 0:1 1:1 4:1 11:1 26:1 28:1 32:2 252:1 
512 0:1 1:1 4:1 11:2 24:1 42:1 43:1 62:1 89:1 150:1 164:1 173:1 174:1 271:1 310:1 
512 17:1 71:1 91:1 105:1 106:1 107:1 111:1 112:1 219:1 386:1 
512 3:1 15:1 16:1 36:1 37:2 82:1 87:1 91:1 101:1 173:2 174:2 175:1 176:1 177:1 178:1 179:1 180:1 181:1 182:1 183:1 
512 0:1 1:1 4:1 39:1 223:1 226:1 313:1 331:1 1256:1 1257:1 
512 4:1 8:1 22:1 35:1 39:1 45:1 76:3 152:2 165:1 289:1 477:1 578:3 585:1 590:1 774:1 921:2 1015:1 
512 0:1 1:1 4:1 11:1 32:1 37:1 164:1 187:1 210:1 223:1 226:1 652:1 
512 22:1 57:1 66:1 67:1 223:1 226:1 250:1 313:1 341:1 769:1 1001:1 1002:1 
512 1:1 11:4 15:1 22:1 31:1 32:1 97:1 125:1 126:1 141:1 164:3 165:3 166:1 169:1 171:1 172:1 
512 7:1 8:1 15:1 36:1 76:1 181:1 313:1 379:1 438:1 791:1 813:1 1151:1 
512 0:1 1:1 4:1 15:1 35:2 39:1 42:1 43:2 330:1 331:1 332:1 333:1 
512 6:1 8:1 14:1 22:1 24:1 37:1 49:1 53:1 76:1 98:1 346:1 663:1 664:1 
512 1:1 22:1 24:1 97:1 369:1 391:1 415:1 
512 15:1 37:1 48:1 82:1 202:1 203:1 296:1 459:1 494:1 500:1 866:1 
512 1:1 17:1 35:1 76:1 91:1 141:1 215:1 258:2 386:1 
512 22:1 30:1 32:1 36:1 47:1 48:1 49:1 154:1 186:1 463:1 
512 22:1 24:1 192:1 423:1 590:1 591:1 593:1 
512 36:1 47:1 48:1 49:1 56:1 81:1 84:1 87:1 154:1 
315.5004685252275 0:1 7:4 22:1 24:1 47:1 127:1 589:1 673:1 1221:1 
512 22:1 24:1 29:1 148:1 154:1 189:1 190:1 192:1 435:1 437:1 598:1 599:1 
512 1:1 15:2 16:1 17:1 22:1 24:1 35:1 37:1 39:1 41:1 43:2 45:1 48:1 76:1 82:1 91:1 295:1 956:1 980:1 1130:1 1131:1 
512 1:1 175:1 202:1 392:1 
512 36:1 43:1 45:1 47:1 49:1 127:1 322:1 480:1 533:1 556:1 719:1 720:1 
512 21:1 22:1 24:1 36:1 51:1 91:1 833:1 
512 0:1 1:1 4:1 8:1 11:2 15:1 37:1 51:1 76:1 82:1 97:1 204:1 364:1 365:1 391:1 607:1 
512 5:1 6:1 7:1 8:1 11:1 37:1 48:1 207:1 249:1 386:1 494:1 544:2 1106:1 1152:1 
512 0:1 1:1 4:1 35:1 38:1 39:1 40:1 43:1 44:1 332:1 333:1 
295.9975188117022 1:1 11:1 15:2 22:1 24:1 30:1 62:1 78:2 154:1 203:1 415:1 490:1 579:2 
512 3:1 5:1 8:1 11:3 16:1 37:1 82:1 164:1 173:2 174:1 355:1 360:1 443:1 444:1 445:1 446:1 447:1 
512 1:1 14:2 20:1 21:1 69:1 73:1 202:1 361:1 363:1 
512 1:1 15:1 37:2 76:1 91:1 118:1 155:1 237:1 249:1 421:1 422:1 423:1 
512 8:1 11:3 15:1 22:1 24:1 32:1 37:1 56:1 82:1 164:2 165:3 607:1 
512 22:1 24:1 29:1 44:1 154:1 164:1 186:2 187:1 189:1 190:1 192:1 435:1 590:1 598:1 599:1 
512 11:1 15:1 28:1 32:1 37:1 42:1 44:1 164:1 210:1 249:1 
512 15:1 39:1 127:1 202:1 203:1 301:1 494:1 508:1 677:2 1397:2 2003:2 
512 0:1 1:1 3:1 8:1 15:1 35:1 91:1 223:1 833:1 
512 15:2 35:1 36:1 37:1 76:1 82:1 165:1 269:1 842:1 843:1 963:1 
512 23:1 30:1 36:1 44:1 164:1 186:1 1572:1 
512 8:1 14:2 15:1 36:1 37:1 49:1 68:1 76:1 95:1 191:1 223:1 369:1 371:1 415:1 565:1 1214:1 
480.7165053870163 8:1 11:2 15:1 16:1 17:1 22:1 28:2 32:1 37:1 48:1 81:1 82:1 85:1 87:1 520:2 601:1 673:1 760:1 
512 36:1 38:1 40:1 44:1 47:1 49:1 154:1 312:1 407:1 
512 1:1 57:1 69:1 73:1 195:1 
108.5515071618151 6:2 15:1 23:1 37:1 42:2 44:2 55:1 63:2 143:1 154:1 249:1 442:1 781:2 
512 3:1 15:1 36:1 37:1 249:1 282:1 296:1 479:1 731:1 
512 3:1 76:1 91:1 162:1 455:1 473:1 486:1 
512 1:1 8:1 22:1 38:1 40:1 42:1 44:1 57:1 65:1 67:1 68:1 76:1 191:1 220:1 223:1 224:1 225:1 226:1 227:1 
512 1:1 3:1 17:1 35:1 36:1 39:2 46:1 76:1 125:1 141:1 189:1 330:1 408:1 427:2 431:1 479:2 560:1 
512 7:1 8:1 47:1 127:1 146:1 443:1 486:2 623:2 
186.7697052286611 1:1 22:1 24:1 35:2 39:2 43:1 46:1 48:1 124:1 129:1 173:1 215:1 559:1 
512 0:1 22:1 23:1 24:1 26:1 30:1 32:1 36:1 143:1 366:1 
512 17:1 125:1 177:1 182:2 379:1 459:1 549:1 
512 15:1 71:3 223:1 287:1 317:1 
512 22:1 24:1 37:1 43:1 51:1 71:1 91:1 105:1 120:2 
512 22:1 32:1 43:1 57:1 58:1 67:1 313:1 333:1 338:1 584:1 
397.9146892203207 0:1 1:2 11:1 15:1 22:2 29:1 76:1 91:1 438:1 443:1 702:2 1093:1 
512 0:1 15:1 23:1 36:2 63:1 93:1 143:1 700:1 701:1 702:1 
512 0:1 1:1 35:1 37:1 38:1 39:1 40:1 43:1 44:1 140:1 332:1 333:1 
512 23:1 30:1 36:1 44:1 143:1 164:1 186:1 
512 1:2 10:1 91:1 223:1 230:1 751:1 
489.9947064138777 3:1 8:1 14:1 15:1 35:3 39:1 45:1 47:1 49:1 202:1 203:1 257:1 282:1 301:1 386:1 533:1 1190:2 
512 11:3 15:1 28:1 32:1 56:1 76:1 97:1 164:2 165:2 166:1 172:1 195:1 268:1 500:1 980:1 1056:1 
512 22:1 24:1 77:1 78:1 177:1 463:1 
369.1648030707664 0:1 3:1 11:1 23:1 30:1 36:1 37:1 47:1 49:1 76:1 140:1 143:1 144:1 159:1 269:1 594:1 673:1 
435.6244515577814 6:1 16:1 22:1 24:1 32:1 37:4 82:1 83:1 88:1 131:1 132:1 133:1 135:1 136:1 204:1 595:1 603:3 697:3 
512 8:1 21:1 36:1 57:1 69:1 72:1 112:1 185:1 202:1 363:1 1028:1 
512 22:1 24:1 29:1 156:1 190:1 192:1 436:1 
512 3:1 15:1 17:1 70:1 71:1 223:1 282:1 287:1 815:1 816:1 
237.0082696325421 1:1 3:1 8:1 37:1 76:1 177:1 178:1 186:1 191:1 320:1 438:2 463:1 869:1 
512 1:1 15:1 16:1 26:1 32:2 37:1 60:1 76:1 77:1 82:1 86:1 91:1 97:1 308:1 309:1 310:1 
512 4:1 35:1 39:1 43:1 89:1 141:2 195:1 221:1 408:1 578:1 714:1 
512 1:1 14:1 22:1 32:1 76:1 91:1 92:1 101:1 177:1 215:1 284:1 440:1 445:1 598:1 
162.0236334369374 0:1 15:1 16:1 30:1 36:1 37:1 38:1 40:1 44:1 77:1 82:1 129:1 143:1 159:1 576:1 
512 0:1 15:1 35:1 37:1 39:1 202:1 203:2 296:1 300:1 301:1 1230:1 
512 1:1 35:1 37:1 76:1 82:1 91:1 182:1 608:1 
512 5:1 37:2 66:1 82:1 91:1 92:1 190:1 274:1 323:1 432:1 524:1 810:1 831:1 
512 1:1 16:1 37:1 82:1 91:1 177:2 376:1 425:1 430:1 
512 3:1 5:1 8:1 10:1 22:1 67:1 69:1 79:1 112:1 179:1 788:1 995:1 
512 3:1 91:1 177:1 182:1 189:1 459:1 845:1 
512 1:1 22:1 24:1 35:1 39:1 43:1 91:1 215:1 289:1 477:1 578:1 585:1 648:1 
512 1:1 33:1 34:1 35:1 36:1 42:1 43:1 46:1 579:1 1256:1 1257:1 
512 3:1 15:1 17:1 46:1 71:3 106:1 112:2 147:1 223:1 287:1 315:2 317:1 
512 0:2 1:1 3:1 4:1 8:2 15:1 28:1 29:1 32:1 35:1 37:1 76:2 140:1 141:1 155:2 190:1 243:1 244:1 425:1 593:1 677:1 
512 15:1 17:1 31:1 48:1 81:1 83:1 87:1 
512 15:1 72:1 76:2 91:1 102:1 103:1 128:1 147:1 346:1 1030:1 
512 0:1 1:2 22:1 24:1 76:1 91:1 413:1 856:2 857:1 1069:1 
323.6185141405412 36:1 47:1 49:1 154:1 204:1 364:1 365:1 599:1 
512 1:1 3:1 17:1 21:1 35:1 147:1 363:1 507:2 791:1 
112.35045577854 1:1 15:1 91:1 177:1 182:1 255:1 263:1 380:1 459:1 870:1 
512 0:1 3:1 14:1 22:1 24:2 30:1 32:1 33:1 37:1 47:1 49:1 57:3 58:2 59:1 60:1 61:1 62:1 63:1 65:1 
512 8:1 11:1 15:2 19:1 36:1 37:1 43:1 68:1 76:1 249:1 392:1 682:1 
299.4097261506683 0:2 4:1 37:1 38:1 40:1 43:1 44:1 48:1 81:1 84:1 87:1 140:1 495:2 
512 37:1 47:1 49:1 57:1 250:1 341:1 500:1 1269:1 
512 0:1 7:1 13:1 24:1 37:1 76:1 112:1 134:1 140:1 255:2 326:1 589:3 
181.0770174828736 22:1 24:1 187:1 328:1 552:1 769:2 
512 1:1 6:1 8:1 32:2 37:2 43:1 72:1 103:1 128:1 147:1 215:1 268:1 359:1 1030:1 1035:1 
501.7261803441513 13:1 22:1 24:1 43:1 162:1 224:1 227:1 411:1 471:1 473:1 553:1 
512 33:1 34:1 36:1 46:1 47:1 76:1 258:1 259:1 264:1 282:1 318:1 538:1 714:1 719:1 921:1 
512 11:1 15:1 32:1 37:1 43:1 82:1 129:1 164:1 187:1 190:1 210:1 358:1 411:1 415:1 523:1 768:1 
512 16:1 37:1 38:1 40:1 43:3 44:1 48:2 82:1 295:2 332:1 333:1 491:2 553:1 768:1 1126:2 1130:1 1131:1 
512 8:1 11:1 22:1 31:1 36:1 47:1 49:1 154:1 164:1 165:1 204:1 524:1 525:1 
512 15:1 16:1 37:1 48:1 81:1 82:1 84:1 86:1 87:1 
512 0:1 1:1 4:1 22:1 24:1 35:1 72:2 76:1 92:1 111:1 423:1 425:1 
512 22:1 24:1 29:1 156:1 190:1 192:1 553:1 558:1 590:1 
512 3:1 15:1 37:2 39:1 42:1 129:1 249:1 407:1 408:1 410:1 411:1 427:1 479:1 508:1 
512 15:1 16:1 37:1 43:1 82:1 125:1 173:1 478:1 553:1 559:1 691:1 
512 0:2 1:2 4:1 15:1 22:1 24:1 57:1 71:1 72:1 86:1 190:1 192:1 436:1 438:1 932:1 
512 10:1 69:1 73:1 202:1 363:1 593:1 660:1 736:1 
512 0:1 1:1 15:1 36:1 37:1 38:1 40:1 44:1 91:1 140:1 146:1 157:1 274:1 276:1 589:1 673:1 
512 36:1 47:1 49:1 154:1 186:1 320:1 341:1 463:1 
512 0:1 1:1 4:1 36:1 47:1 48:1 49:1 57:2 72:1 76:1 86:1 189:1 224:1 437:1 438:1 954:1 1590:1 1664:1 
512 10:1 22:1 57:1 111:1 122:1 202:1 215:1 361:1 392:1 753:1 875:1 1043:1 1044:1 
512 16:1 22:1 30:1 37:2 82:1 83:1 88:1 91:1 96:1 131:1 132:1 133:1 135:1 136:1 204:1 595:2 603:1 697:1 
512 22:1 24:1 43:1 141:1 224:1 427:2 578:1 719:1 720:1 995:1 
512 0:1 3:1 22:1 24:1 69:4 72:1 73:1 79:1 
512 1:1 4:1 32:1 38:1 40:1 44:1 77:1 91:1 129:1 308:1 358:1 576:1 
512 15:1 177:1 182:1 255:1 370:1 425:1 440:1 459:1 870:1 
512 0:1 4:1 23:1 30:1 36:1 37:1 140:1 143:1 376:1 412:1 
512 3:1 15:1 17:1 37:1 46:1 71:1 74:1 76:1 91:1 117:1 175:1 189:1 282:1 285:1 286:2 287:1 
222.2241862029601 0:1 15:1 16:1 23:1 24:1 30:1 32:2 36:1 37:1 59:1 76:1 82:1 86:1 112:1 134:1 143:1 274:1 443:1 
278.6222736520386 14:1 36:1 37:1 47:2 48:2 49:2 56:2 81:2 83:1 84:1 87:2 154:2 
512 1:1 8:1 15:2 125:1 151:1 195:1 260:1 427:2 714:1 719:1 720:1 921:1 1012:2 1013:1 1014:1 
512 15:1 24:1 35:1 37:1 76:1 82:1 92:1 191:1 202:1 203:1 296:1 315:1 865:1 866:1 
512 11:1 22:1 23:1 29:1 30:1 37:1 38:1 40:1 44:1 140:1 
512 1:1 3:1 17:1 35:1 91:1 150:1 195:1 436:1 
67.11023531759358 1:1 3:1 15:3 37:1 48:1 51:1 91:1 243:1 341:1 351:1 593:2 674:1 677:1 
512 22:1 24:1 155:1 590:1 591:1 593:1 594:1 
512 0:1 22:1 23:1 30:1 36:1 143:1 382:1 
512 1:1 37:1 118:1 215:1 740:1 932:1 
385.8772262423574 36:1 47:1 48:2 49:1 56:1 76:1 81:2 83:2 84:1 85:1 87:2 88:1 154:1 
512 1:2 6:1 77:1 91:1 159:1 438:1 
512 29:1 31:1 36:1 47:1 49:1 148:1 154:1 189:1 190:1 192:1 193:1 307:1 
512 0:1 6:1 22:1 32:2 36:1 63:1 143:1 159:1 274:1 633:1 
512 1:1 8:1 19:1 22:1 68:1 76:1 215:1 1047:2 1209:1 
512 0:1 4:1 38:1 40:1 44:1 145:1 224:1 269:1 289:1 642:1 786:1 
512 3:1 17:1 22:1 71:1 91:1 212:1 422:1 
324.4728884016099 0:1 1:1 11:1 32:1 37:1 42:1 43:1 140:1 220:1 223:1 224:1 225:1 226:1 271:1 472:1 
512 22:1 24:1 29:1 32:1 154:1 190:1 192:1 590:1 599:1 601:1 
512 1:1 22:1 24:1 36:1 91:1 149:1 203:1 486:2 623:1 794:1 797:1 799:1 858:1 860:1 861:1 
512 3:1 4:1 6:2 7:1 8:1 9:1 13:1 15:1 37:1 72:1 82:1 91:1 263:1 274:1 781:1 
224.2314512379377 3:1 8:1 10:1 14:1 15:1 24:1 30:1 33:1 37:1 55:1 57:2 58:1 61:1 67:1 189:1 203:1 249:1 279:1 307:1 477:1 760:1 
512 22:1 24:1 43:1 125:1 141:1 289:1 477:1 578:1 585:1 921:1 
484.3577492366491 1:1 8:1 16:1 35:1 37:1 39:1 76:1 82:1 431:1 432:1 435:1 701:1 842:1 
512 1:1 13:1 17:1 36:1 48:1 90:1 91:1 96:1 131:1 132:1 135:1 161:1 230:1 427:1 521:1 850:1 1108:1 
512 5:1 15:1 35:1 36:1 37:1 39:1 76:1 249:1 274:1 427:1 431:1 
512 22:1 24:1 156:1 190:1 192:1 436:1 
512 3:1 15:2 16:1 36:1 37:1 72:2 82:1 91:1 97:1 173:1 427:1 445:1 446:1 447:1 718:1 
512 0:1 14:1 15:1 17:1 24:1 37:1 86:1 89:1 90:1 91:1 92:1 93:1 95:1 96:1 
512 1:1 11:1 15:2 36:1 86:1 90:1 91:1 96:1 97:1 173:1 423:1 446:1 447:1 718:1 
512 1:2 3:2 7:1 8:1 14:1 22:1 24:1 49:1 203:2 255:1 323:3 373:1 438:1 486:1 773:1 860:1 1163:1 1164:1 
512 8:1 22:2 76:1 100:2 103:1 171:1 702:2 1030:1 1093:1 
512 0:1 1:1 4:1 15:1 35:1 39:1 43:1 313:1 330:1 331:1 332:1 333:2 
512 0:1 14:1 69:1 79:1 112:1 202:1 363:1 1028:1 
121.7974904599818 0:2 3:1 14:1 22:1 24:1 30:1 32:1 33:1 37:1 47:1 49:1 57:3 58:2 60:1 61:1 62:1 63:1 65:1 
512 3:1 15:1 16:1 19:1 37:1 47:1 76:2 82:1 91:1 92:1 148:2 204:1 257:1 310:1 322:1 451:1 455:1 
512 22:1 24:1 43:1 141:1 165:1 578:1 590:1 774:1 921:1 995:1 
512 0:1 15:1 37:2 56:1 140:1 186:1 187:1 189:1 190:1 192:1 193:1 307:1 549:1 609:1 
145.5547079588419 0:2 1:1 15:1 22:1 24:1 36:1 37:1 44:1 91:1 116:1 157:1 212:1 215:1 223:1 255:1 413:1 455:1 523:1 677:1 831:1 865:1 870:1 905:1 
512 3:1 22:1 24:1 30:1 32:1 154:1 159:1 165:1 415:1 781:1 1572:1 
512 8:1 15:1 17:1 28:2 30:1 31:2 32:1 37:1 82:1 92:1 97:1 100:1 154:1 178:1 190:1 268:1 269:1 520:2 523:2 538:1 603:1 673:1 810:1 921:1 
512 8:1 15:2 16:1 22:1 36:1 37:1 72:1 82:1 86:1 90:1 91:1 93:1 96:1 112:1 134:1 176:1 
373.2222187906771 22:1 23:1 24:1 63:1 144:1 154:1 159:1 463:1 
512 22:1 42:1 43:1 57:1 65:1 67:1 577:1 584:1 
512 0:1 4:1 37:1 54:1 256:1 330:1 479:1 593:1 657:1 661:1 964:1 
500.2687551866036 1:1 6:1 15:1 16:1 37:1 82:1 86:1 91:1 146:1 376:1 385:1 386:1 
512 3:1 22:1 24:1 35:2 39:2 491:1 508:1 
512 23:1 30:1 36:1 129:1 143:1 203:1 255:1 
512 14:1 22:1 30:1 32:1 33:1 37:1 43:1 57:2 58:2 61:1 63:1 67:1 271:1 584:1 
353.1009723168261 11:1 15:1 36:1 37:1 43:1 82:1 91:1 178:1 189:1 208:1 359:1 413:1 769:1 905:1 1002:1 
512 0:1 1:1 11:1 37:1 42:1 140:1 220:1 223:1 225:1 226:1 227:1 341:1 
512 11:1 15:1 22:1 23:1 30:1 32:1 37:1 42:1 223:2 226:2 249:1 312:1 313:1 
512 0:1 3:2 5:1 6:1 15:2 16:1 37:1 43:1 72:1 82:1 91:1 189:1 355:1 359:1 445:1 700:1 1664:1 
512 0:1 5:1 10:1 69:1 202:1 204:1 524:1 791:1 822:1 
512 1:2 11:1 15:1 17:1 22:1 47:1 57:1 91:2 206:1 309:1 524:2 654:1 666:1 729:1 
512 1:1 15:2 16:1 17:1 22:1 24:1 29:1 31:1 37:1 56:1 82:1 91:1 177:1 255:1 263:1 380:1 870:1 
488.0386304083522 15:1 16:1 37:1 47:1 82:1 91:2 256:2 260:2 265:1 318:1 319:1 321:2 427:2 721:2 1287:1 
512 3:1 15:1 17:1 24:1 35:1 48:1 51:1 150:1 195:1 237:1 341:1 436:1 628:1 
498.8998407785692 22:1 24:2 89:1 155:1 192:1 423:1 590:2 591:2 593:1 594:1 
512 1:1 3:1 10:1 15:1 17:1 91:1 230:1 232:1 751:1 1018:1 1093:1 
512 0:2 1:1 4:1 8:1 11:2 30:1 36:1 42:1 44:1 49:1 63:1 187:1 251:1 
512 1:2 35:1 47:1 76:1 91:1 138:1 202:1 212:1 256:1 742:1 760:1 
512 0:1 5:1 6:1 11:1 22:1 23:1 24:1 30:1 32:3 164:1 165:1 366:1 443:1 
87.09544643139223 1:1 15:1 16:1 29:2 31:1 37:1 76:1 82:1 91:1 154:1 189:1 379:1 380:1 495:1 
94.101034990389 6:1 16:1 37:2 82:1 91:1 96:1 131:1 132:1 133:1 135:1 136:1 204:1 595:2 603:1 697:1 
512 15:2 32:1 36:1 37:1 76:1 155:2 249:1 1287:1 
512 22:1 43:1 57:1 65:1 67:1 226:1 313:1 333:1 392:1 682:1 789:1 
512 0:1 1:1 3:1 7:2 9:1 15:2 22:1 24:1 101:2 274:2 379:1 380:1 1106:2 1187:2 1221:1 1287:1 
512 1:1 11:1 22:1 57:1 76:1 97:1 215:1 341:1 500:1 980:1 1269:1 
512 14:1 35:2 92:1 202:1 477:1 1113:1 1147:1 1217:1 1219:1 1244:1 
512 15:1 16:1 36:1 37:2 76:2 161:1 223:1 249:1 313:2 375:1 523:1 721:1 812:1 831:1 1100:1 
512 1:1 17:1 91:1 131:1 132:1 135:1 215:1 282:1 432:1 571:1 
512 3:1 11:1 15:1 44:1 154:1 164:1 210:1 599:1 
277.3761275721561 15:1 22:1 24:1 31:1 36:1 42:1 43:1 76:2 91:1 129:1 189:1 301:1 379:1 413:1 494:1 495:1 496:1 497:1 
512 1:1 19:1 76:1 91:1 148:2 204:1 282:1 322:1 455:1 642:1 
512 0:1 1:1 4:1 6:1 22:1 23:1 30:1 38:1 40:1 43:1 44:1 77:1 78:1 
512 15:1 17:1 71:3 223:1 285:1 287:1 314:1 315:1 317:1 
186.4246620065136 1:2 15:1 37:1 91:1 319:1 321:2 
512 11:1 15:1 17:1 22:1 23:1 24:1 32:1 36:1 49:1 59:1 76:1 187:2 328:1 358:1 388:1 521:1 552:1 769:2 
512 36:1 47:1 49:1 154:1 162:1 721:1 913:1 
512 0:1 22:1 23:1 30:1 36:1 143:1 382:1 
512 1:1 22:1 24:1 35:1 39:1 43:1 97:1 215:1 313:2 333:2 367:1 
512 1:1 22:1 24:1 30:1 69:1 143:1 203:1 413:1 415:1 418:1 
512 8:1 23:2 30:1 36:1 43:3 143:1 144:1 159:1 165:1 313:2 333:1 577:2 578:1 579:1 649:1 
512 0:1 1:1 4:1 24:1 35:1 39:1 89:1 124:1 128:1 559:1 
512 0:1 6:1 22:1 23:1 30:1 36:1 143:1 274:1 633:1 
512 0:1 1:1 11:1 32:1 37:1 43:1 140:1 164:1 187:1 210:1 223:1 226:1 652:1 768:1 
512 1:2 5:1 8:1 10:3 17:1 202:1 567:2 571:1 572:1 
512 1:1 22:1 24:1 36:1 91:1 203:1 486:2 623:1 794:1 797:1 799:1 858:1 860:1 861:1 
512 232:1 392:1 815:1 
512 22:1 23:1 29:1 30:2 36:1 143:1 144:1 159:1 174:1 255:2 647:1 650:1 
512 1:1 6:1 8:1 22:1 44:1 72:2 92:1 146:1 148:1 164:1 186:2 187:1 189:1 327:1 434:1 588:1 
512 5:1 10:1 22:1 24:1 42:1 43:1 66:1 67:1 69:1 72:1 190:1 
512 15:1 70:1 223:2 363:1 816:1 823:1 
512 1:2 8:1 35:1 71:1 118:1 120:1 256:1 742:1 
512 127:1 526:1 556:1 
512 3:1 15:1 30:1 36:1 56:1 76:1 100:1 105:1 274:1 355:1 366:1 395:1 432:1 677:1 1397:1 
512 1:1 6:1 8:1 22:1 43:1 44:1 72:3 92:1 164:1 186:2 187:1 189:1 327:1 328:1 434:1 
512 0:1 22:1 23:1 30:1 36:1 143:1 274:1 
512 1:2 29:1 91:1 177:1 189:1 190:1 193:1 307:1 376:1 413:2 418:1 430:1 549:1 905:2 
512 0:1 1:1 22:1 24:1 27:1 35:1 38:1 39:1 40:1 42:1 44:1 330:1 
512 1:1 3:2 7:1 8:1 14:1 22:1 24:1 49:1 203:1 255:1 323:3 373:1 438:1 486:1 860:1 1163:1 1164:1 
512 22:1 24:1 38:1 40:1 44:1 289:1 307:1 477:1 585:1 
512 0:1 1:1 3:1 11:1 22:1 24:1 32:1 35:1 91:1 850:1 
512 23:1 30:1 36:1 44:1 143:1 164:1 186:1 
512 3:1 22:1 24:1 35:2 39:2 491:1 
58.5075991763417 0:1 5:1 22:1 24:1 76:2 182:1 274:1 309:1 379:1 386:1 438:1 608:1 609:1 
512 22:1 23:1 24:1 30:1 159:1 161:1 345:1 
512 91:1 677:1 719:1 720:1 
512 22:1 44:1 57:1 65:1 67:1 307:1 334:1 
512 8:1 11:1 15:1 16:1 22:1 32:1 37:1 76:1 82:1 164:1 187:1 210:1 769:2 
27.79704458491877 0:1 1:1 15:2 16:1 22:1 24:1 26:1 37:1 46:1 82:1 111:1 161:1 223:1 380:1 523:1 683:2 684:2 691:1 
512 0:1 10:1 21:1 22:1 24:2 71:1 92:1 122:2 175:1 202:1 361:1 392:1 1043:1 1044:1 
512 33:1 34:1 36:1 319:1 321:1 913:1 923:1 
512 17:1 24:1 91:1 112:1 116:1 361:1 395:1 549:1 
488.528985889931 15:1 36:1 37:1 38:1 40:1 44:1 56:2 76:1 82:1 91:1 129:1 189:1 413:1 496:1 497:1 1350:1 
512 1:1 35:1 91:1 153:1 702:1 
512 8:1 22:2 76:1 91:1 102:1 103:1 163:1 171:1 1030:1 1031:2 
512 0:1 1:1 4:1 11:1 28:1 29:1 32:1 252:1 520:1 
512 8:1 47:1 127:1 173:1 258:1 259:1 260:1 264:1 282:1 302:1 559:1 
512 15:1 36:1 69:1 79:1 91:1 202:1 363:1 677:1 
512 8:1 11:1 16:1 28:1 32:2 37:1 43:1 82:1 91:1 98:1 165:1 182:1 202:1 252:1 268:1 338:1 359:1 
512 15:1 16:1 32:1 37:1 85:1 86:1 163:1 249:1 601:1 603:1 
512 16:1 37:2 82:1 185:1 203:1 296:1 
512 14:2 33:1 34:1 36:1 76:1 92:1 319:1 321:1 354:2 
512 1:1 10:1 11:1 15:1 57:1 91:1 212:1 223:1 330:1 856:1 857:1 
512 8:1 15:1 28:1 32:1 37:2 49:1 76:1 141:1 155:1 172:1 190:1 201:1 243:1 244:1 249:1 
512 1:1 10:1 17:1 32:1 35:1 153:1 203:1 477:1 571:1 812:1 
66.40223519968963 0:1 22:1 24:1 48:1 81:2 87:1 141:1 437:1 538:1 628:1 778:2 
512 1:1 8:1 256:1 258:1 259:1 395:1 913:1 1135:1 1235:1 
512 1:1 15:1 35:2 37:1 39:2 41:1 45:1 76:1 202:1 
512 5:1 15:2 16:1 22:1 35:1 36:1 37:1 38:1 40:1 43:1 44:2 72:1 76:1 82:1 91:1 128:1 147:1 164:1 180:1 186:2 187:1 189:1 193:1 230:1 274:1 309:1 379:1 963:1 
512 23:1 30:1 36:1 93:1 143:1 
512 0:1 29:1 36:2 38:1 40:1 44:1 47:2 49:2 56:1 154:2 495:1 
512 1:1 3:1 6:1 11:1 15:1 16:1 26:1 30:1 32:1 35:1 36:1 37:1 43:1 47:2 49:2 60:1 62:2 77:1 82:1 86:1 91:2 189:2 308:1 374:1 379:1 425:1 657:1 
512 22:1 43:1 57:1 66:1 67:1 250:1 392:1 682:1 769:1 1001:1 1002:1 
512 1:1 22:1 24:1 29:1 37:1 86:1 95:1 161:1 215:1 751:1 753:1 
390.742105814446 17:1 71:1 105:1 111:1 120:2 147:1 212:1 256:1 740:1 742:1 
512 0:1 1:1 8:1 33:1 34:1 36:1 47:1 76:1 116:1 155:1 296:1 318:1 324:1 341:1 395:1 671:1 673:1 674:1 
512 3:1 17:1 43:1 91:1 193:1 397:1 1217:1 1335:1 
512 0:1 1:2 4:1 8:1 17:1 35:1 36:1 39:3 43:1 189:1 386:1 427:1 431:1 701:1 850:1 
5.220904323339401 1:1 15:1 35:3 39:3 43:1 45:1 47:1 127:1 202:1 379:1 
512 0:1 11:1 37:1 76:1 140:1 164:1 165:1 191:1 495:1 524:1 
3.248548651908897 0:1 3:1 15:1 22:1 24:1 76:1 165:1 289:1 477:1 585:1 719:1 720:1 774:4 
480.7241426241241 0:1 1:1 2:1 4:1 6:1 7:1 15:1 36:1 76:1 77:1 146:1 325:1 438:1 451:1 
512 1:2 8:1 15:1 22:1 24:1 37:1 72:1 76:1 91:1 128:1 146:1 147:1 148:1 215:1 230:2 263:1 379:1 380:1 
512 3:1 8:1 22:1 24:1 48:1 69:1 71:1 72:1 134:1 145:1 314:1 674:1 
113.9455613261094 0:1 29:1 31:1 36:1 38:1 40:1 43:1 44:1 47:1 49:1 154:2 495:1 
512 15:1 31:1 36:1 37:1 43:1 56:1 82:1 91:1 129:1 334:1 379:1 413:1 496:1 497:1 526:1 
512 11:1 17:2 24:1 48:1 82:1 140:1 146:1 263:1 276:1 323:1 580:1 860:1 1424:2 
512 1:1 22:1 38:1 40:1 42:1 44:1 57:1 65:1 67:1 68:1 76:1 91:1 191:1 220:1 223:1 224:1 226:1 227:1 
512 11:2 15:1 16:1 32:2 37:1 164:1 165:1 249:1 357:1 358:1 526:1 
512 1:1 5:1 6:2 15:2 32:1 35:1 43:1 76:1 85:1 86:1 268:1 355:1 357:1 359:1 438:1 700:1 
3.834435831618824 8:1 15:1 35:2 37:1 39:1 82:1 431:1 701:2 
512 1:1 11:1 15:1 36:1 90:1 91:1 96:1 132:1 135:1 1108:1 
319.4902186428686 8:1 11:1 13:2 15:1 36:1 37:1 49:1 164:1 165:1 249:1 328:2 459:1 500:1 
512 33:1 34:1 36:1 47:2 91:1 97:1 127:2 258:1 259:1 282:1 302:1 
512 7:1 15:2 17:1 22:1 36:1 37:1 72:1 91:1 128:1 143:1 146:1 147:1 148:1 230:1 1106:1 
512 15:1 29:1 31:1 37:1 44:1 76:1 82:1 164:1 186:2 187:1 189:1 190:1 191:1 192:1 193:1 307:1 
512 1:1 17:1 84:1 97:1 232:2 318:1 815:1 1018:1 
512 3:1 16:1 35:2 37:1 39:1 45:1 47:1 49:1 82:1 367:1 533:1 
339.7449624732646 0:1 4:1 10:1 15:1 37:1 43:1 91:1 97:1 105:1 215:1 249:1 256:1 260:1 427:1 560:1 577:1 593:2 628:1 657:1 660:1 661:1 
512 36:1 69:1 73:1 91:1 202:1 363:1 593:1 660:1 736:1 
512 0:1 1:1 29:1 36:1 37:1 47:1 49:1 141:2 150:2 151:1 153:1 154:1 155:1 156:1 
512 0:1 1:1 4:1 11:1 31:1 89:1 164:1 165:1 204:1 524:1 
512 3:1 15:1 35:2 37:1 39:2 82:1 1120:1 
512 15:1 30:1 32:1 36:1 276:1 337:2 338:1 341:1 
512 57:1 91:1 193:1 223:1 729:1 856:2 874:2 
512 17:1 141:2 190:2 279:2 791:1 954:2 2073:2 
512 1:1 5:1 15:1 72:1 86:1 90:1 91:1 96:1 173:1 263:1 380:1 446:1 
512 22:1 24:1 29:1 43:1 125:1 156:1 190:1 192:1 271:1 
512 0:1 3:1 8:1 22:1 24:1 203:2 243:1 295:1 296:1 298:1 300:1 301:1 1130:1 1131:1 
310.527329615887 22:2 24:2 32:1 42:2 43:2 57:2 58:2 338:1 577:1 954:2 1590:2 
512 1:1 22:1 38:1 40:1 42:1 44:1 57:1 65:1 67:1 68:1 76:1 91:1 191:1 220:1 223:1 224:1 226:1 227:1 477:1 
512 11:1 15:1 16:1 32:1 37:1 76:1 82:1 268:1 
512 1:1 8:1 35:1 48:1 175:1 223:1 1161:2 
512 4:1 71:2 105:1 120:1 212:1 215:1 217:1 219:1 1161:1 
512 0:1 22:1 24:1 48:1 69:2 72:1 141:1 263:1 791:1 
391.4583944958498 15:1 36:1 47:1 49:1 154:1 172:1 341:1 599:1 
512 15:1 70:1 106:1 223:2 816:1 823:1 1007:1 
512 22:1 42:1 43:2 57:1 65:1 67:1 392:1 682:1 789:1 1092:1 
512 0:1 1:1 2:1 3:1 4:1 5:1 6:1 7:1 8:1 9:1 10:1 11:1 13:1 
512 1:1 5:1 7:2 22:1 24:1 36:1 91:1 203:1 323:1 325:1 486:2 663:1 794:1 799:1 800:1 860:1 861:1 1214:1 1228:1 
149.4728077870502 15:1 16:1 22:1 23:1 29:1 30:1 37:1 82:1 86:1 112:1 134:1 
512 15:1 37:1 150:1 173:2 174:1 176:1 185:1 249:1 310:1 341:1 599:1 
512 0:1 1:1 8:1 11:1 14:1 15:1 17:1 37:1 48:1 95:1 186:2 187:1 257:1 386:1 
512 37:1 49:1 526:1 556:1 
512 1:1 22:1 24:1 69:2 91:1 161:1 215:1 223:2 1077:1 1079:1 1279:2 1337:1 
512 1:1 8:2 14:1 15:1 16:1 37:1 43:1 77:1 82:1 101:1 177:1 263:1 268:1 380:1 413:1 423:1 598:1 769:1 905:1 
511.5402924404037 0:1 22:1 24:1 32:1 43:2 271:1 341:1 392:1 682:1 
313.0252176491659 1:2 22:1 51:1 118:1 147:1 161:1 369:1 
512 0:1 1:1 4:1 15:1 23:1 30:1 32:1 77:1 154:1 165:1 186:2 268:1 442:1 
512 5:1 10:1 26:1 32:1 85:1 100:1 116:1 122:2 153:1 181:1 202:1 580:1 831:1 
512 0:1 22:1 23:1 30:1 36:1 143:1 274:1 284:1 286:1 
512 0:1 1:1 4:1 11:1 32:1 43:2 271:1 332:1 333:1 
394.4634631927494 0:1 23:2 30:1 32:1 36:2 284:1 451:1 856:1 
512 1:1 3:1 5:1 15:1 35:1 51:1 106:1 128:1 
512 22:1 26:1 32:1 37:1 366:1 367:1 
512 36:1 47:1 48:1 49:1 81:1 87:1 154:1 155:1 386:1 778:1 
512 8:1 15:1 16:1 22:1 37:1 72:1 100:1 128:1 147:1 182:1 249:1 274:1 702:1 
512 1:1 91:1 100:1 102:1 153:1 
512 1:1 33:1 34:1 35:1 36:1 42:1 43:1 46:1 673:1 842:1 1256:2 1257:2 
512 0:1 1:1 3:1 4:1 8:1 14:1 15:4 35:1 39:2 42:1 92:1 129:2 141:1 312:1 313:1 331:2 407:1 408:2 409:2 411:2 436:2 
512 8:1 76:1 83:1 84:1 232:1 237:1 
239.8931075277985 22:1 24:1 43:1 289:1 332:1 333:1 477:1 585:1 
512 22:1 37:1 43:1 57:2 58:1 62:1 67:1 279:1 280:1 584:1 
512 1:1 15:1 16:1 37:1 82:1 91:1 177:1 182:2 284:1 286:1 379:1 412:1 413:1 459:1 905:1 
512 6:1 22:1 24:1 32:1 48:1 76:1 269:1 443:1 664:1 
512 1:1 3:1 16:1 30:1 33:1 35:1 37:1 39:2 61:1 76:1 82:1 91:1 431:2 432:1 434:1 435:1 
512 22:1 43:2 57:1 65:1 67:1 68:1 392:1 682:1 789:1 
512 0:1 3:1 22:1 23:1 24:1 30:1 32:1 33:1 36:1 95:2 97:1 143:1 159:1 271:1 272:1 
187.6939368102162 63:3 195:1 199:1 490:1 649:1 
383.7595089290714 3:1 37:1 43:1 46:1 55:1 249:1 269:2 577:1 593:2 660:1 661:2 964:1 
295.5273340500515 0:1 1:1 22:1 92:1 116:1 117:1 118:1 120:1 122:1 
512 51:1 69:2 70:1 71:2 79:1 580:1 582:1 
243.1060595913645 3:2 8:1 16:1 35:1 37:1 39:1 47:1 49:1 82:1 185:1 459:1 527:2 533:1 
89.3996995998438 1:1 3:1 8:1 32:1 76:2 111:1 257:1 268:1 369:1 370:1 386:1 395:1 397:1 
512 0:1 1:1 8:1 14:1 15:2 35:1 37:2 39:1 129:1 140:1 141:1 312:1 331:1 407:1 408:1 409:1 410:1 411:1 436:1 
512 0:1 3:1 8:1 22:1 24:1 203:2 243:1 295:1 296:1 297:1 300:1 301:1 
512 1:1 22:1 71:1 147:1 155:1 215:1 315:1 
346.9318605984232 8:1 22:1 24:1 48:2 67:2 111:1 112:1 141:2 145:2 263:1 277:2 279:1 341:1 361:1 789:2 791:1 
512 0:1 22:1 24:1 32:1 43:2 271:1 341:1 392:1 682:1 
512 1:1 7:1 146:1 443:1 486:1 623:1 
512 23:1 36:1 44:1 63:1 143:1 164:1 186:1 
512 7:1 15:1 17:1 22:1 24:1 37:1 72:1 89:1 128:1 146:1 147:1 148:1 230:1 263:1 276:1 380:1 
512 15:1 16:1 29:2 32:1 37:1 43:2 82:1 192:1 195:1 223:1 434:1 527:1 588:1 768:1 954:1 956:1 
512 1:1 57:1 60:1 69:1 71:1 72:1 76:1 111:1 112:1 314:1 361:1 1187:1 
512 5:1 47:1 127:1 302:1 319:1 321:1 
512 0:1 1:1 23:1 30:1 32:1 274:1 
512 6:1 11:1 15:1 36:1 37:1 76:1 91:1 95:1 178:1 186:2 187:1 189:2 249:1 1035:1 
101.7422157311795 1:1 22:1 24:1 35:1 39:3 43:1 215:1 289:1 313:1 477:1 578:2 585:1 648:1 
512 1:1 3:1 8:1 15:1 17:1 29:1 32:1 43:1 164:1 186:1 187:1 208:1 210:1 1233:1 
423.9841299880692 1:1 22:1 24:2 51:1 76:1 91:1 238:3 837:1 
512 22:1 24:1 43:2 289:1 477:1 578:1 585:1 1051:1 
512 0:1 22:1 23:1 30:1 36:1 143:1 148:1 274:1 
512 1:1 361:1 
512 0:1 1:1 4:1 15:1 35:1 39:1 42:1 43:1 129:1 330:1 331:1 332:1 333:1 411:1 
512 1:1 17:1 37:1 71:1 91:1 97:1 223:1 315:1 740:1 815:1 
512 8:1 15:1 36:1 76:1 256:1 258:1 259:1 265:1 1135:1 
512 1:1 15:1 22:1 24:2 32:1 51:1 97:1 203:2 263:1 391:1 415:1 
512 14:1 15:1 16:1 24:1 30:1 32:1 35:1 37:2 47:1 49:1 57:2 58:1 62:1 65:1 249:1 
512 0:1 8:1 14:1 15:1 16:1 37:2 72:1 82:1 95:1 97:1 128:1 147:1 187:1 209:1 654:1 
512 8:3 100:2 202:1 373:1 1100:1 1101:2 
512 1:1 8:1 15:1 36:1 72:2 189:1 190:1 193:1 203:2 434:1 436:1 486:2 623:1 793:2 796:2 
512 37:1 43:1 49:1 112:1 134:1 556:1 
512 15:1 36:1 47:1 48:1 49:1 81:1 87:1 154:1 155:1 778:1 
512 0:1 14:1 15:1 24:1 37:2 44:3 56:1 164:2 185:1 186:3 249:1 
512 0:1 1:1 4:1 35:1 38:1 39:1 40:1 42:1 43:1 44:1 332:1 333:1 
512 0:1 3:1 8:1 22:1 203:1 243:3 295:3 296:1 297:1 298:1 299:1 300:1 301:1 677:1 
42.72964802332989 37:1 448:1 451:1 580:1 654:1 657:2 666:1 831:1 
94.33479400582431 0:2 1:1 22:1 24:1 76:1 91:1 96:1 287:2 317:2 373:1 374:1 375:1 376:1 
16.73698523654224 1:1 14:1 22:1 35:1 37:1 76:2 249:1 427:1 1113:1 1147:1 
512 3:1 10:2 15:1 22:1 24:1 27:1 91:1 392:1 
512 1:1 3:1 22:1 24:1 91:1 177:1 190:1 193:1 307:1 413:1 418:1 463:2 905:1 
512 0:1 1:1 4:1 8:1 36:1 47:1 49:1 72:1 128:1 147:1 154:1 341:1 599:1 607:1 
512 5:1 15:1 36:1 47:1 49:1 56:1 154:1 172:1 524:1 
512 4:1 69:1 458:2 1337:1 1382:2 
512 3:1 15:1 29:1 56:1 93:1 189:1 190:1 192:1 268:1 435:1 437:1 
332.4973193219754 0:2 3:1 4:1 15:1 22:1 24:1 35:1 39:1 45:1 76:1 92:1 202:1 215:1 285:1 295:2 297:1 298:1 299:1 451:1 980:1 
512 3:2 22:1 97:1 185:1 295:1 296:1 397:1 677:1 923:1 
512 5:1 10:1 57:1 195:1 202:2 601:1 648:1 855:2 856:1 857:1 
512 3:1 4:1 8:1 11:1 15:2 16:1 36:1 37:1 72:1 82:1 86:1 128:1 147:1 189:1 263:1 427:2 
512 14:1 29:1 36:1 37:1 40:1 43:1 44:2 47:2 49:2 56:1 154:2 164:1 186:2 187:1 189:1 190:1 192:1 193:1 307:1 609:1 
512 3:2 51:1 97:2 131:1 132:1 135:1 355:1 391:1 666:1 701:1 1014:1 1108:1 
512 15:1 38:1 40:1 44:1 91:1 95:1 127:1 223:1 226:1 369:1 371:1 565:1 1335:1 
512 1:1 15:1 17:1 35:1 41:1 92:1 135:1 351:1 379:1 677:1 965:1 980:1 
219.0146250737103 11:3 15:1 33:1 37:1 92:1 147:1 164:1 173:1 174:1 189:1 202:1 203:1 249:1 382:1 443:1 444:1 
512 4:1 8:1 16:1 37:1 48:1 56:1 76:1 116:1 127:1 182:1 244:1 249:1 286:1 
512 37:1 97:1 150:1 423:1 427:1 718:1 
512 0:1 1:1 3:1 8:1 22:1 24:1 35:3 76:1 185:1 215:1 595:1 865:1 
512 22:1 24:1 43:2 578:1 719:1 720:1 995:1 
418.1597370758158 8:1 35:1 39:2 59:1 72:2 125:1 192:1 202:1 408:1 534:2 535:2 538:1 
512 0:1 1:1 4:1 7:1 11:1 15:1 22:1 29:1 30:1 157:2 158:1 161:1 191:1 1221:1 
512 3:2 22:1 24:1 47:1 91:1 223:1 322:1 
512 1:1 14:1 15:1 35:2 36:1 37:1 76:1 189:1 249:1 427:1 560:1 1219:1 
512 22:1 24:1 29:1 93:1 154:1 189:1 190:1 192:1 268:1 435:1 437:1 599:1 
512 1:2 5:1 10:1 22:1 24:1 51:1 118:1 147:1 155:1 282:2 415:1 
462.1208805349719 6:1 15:1 16:1 22:1 30:1 37:1 72:4 82:1 91:2 128:2 147:2 165:1 327:2 328:2 
512 38:1 40:1 44:1 76:1 97:1 106:1 147:1 157:1 313:1 375:1 
512 22:1 23:1 29:1 30:1 37:1 76:1 140:1 463:1 
512 3:2 5:1 15:1 29:1 35:1 48:1 76:1 263:1 451:1 1335:1 
512 1:1 3:2 6:1 14:1 15:1 24:1 37:1 48:1 49:1 53:1 72:1 112:2 134:2 230:1 355:1 360:1 443:1 663:1 1288:1 
512 1:1 3:1 8:1 15:2 19:1 22:1 29:1 48:1 76:1 155:1 206:1 263:1 341:1 652:1 
230.6847578945133 15:1 32:1 37:1 56:1 85:1 249:1 601:1 603:1 810:1 
512 0:1 15:1 23:1 32:1 36:3 49:2 53:1 159:1 203:1 251:1 274:1 490:1 
512 0:1 11:1 23:1 30:1 36:1 37:1 76:2 140:1 143:1 594:1 774:1 
512 5:1 8:1 43:1 164:2 190:1 210:2 224:1 267:1 269:1 358:1 386:1 769:1 
512 1:1 3:1 8:1 15:1 19:1 22:1 24:1 42:2 43:2 57:1 58:1 68:1 165:1 774:1 954:1 1590:1 
512 0:1 4:1 7:1 15:1 95:1 161:1 191:1 203:1 323:1 324:1 325:1 326:1 
512 0:1 1:1 4:1 11:1 15:1 22:1 23:1 24:1 30:1 32:1 76:1 89:1 95:1 161:1 837:1 
512 1:1 309:1 657:2 666:1 
512 1:1 8:1 10:1 341:1 361:1 942:1 
512 22:1 24:1 35:1 39:1 45:1 408:1 436:1 491:1 508:1 552:1 
512 1:1 15:1 16:1 32:1 37:1 72:1 82:1 91:1 95:1 97:1 128:1 147:1 187:1 209:1 263:1 310:1 367:1 386:1 781:1 813:1 
512 3:1 11:1 15:1 22:1 23:1 29:1 30:1 43:1 129:1 313:1 411:1 
52.86743273292704 3:1 7:2 22:1 24:1 150:1 255:1 415:1 579:1 1187:1 1221:1 
512 7:1 22:1 24:1 30:1 72:1 128:1 147:1 324:1 860:2 
512 3:1 15:1 17:1 47:1 71:1 73:1 202:1 315:1 442:1 671:1 866:1 
512 36:1 69:1 73:1 91:1 112:1 202:1 363:1 1028:1 
512 0:1 1:2 91:1 118:1 282:1 320:1 421:1 422:1 
512 29:1 32:1 36:1 47:1 49:1 154:1 190:1 192:1 590:1 599:1 601:1 
317.3595027863266 3:1 6:2 15:1 32:1 43:1 72:1 85:1 91:1 128:1 147:1 182:1 183:1 189:1 268:1 355:1 359:1 360:1 1030:1 
512 15:1 22:1 23:1 30:1 32:1 37:1 82:1 97:1 186:1 284:1 654:1 837:1 
512 11:2 15:1 16:1 32:2 37:1 38:1 40:1 43:1 44:1 82:1 164:1 165:1 268:1 357:1 
512 22:1 30:8 59:1 199:1 345:1 490:1 647:2 648:1 649:1 650:1 
512 7:1 8:1 22:1 24:1 27:1 36:1 47:1 49:1 77:2 463:1 589:1 673:1 1106:1 
512 3:1 6:2 15:1 16:1 37:1 76:1 82:1 86:1 159:1 193:1 
512 1:1 8:1 11:2 15:1 17:1 24:1 28:1 32:2 37:1 48:1 82:1 178:1 191:1 203:1 268:1 269:1 393:1 520:1 
428.3161238795344 15:1 32:1 37:1 39:1 128:1 129:1 249:1 312:1 331:1 338:1 407:1 408:1 411:1 427:1 921:1 
447.4017075741071 1:2 22:1 24:1 47:1 57:1 58:1 68:3 76:1 91:1 97:2 127:1 313:1 642:2 954:1 1590:1 1624:2 
512 1:1 175:1 202:1 212:1 742:1 1217:1 
512 22:1 24:1 32:1 43:1 57:1 58:1 65:1 313:1 338:1 584:1 954:1 1590:1 
56.95749910079002 15:1 37:1 82:1 315:1 677:1 866:1 
270.6400311670243 1:1 3:1 15:2 16:1 22:1 37:1 148:1 161:1 171:1 230:1 249:1 382:1 636:2 700:1 
512 0:1 1:1 7:1 37:1 77:1 140:1 276:1 323:1 526:1 
512 1:1 3:1 14:1 15:1 16:1 36:1 37:1 72:1 82:1 91:1 101:1 173:2 174:1 176:1 180:1 445:1 1288:1 
512 1:1 17:1 29:1 46:1 76:1 181:1 203:1 268:1 397:1 477:1 718:1 810:1 812:1 813:1 
512 22:1 24:1 36:1 76:1 91:1 177:1 310:1 320:1 435:1 799:2 845:1 869:1 
512 22:1 23:1 24:1 30:2 165:1 
512 16:1 37:1 42:1 43:1 82:1 195:1 261:1 408:1 478:1 479:1 480:1 525:1 
512 1:1 22:1 24:1 77:1 91:2 177:2 463:1 
379.3161459330564 1:1 6:1 8:1 22:1 43:1 72:4 327:1 328:2 434:1 
512 1:1 14:1 15:1 35:1 36:1 37:1 69:1 79:1 91:2 150:1 202:1 363:1 820:2 822:1 823:1 
512 15:1 16:1 37:1 48:1 81:1 82:1 84:1 86:1 87:1 
512 0:1 1:1 4:1 11:1 95:1 187:1 202:1 223:1 369:1 370:1 371:1 565:1 
512 1:2 3:1 4:1 10:1 11:1 76:1 91:1 191:1 766:1 
512 1:1 6:2 8:1 37:1 43:1 72:3 327:1 328:1 434:1 
512 2:1 3:1 17:1 43:1 47:1 91:1 97:1 107:1 179:1 315:1 318:1 604:2 
512 1:2 5:1 10:2 15:1 76:1 91:1 366:1 379:1 571:1 
512 1:1 15:1 37:1 76:1 97:1 593:1 786:1 964:1 
512 1:1 15:1 16:1 37:1 72:1 82:1 86:1 91:1 177:1 
27.59274796515143 3:1 22:1 24:1 47:1 91:1 256:2 257:1 258:1 259:1 260:1 261:1 263:1 264:1 265:1 
512 0:1 1:1 22:1 35:1 203:1 258:1 259:1 296:1 
44.72233175299104 0:1 1:1 5:1 15:1 16:1 22:1 37:1 72:1 76:2 82:1 90:1 91:1 96:1 161:1 397:1 427:1 666:1 
512 0:1 1:1 11:1 37:1 43:1 140:1 392:1 682:1 780:1 
512 0:1 1:1 4:1 8:1 28:1 31:1 32:2 366:1 520:1 521:1 523:1 
196.8919529697394 3:1 6:3 8:1 15:1 16:1 32:1 37:1 43:1 47:1 72:1 82:1 85:1 128:1 147:1 165:1 268:1 338:1 355:1 357:1 359:1 360:1 
512 0:1 22:1 23:1 30:1 36:1 143:1 274:1 284:1 286:1 
512 1:1 8:1 19:2 22:1 55:1 57:1 65:1 67:1 68:1 76:2 195:1 307:1 330:1 774:1 1047:1 1209:1 
512 36:1 69:1 72:1 202:1 361:1 363:1 
512 22:1 24:1 43:2 578:1 719:1 720:1 
512 0:1 1:2 4:1 5:1 8:1 11:1 14:1 15:1 37:1 72:2 86:1 91:1 112:2 127:1 128:1 134:2 141:1 147:1 190:1 201:1 257:1 386:1 427:1 718:1 757:1 
-512 1:1 175:1 202:1 392:1 1100:1 
-512 0:2 1:2 4:1 15:1 22:1 24:1 57:1 71:1 72:1 86:1 190:1 192:1 438:1 590:1 932:1 
-512 14:1 33:1 34:1 37:1 256:1 265:1 319:1 321:1 923:1 
-512 3:1 15:1 35:2 37:1 39:2 82:1 491:1 508:1 
-206.7099578218086 0:1 1:1 3:1 4:1 35:1 38:1 39:1 40:1 42:2 43:2 44:1 332:1 333:1 415:1 479:1 
-512 1:1 22:1 24:1 36:1 91:1 203:1 486:2 623:1 773:1 794:1 797:1 799:1 858:1 860:1 861:1 
-512 8:1 38:1 40:1 44:1 47:1 127:1 302:1 321:1 731:1 1035:1 
-512 0:2 1:1 4:1 8:1 11:2 14:1 15:1 37:1 43:1 48:1 112:1 134:1 204:1 364:1 365:1 
-399.3899528749183 3:1 15:1 36:1 91:1 175:1 284:1 286:2 287:1 965:1 1080:2 
-512 15:1 57:1 76:1 195:1 202:1 494:1 856:1 857:1 1100:2 
-512 22:1 24:1 29:1 125:1 156:1 190:1 192:1 553:1 558:1 
-512 1:1 7:2 22:1 23:1 24:1 146:1 203:1 255:1 276:1 323:2 373:1 486:1 589:1 700:1 860:1 
-512 1:1 11:1 22:1 57:1 76:1 97:1 215:1 341:1 500:1 980:1 1269:1 
-512 1:1 37:1 77:1 91:1 375:1 
-512 3:2 8:1 37:1 43:1 54:1 91:1 92:1 97:1 258:1 260:1 427:1 451:1 473:1 577:1 593:1 628:1 661:1 831:1 
-512 3:1 11:1 15:1 44:1 95:1 164:1 210:1 271:1 
-512 11:1 15:1 16:1 28:1 32:1 37:1 76:1 82:1 
-512 0:1 1:1 37:1 38:1 39:1 40:1 44:1 140:1 331:1 1256:1 1257:1 
-512 0:2 1:2 4:1 11:2 14:1 15:1 32:1 54:1 86:1 92:1 95:2 161:1 280:1 479:1 553:1 
-512 8:1 15:1 35:1 37:1 39:1 82:1 431:1 701:3 2002:2 
-280.3740523627715 0:1 4:1 24:1 30:1 47:1 55:1 89:1 147:2 150:2 152:2 155:1 318:1 584:1 588:1 591:1 1571:1 
-287.6424628128488 0:1 1:1 4:1 8:1 26:2 28:1 32:2 36:1 37:1 49:1 56:1 91:1 190:1 268:1 328:1 346:1 523:1 768:1 
-459.8255758092104 17:1 30:1 39:1 76:1 431:1 1151:1 
-336.5976144472627 0:1 22:1 24:1 38:1 40:1 44:1 47:1 78:1 138:1 140:1 190:3 195:1 223:1 226:1 269:1 289:2 642:1 786:1 1151:1 1214:1 1636:2 
-512 22:1 30:3 436:1 647:1 648:1 649:2 650:1 
-512 8:1 11:1 15:1 17:1 93:1 
-465.0971387254267 8:3 100:2 202:1 373:1 1099:2 1100:1 
-512 0:1 11:1 23:1 30:1 36:1 37:1 76:1 140:1 143:1 
-512 3:1 10:1 21:1 32:1 69:1 79:1 202:1 363:1 
-512 1:1 3:2 14:1 15:1 35:1 36:1 76:1 427:1 560:1 1219:1 
-411.7310545112257 3:1 15:3 17:1 22:1 24:1 35:1 39:1 125:1 129:1 141:2 223:1 312:1 331:1 341:1 408:1 409:1 410:1 411:1 714:1 
-512 15:1 28:1 31:1 32:2 37:1 249:1 366:1 520:1 521:1 523:1 
-512 3:1 4:1 29:1 35:1 111:1 156:1 590:1 1288:1 1664:1 
-512 0:1 22:1 24:1 30:1 32:1 43:2 313:2 333:1 
-72.18777403480517 5:1 11:1 36:1 47:1 49:1 56:1 154:1 163:1 164:1 165:2 524:1 
-512 43:1 127:1 556:1 
-512 3:1 8:1 15:1 19:1 33:1 37:1 71:3 92:1 202:1 
-512 22:1 24:1 43:1 141:1 165:1 578:1 774:1 921:1 995:1 
-512 0:1 22:1 24:1 47:1 76:1 318:1 463:1 
-512 0:1 1:1 3:1 4:1 6:2 7:1 8:1 9:1 13:1 15:1 72:1 91:1 161:1 263:1 274:1 781:1 
-512 3:1 8:1 15:1 30:1 37:1 48:1 51:1 76:1 82:1 97:1 269:1 274:1 391:1 525:1 607:1 666:1 963:1 1214:1 
-512 0:1 3:1 4:1 7:1 13:1 15:2 72:1 128:1 147:1 263:1 323:1 324:1 326:1 367:1 380:1 
-512 6:1 8:1 15:1 16:1 22:1 36:1 37:1 38:1 40:1 44:1 49:1 53:1 77:2 78:2 82:1 526:1 663:1 
-512 8:1 15:2 16:1 22:1 37:1 72:1 82:1 128:1 146:1 147:1 148:1 149:1 263:1 380:1 
-467.3420136633529 1:2 6:1 26:1 32:2 77:1 86:1 91:1 116:1 252:1 308:1 374:1 
-512 1:1 8:1 15:1 22:1 23:1 24:1 36:1 37:1 72:1 76:2 91:1 128:1 147:1 186:1 187:1 189:1 215:1 230:1 243:1 423:1 1287:1 
-512 0:1 1:1 23:1 30:1 36:1 76:1 143:1 154:1 255:1 438:1 588:1 589:1 
-512 1:2 8:1 35:1 117:1 118:1 120:1 256:1 742:1 
-512 0:1 15:1 23:1 30:1 36:1 37:1 143:1 155:1 249:1 
-512 0:1 14:1 69:1 73:1 112:1 202:1 363:1 1028:1 
-327.9800331018243 0:1 1:1 4:1 22:1 29:1 30:1 91:1 154:1 165:1 186:2 654:1 837:1 1120:1 
-512 4:1 14:1 24:2 29:1 35:1 37:1 82:1 89:2 111:1 155:1 156:1 192:1 301:1 425:1 590:1 591:1 1288:1 
-424.7154976125336 4:1 11:1 32:1 36:1 42:1 43:1 47:1 49:1 154:1 223:2 226:2 271:1 312:1 313:1 341:1 407:1 
-512 1:2 15:1 35:1 37:1 49:1 91:1 128:1 203:1 988:1 
-512 11:1 37:1 47:1 56:1 91:1 127:1 154:1 164:1 165:1 524:1 
-512 0:1 11:1 23:1 30:1 36:1 37:1 140:1 143:1 526:1 
-512 1:1 3:1 22:1 24:1 29:1 48:2 56:1 81:1 84:1 87:1 1509:1 
-512 0:1 1:1 4:1 5:1 8:1 11:1 22:1 164:1 165:1 524:1 599:1 1015:1 
-512 22:1 43:1 57:1 65:1 67:1 226:1 277:1 313:1 333:1 392:1 682:1 
-512 1:1 3:1 10:1 15:1 17:1 91:1 107:1 230:1 232:1 392:1 751:1 
-512 1:2 5:1 10:2 15:1 76:1 91:1 366:1 379:1 571:1 
-512 36:1 69:1 72:1 202:1 361:1 1007:1 
-512 32:1 33:1 36:1 43:1 57:1 61:1 65:1 67:1 250:1 271:1 307:1 
-512 15:1 16:1 37:1 43:1 82:1 173:1 478:1 538:1 553:1 559:1 691:1 
-512 0:1 22:1 30:1 36:1 286:1 1572:1 
-512 202:1 856:1 857:1 
-294.6754397150531 4:1 22:1 29:1 30:1 36:1 47:2 49:1 55:1 60:1 150:1 155:1 257:1 551:2 673:1 959:2 960:2 1626:2 
-512 7:1 8:1 15:1 36:1 37:1 38:1 40:1 44:1 47:1 49:1 77:1 249:1 589:1 673:1 1106:1 
-472.1815875011958 1:2 11:1 47:1 57:1 71:1 91:1 175:1 223:1 230:1 257:1 314:1 386:1 751:1 965:1 1100:1 
-512 29:1 36:1 44:1 47:1 49:1 56:1 154:1 164:1 186:2 187:1 190:1 192:1 307:1 435:1 
-512 11:1 15:1 28:1 37:1 249:1 252:1 520:1 
-412.0241013803213 1:1 8:1 15:1 36:1 51:1 69:1 71:1 73:1 91:1 150:1 202:1 363:1 677:1 820:1 822:1 932:1 
-417.1352448371587 1:1 22:1 24:1 69:2 91:1 161:1 215:1 223:2 1035:1 1077:1 1079:1 1279:2 1337:1 
-512 0:1 1:1 4:1 35:1 39:1 42:1 43:1 313:1 330:1 333:1 479:1 
-509.2106214504448 1:1 5:1 10:1 17:1 91:1 97:1 571:1 603:1 
-457.4061114551934 22:1 24:1 77:1 177:2 440:2 463:1 1928:2 
-512 3:1 8:1 15:1 16:1 22:1 24:1 30:1 33:1 37:1 38:1 40:1 44:1 61:1 77:1 129:1 249:1 576:1 
-512 1:1 3:1 35:2 91:1 202:1 315:1 760:1 800:1 
-512 11:1 22:1 30:1 32:1 37:1 38:1 40:1 43:1 44:1 48:1 140:1 332:1 333:1 526:1 
-512 1:2 3:2 6:1 46:1 77:1 100:1 103:1 131:1 132:1 135:1 412:1 860:1 1108:1 
-512 15:1 17:1 37:1 70:1 71:1 106:1 223:1 287:1 815:1 816:1 
-512 36:1 47:1 48:2 49:1 56:1 81:2 83:2 84:1 85:1 87:2 88:1 154:1 
-512 57:1 69:2 72:1 73:1 202:3 363:1 1007:1 
-370.8150569867973 17:1 37:1 82:1 162:2 249:1 721:1 913:1 915:2 1393:2 1394:2 1395:2 
-512 15:1 37:1 165:1 249:1 301:1 380:1 
-184.9204668825589 15:1 91:1 118:1 315:1 369:1 421:1 422:1 434:1 980:1 
-512 1:1 15:1 16:1 24:1 35:1 37:1 46:1 48:1 97:1 249:1 415:1 1112:2 1113:1 1546:2 
-512 22:1 23:1 24:1 29:1 30:2 72:1 125:1 190:1 193:1 434:1 
-512 1:1 7:1 22:1 24:1 159:1 203:1 276:1 323:1 486:2 623:1 800:1 1228:1 
-512 15:1 17:1 97:1 131:1 132:1 135:1 282:1 
-512 1:1 22:2 32:1 76:1 91:2 100:1 102:1 171:1 443:1 702:2 1056:1 
-512 1:2 6:1 32:2 76:1 91:1 285:1 443:2 654:1 664:1 
-512 15:1 106:1 458:2 791:1 1337:1 
-512 1:1 5:1 11:3 15:1 22:1 23:1 30:1 37:1 43:1 76:1 164:1 182:1 215:1 355:1 359:1 445:1 459:1 656:1 700:1 
-512 1:1 15:1 91:1 125:1 151:1 427:2 436:1 714:1 921:1 1013:1 1014:2 
-512 15:1 17:1 76:1 84:1 91:1 155:1 212:1 232:1 237:1 980:1 
-512 1:1 3:1 17:1 35:1 91:1 153:1 432:1 671:1 
-512 11:4 15:1 16:1 23:1 30:1 32:1 37:1 43:3 62:1 68:2 82:1 128:2 159:1 164:1 165:1 271:1 284:1 595:1 
-512 15:1 16:1 22:1 37:1 72:1 82:1 128:1 146:1 147:1 148:1 149:1 
-35.57576692133211 2:1 3:3 14:1 15:2 86:1 90:1 173:2 230:1 257:1 386:1 423:1 446:1 447:1 1014:1 1303:1 
-512 35:1 37:2 175:1 215:1 932:1 
-512 10:1 17:1 153:1 432:1 671:1 
-512 1:1 47:1 69:2 73:1 79:1 
-512 14:1 22:1 24:1 32:1 37:1 42:1 43:2 47:1 49:1 57:1 58:1 225:1 227:1 243:1 255:1 392:1 471:1 595:1 682:1 769:1 789:1 954:1 1002:1 1590:1 
-512 26:1 32:1 36:1 37:1 49:1 366:1 367:1 388:1 
-512 5:1 6:1 7:1 8:2 11:1 17:1 48:1 207:1 386:1 494:1 544:1 1106:1 1152:1 
-512 15:1 17:1 35:1 39:1 97:1 330:1 431:1 850:1 
-512 30:1 37:2 82:1 83:1 88:1 91:1 92:1 96:1 131:1 132:1 133:1 135:1 136:1 257:1 603:1 697:1 
-512 8:1 15:1 16:1 37:1 82:1 173:1 258:1 259:1 260:1 264:1 282:1 559:1 
-512 1:1 3:1 15:1 37:1 86:1 91:1 230:1 295:1 330:1 677:1 751:1 
-512 1:1 14:2 20:1 21:1 69:1 79:1 202:1 361:1 363:1 
-371.219362959681 1:2 19:1 22:1 24:1 39:1 68:4 76:1 91:2 215:1 1047:1 
-512 1:2 97:1 148:1 204:1 230:1 232:1 391:1 392:1 
-512 3:1 6:1 11:2 15:2 16:1 32:2 33:1 36:2 37:1 43:1 49:1 53:1 82:1 91:1 141:1 157:1 164:1 165:1 268:1 272:1 328:1 355:1 523:1 663:1 
-512 1:1 17:1 84:1 97:1 232:1 318:1 815:1 
-512 15:1 71:3 223:1 287:1 317:1 
-243.6996169062114 14:1 32:1 36:1 37:1 42:1 43:2 47:2 49:2 154:2 223:2 226:2 271:1 312:1 313:1 392:1 407:1 682:1 
-512 3:1 15:1 17:1 19:1 72:1 91:1 92:1 324:1 341:1 671:1 673:2 674:1 
-512 8:2 16:1 24:1 37:1 47:2 82:1 92:1 256:1 258:1 259:1 264:1 265:1 318:2 719:2 921:1 
-44.73420166960292 1:1 15:1 16:1 37:1 77:1 82:1 86:1 91:1 157:1 367:1 413:1 905:1 
-512 5:1 11:1 36:1 47:1 49:1 56:1 154:1 164:1 165:1 185:1 524:1 
-512 0:1 22:1 23:1 30:1 36:1 44:1 143:1 164:1 186:2 187:1 
-512 1:1 22:1 57:1 65:1 67:1 68:1 76:1 91:1 125:1 141:1 165:2 189:1 224:1 296:1 307:1 774:2 855:1 1051:1 
-402.9521009969951 4:1 11:1 22:1 24:1 30:1 42:1 43:1 204:1 364:1 365:1 860:1 1571:1 
-512 22:1 36:1 258:1 259:1 
-6.475331715067766 1:1 11:1 15:1 22:1 26:1 28:1 32:1 36:1 37:1 76:1 77:2 91:1 215:1 257:1 357:1 379:1 413:1 905:1 
-512 3:1 8:1 15:2 16:1 19:1 24:1 37:1 68:1 82:1 165:1 191:1 341:2 444:1 1047:1 
-512 8:1 15:1 32:1 37:2 49:1 76:1 141:1 155:1 172:1 190:1 201:1 243:1 244:1 249:1 268:1 
-512 1:1 35:1 91:1 111:1 112:1 153:1 988:1 1035:1 
-512 1:1 22:1 24:1 36:1 91:1 203:1 486:2 623:1 794:1 799:1 858:1 860:1 861:1 1228:1 
-512 3:1 5:1 15:1 35:3 37:1 39:2 72:2 82:1 189:1 410:1 479:1 508:1 1230:1 
-471.0483370062518 17:1 57:1 91:1 223:1 856:1 875:1 
-512 22:1 24:2 30:2 57:1 58:1 59:1 63:2 72:1 154:1 199:1 490:1 523:1 
-512 14:1 15:1 16:1 35:2 37:1 82:1 477:1 1113:1 1147:1 1217:1 1219:1 
-512 0:1 3:1 8:1 22:1 24:1 203:2 243:1 295:1 296:1 299:1 300:1 301:1 1130:1 1131:1 
-512 0:1 1:1 4:1 22:1 29:1 30:1 91:1 154:1 165:1 186:2 654:1 837:1 1120:1 
-512 22:1 57:1 67:1 223:1 226:1 250:1 313:1 341:1 769:1 789:1 1001:1 1002:1 
-512 3:1 10:2 15:1 22:1 24:1 27:1 91:1 392:1 
-512 15:1 16:1 37:1 48:1 81:1 82:1 83:1 86:1 87:1 
-512 0:1 1:1 10:1 22:1 26:1 30:1 32:1 36:1 143:1 274:1 444:1 1571:1 
-512 6:1 15:1 16:1 22:1 30:2 37:1 72:3 82:1 91:1 128:1 147:1 327:1 328:1 
-512 1:1 8:1 15:1 36:1 72:2 189:1 190:1 193:1 203:2 434:1 486:2 590:1 623:1 793:2 796:2 
-512 0:1 1:1 4:1 15:1 35:1 38:1 39:1 40:1 44:1 330:1 331:1 332:1 333:1 
-257.856897017354 1:1 7:1 8:1 22:1 24:1 36:2 49:1 149:1 203:1 255:1 323:3 373:1 486:1 860:1 1164:1 
-512 15:1 22:1 23:2 29:1 30:1 37:1 143:1 154:1 159:1 249:1 442:1 463:2 
-512 30:1 32:1 36:1 43:1 47:1 49:1 116:1 154:1 186:1 320:1 392:1 463:1 682:1 769:1 1002:1 
-512 0:1 1:1 16:1 22:1 23:1 24:1 26:1 27:1 28:1 29:1 30:1 31:1 32:1 
-512 0:1 22:1 23:1 36:1 44:1 143:1 159:1 164:1 186:2 187:1 
-512 22:1 24:1 43:2 289:1 313:1 477:1 585:1 1051:1 
-512 6:1 22:1 24:1 29:1 154:1 189:1 190:1 192:1 437:1 598:1 599:1 
-512 0:1 1:1 4:1 6:1 154:1 185:1 204:1 463:2 595:1 
-512 0:1 4:1 7:1 8:1 15:1 76:1 161:1 191:1 203:1 324:1 325:1 326:1 861:1 
-512 0:1 3:1 8:1 22:1 24:1 203:2 243:1 295:1 296:1 299:1 300:1 301:1 
-512 1:1 33:1 34:1 36:1 91:1 97:1 258:1 259:1 282:1 
-512 3:1 74:1 91:1 117:1 175:1 284:1 286:1 287:1 370:1 1080:1 
-491.2357797622926 1:1 3:1 8:1 14:1 15:1 16:1 24:1 36:1 37:1 72:1 82:1 91:1 95:1 128:1 147:1 186:2 187:1 360:1 
-400.0419782971589 0:1 1:1 4:1 11:2 38:1 40:1 43:1 44:1 164:1 173:1 174:1 185:1 271:1 332:1 333:1 526:1 
-512 1:1 8:1 19:2 36:1 37:1 39:1 68:1 76:2 215:1 322:1 850:1 1047:1 1209:1 
-512 22:1 24:1 35:1 39:1 125:1 408:1 491:1 508:1 552:1 
-512 1:1 91:1 100:1 102:1 153:1 
-512 71:2 223:1 287:1 315:1 
-512 47:1 57:1 69:1 127:1 212:1 223:1 677:1 822:1 1035:1 1077:2 
-512 57:1 76:1 195:2 202:2 855:2 857:1 
-512 15:1 16:1 37:1 48:2 81:2 82:1 83:1 84:1 85:1 86:2 87:2 88:1 
-512 36:1 69:1 79:1 202:1 363:1 593:1 660:1 736:1 
-512 22:1 24:1 29:1 43:1 145:1 156:1 192:1 271:1 590:1 837:1 
-480.2741702235223 11:1 15:1 17:1 32:1 42:1 44:1 164:1 171:1 210:1 786:1 
-512 15:1 91:1 118:1 315:1 369:1 421:1 422:1 434:1 980:1 
-512 1:1 84:1 118:1 237:1 421:1 422:1 815:1 
-512 1:1 15:1 16:1 37:1 77:1 82:1 86:1 91:1 157:1 367:1 413:1 905:1 
-483.9173290629599 1:1 6:1 32:1 37:1 43:1 72:1 91:1 98:1 116:1 128:1 147:1 182:1 268:1 359:1 367:1 1035:1 
-512 1:1 8:1 71:1 101:1 118:1 120:1 386:1 421:1 422:1 
-404.9401231564991 0:1 1:1 14:1 23:1 125:1 177:1 320:2 379:1 440:1 
-369.2798916492933 1:1 6:1 8:1 22:1 44:1 72:2 92:1 146:1 148:1 164:1 186:2 187:1 189:1 190:1 193:1 434:1 437:1 588:1 
-512 1:1 15:1 16:1 26:1 32:2 37:1 60:1 77:1 82:1 86:1 91:1 252:1 308:1 
-512 1:1 6:1 32:2 37:2 43:1 72:1 91:1 98:1 128:1 147:1 182:1 215:1 268:1 359:1 810:1 1035:1 
-512 4:1 22:1 24:1 35:1 72:1 76:1 111:1 155:1 425:1 
-512 17:1 22:1 24:1 37:1 51:1 71:3 91:1 223:1 287:1 315:1 317:1 
-512 3:1 15:1 17:1 37:1 46:1 71:1 74:1 76:1 91:1 117:1 175:1 189:1 282:1 284:1 285:1 286:1 287:1 
-402.88605696029 1:1 14:1 15:1 35:1 36:1 37:1 69:1 73:1 91:2 150:1 202:1 363:1 820:2 822:1 823:1 
-512 16:1 37:1 42:1 43:1 82:1 125:1 261:1 408:1 478:1 479:1 480:1 
-103.2642564986891 15:1 17:1 19:1 42:1 43:1 72:1 91:1 92:1 324:1 341:1 652:1 671:1 673:2 674:1 
-512 15:2 17:1 32:1 35:1 37:1 224:1 307:1 319:1 321:1 954:1 1590:1 
-425.7136870657159 4:1 11:1 32:1 37:1 38:1 40:1 44:1 76:1 252:1 1152:1 1270:2 
-512 8:1 22:1 24:2 38:1 40:1 44:1 195:1 256:1 427:2 436:1 588:1 719:2 720:2 721:1 
-512 0:1 1:1 11:1 37:1 95:1 140:1 187:1 223:1 369:1 370:1 371:1 
-512 0:2 1:1 5:1 11:1 22:1 23:1 24:1 30:1 32:1 37:1 76:1 140:1 143:1 393:1 442:1 
-512 22:1 24:1 42:1 43:2 289:1 477:1 585:1 1051:1 
-512 1:1 10:1 17:1 32:1 35:1 153:1 203:1 477:1 571:1 812:1 
-69.16814746425047 3:1 15:1 17:1 48:1 71:2 91:1 105:2 219:2 582:1 
-420.1027506744766 4:1 69:1 458:2 1337:1 1382:2 
-512 15:1 17:1 35:1 
-135.8989193242766 1:1 14:2 20:1 21:1 69:1 73:1 202:1 361:1 1007:1 
-285.7545842484323 8:1 15:1 16:1 17:1 24:1 36:1 47:1 48:1 49:1 81:1 83:1 84:1 85:1 87:1 88:1 154:1 155:2 423:2 
-512 0:1 1:1 4:1 15:1 35:1 39:1 42:1 129:1 330:1 331:1 411:1 780:1 
-512 0:1 3:1 11:2 22:1 23:1 24:1 30:1 37:1 38:1 40:1 43:1 44:1 47:1 49:1 62:1 76:2 140:1 144:1 159:1 164:1 271:1 332:1 333:1 526:1 588:1 
-512 1:1 8:1 19:1 22:1 68:1 76:1 141:1 190:1 215:1 590:1 757:1 1047:1 1209:1 
-512 15:1 35:1 202:1 223:1 719:1 760:1 833:1 
-512 3:1 5:1 8:1 10:1 22:1 67:1 69:1 79:1 112:1 179:1 788:1 
-512 0:1 1:1 4:1 35:1 39:1 42:1 43:1 407:1 427:1 995:1 
-512 4:1 35:2 39:1 43:1 124:1 128:1 330:1 850:1 
-512 14:1 37:1 47:1 49:1 154:1 162:1 721:1 913:1 
-512 22:1 24:1 43:1 141:1 224:1 307:1 427:2 578:1 719:1 720:1 995:1 
-512 4:1 11:1 15:1 16:1 22:1 23:1 30:1 32:1 36:1 37:1 76:1 82:1 86:1 91:1 95:1 
-512 22:1 24:1 32:1 42:1 43:1 57:1 58:1 65:1 66:1 338:1 577:1 768:1 780:1 954:1 1590:1 
-512 8:1 22:1 37:1 76:1 100:2 103:1 171:1 702:2 1030:1 1093:1 
-30.879453145356 1:1 16:1 19:1 37:1 68:1 76:1 82:1 91:1 189:1 190:2 192:1 432:1 434:1 590:1 1047:2 
-512 0:1 22:1 23:1 30:1 36:1 143:1 274:1 284:1 286:1 
-344.8162317499032 1:1 22:1 24:1 36:1 91:1 203:1 486:2 623:1 773:1 794:1 797:1 799:1 858:1 860:1 861:1 
-152.9210559222338 3:1 5:1 10:1 15:1 17:1 91:1 369:1 753:1 1335:1 1664:1 
-395.8620751998799 3:2 15:1 36:1 101:1 131:1 132:1 135:1 161:1 173:2 174:2 176:1 177:1 180:1 189:1 230:1 963:1 1108:1 
-505.2096080651936 1:2 8:2 11:1 14:1 15:1 32:1 37:1 86:2 95:3 96:1 215:1 330:1 553:1 
-512 7:1 8:1 47:1 127:1 146:2 443:1 486:1 623:1 
-512 5:1 11:1 14:1 22:1 37:1 47:1 49:1 154:1 164:1 165:1 524:1 599:1 
-512 0:1 1:1 4:1 11:1 43:1 392:1 682:1 780:1 
-512 15:1 17:1 29:1 38:1 40:1 44:1 56:2 82:1 154:1 185:1 
-44.45555768806277 5:1 8:1 15:1 17:1 76:1 129:1 164:2 166:1 190:1 210:2 244:1 267:1 269:1 598:1 599:1 647:1 
-512 22:1 42:1 43:1 57:1 65:1 67:1 307:1 577:1 
-512 1:1 16:1 37:1 82:1 91:1 125:1 177:2 376:1 430:1 552:1 
-512 1:1 8:1 256:1 258:1 259:1 379:1 395:1 913:1 1135:1 1235:1 
-512 22:1 24:1 43:2 307:1 578:1 719:1 720:1 
-512 6:1 15:1 32:1 37:1 48:1 76:1 178:1 249:1 346:1 438:2 448:1 
-512 8:1 23:1 36:1 76:1 92:1 117:1 118:1 120:1 122:2 200:1 421:1 422:1 580:1 588:1 1043:1 1044:1 
-512 15:1 16:1 32:1 37:1 76:1 82:1 86:1 90:1 91:1 95:1 96:1 187:1 367:1 769:1 
-512 11:1 22:1 23:1 29:1 30:1 37:1 44:1 140:1 
-512 0:1 23:1 30:1 36:1 1572:1 
-512 5:1 33:1 34:1 36:1 319:1 321:1 
-512 1:1 3:1 8:2 15:1 16:1 37:1 82:1 101:1 146:1 276:1 451:1 1228:1 1664:1 
-512 3:1 8:1 15:1 17:1 39:1 49:1 92:1 
-512 1:1 33:1 34:1 35:1 36:1 43:1 46:1 332:1 333:1 673:1 842:1 1256:2 1257:2 
-512 1:1 16:1 35:1 37:1 39:1 42:2 43:1 46:1 76:1 82:1 331:1 408:1 432:1 435:1 552:1 842:1 845:1 
-512 22:1 43:2 57:1 65:1 67:1 68:1 392:1 682:1 
-512 15:1 91:1 118:1 315:1 369:1 421:1 422:1 434:1 980:1 
-512 22:1 37:1 43:1 57:2 58:1 62:1 67:1 279:1 280:1 789:1 
-338.4228610828473 0:1 5:1 10:1 22:1 24:1 97:1 122:2 361:1 392:1 942:1 1043:1 1044:1 1354:2 
-512 1:1 15:1 17:1 72:1 86:1 91:1 92:1 177:2 
-512 1:2 3:1 4:1 10:1 11:1 76:1 91:1 183:1 191:1 766:1 
-512 3:2 24:1 37:1 89:1 97:1 295:1 296:1 397:1 677:1 923:1 
-512 29:1 32:1 36:1 47:1 49:1 154:1 155:1 190:1 192:1 393:1 423:1 590:1 598:1 
-512 1:1 22:1 24:1 30:1 69:1 143:1 199:1 203:1 413:1 415:1 418:1 
-512 0:1 3:1 8:1 22:1 24:1 203:2 243:1 295:1 296:1 297:1 300:1 301:1 1130:1 1131:1 
-266.6474203468528 10:1 56:1 127:1 191:1 341:1 500:5 556:1 769:1 1002:1 1269:1 1509:1 
-340.1281021216033 17:1 71:1 91:1 223:1 287:1 314:1 740:1 856:1 874:2 965:1 
-512 1:1 8:1 22:1 24:1 35:1 39:1 124:1 129:1 173:1 215:1 386:1 559:1 560:1 
-354.119820102416 0:2 1:2 4:2 14:1 15:1 36:1 37:1 86:1 91:1 93:1 112:2 134:2 141:1 176:1 180:1 189:1 190:1 230:1 427:1 552:1 718:1 757:1 963:1 
-512 3:1 11:1 13:2 15:2 23:1 36:1 37:1 43:1 47:1 49:1 82:1 91:1 164:1 165:1 182:1 328:2 355:1 359:1 459:1 657:1 700:1 
-512 1:1 22:1 24:1 36:2 49:1 91:1 116:1 177:1 203:1 255:1 323:2 486:1 623:1 773:1 797:1 1164:1 
-512 1:1 32:2 60:1 77:1 91:1 177:1 252:1 308:1 358:1 440:1 
-512 14:1 15:1 16:1 36:1 37:2 72:1 82:1 86:1 91:1 95:1 128:1 147:1 164:1 187:1 209:1 210:1 385:1 386:1 
-512 0:1 3:1 5:1 8:1 15:1 22:1 35:1 39:2 47:1 60:1 72:1 127:1 203:1 301:1 
-512 1:1 15:1 28:1 37:1 76:2 82:1 91:1 92:1 163:1 203:1 397:1 432:1 445:1 477:1 718:2 812:1 988:1 
-512 8:1 22:1 24:1 48:2 66:1 67:2 111:1 112:1 141:2 145:2 263:1 277:1 279:1 341:1 361:1 788:1 789:1 791:1 
-512 8:1 15:1 36:1 76:1 258:1 259:1 913:1 1135:1 
-512 15:1 16:1 36:1 37:1 72:1 76:1 82:1 90:1 91:1 93:1 95:1 96:1 128:1 147:1 
-512 1:2 6:1 11:1 17:1 32:1 91:1 97:1 157:1 296:1 358:1 1217:1 
-512 0:1 11:1 23:1 30:1 36:1 37:1 43:2 140:1 143:1 313:2 333:1 577:1 
-512 1:1 8:1 256:1 258:1 259:1 395:1 913:1 1135:1 1235:1 
-512 0:1 1:1 4:1 29:1 37:1 150:1 155:1 156:1 163:1 
-512 0:1 1:1 5:1 15:1 35:1 37:1 41:1 51:1 116:1 282:1 351:1 
-512 37:1 82:1 182:1 608:1 1571:1 
-512 3:1 15:3 17:1 22:1 24:1 35:1 39:1 129:1 141:2 223:1 312:1 331:1 341:1 408:1 409:1 410:1 411:1 436:1 714:1 
-377.45072913564 37:1 203:1 215:1 296:1 300:1 432:1 455:1 486:1 1161:1 1540:2 
-36.78569003492553 0:1 4:1 76:1 151:1 195:1 221:1 260:1 407:1 427:5 436:3 590:1 677:1 714:4 995:1 
-428.104586460277 1:1 8:1 19:2 22:1 55:1 57:1 65:1 67:1 68:1 76:2 195:1 330:1 774:1 788:1 1047:1 1209:1 
-512 15:1 16:1 37:1 44:1 82:1 86:1 90:1 91:1 95:1 96:1 367:1 
-121.4179477450665 22:1 43:1 57:1 65:1 67:1 226:1 313:1 333:1 392:1 584:1 682:1 
-512 0:1 1:1 4:1 5:1 11:1 15:1 22:1 32:1 36:1 38:1 40:1 43:1 44:1 91:1 164:2 189:1 203:1 210:2 
-512 0:1 1:1 37:1 39:1 140:1 223:1 226:1 313:1 331:1 1256:1 1257:1 
-512 17:1 43:1 46:1 269:1 436:1 437:1 577:1 591:1 593:2 660:1 661:2 964:1 
-512 3:1 7:2 22:1 24:1 150:1 255:1 415:1 579:1 1187:1 1221:1 
-512 1:1 8:1 256:1 258:1 259:1 379:1 395:1 913:1 1135:1 1235:1 
-512 3:1 17:1 59:1 147:1 223:1 415:1 719:1 731:1 736:1 
-512 0:1 1:1 11:2 15:2 22:1 24:1 32:1 37:1 76:1 203:1 315:1 427:1 657:1 865:1 866:1 
-19.99538283287923 3:1 22:1 24:1 69:3 72:1 73:1 79:1 415:1 
-512 0:1 3:1 14:1 15:1 22:1 35:1 39:1 51:1 76:1 92:1 127:1 301:1 427:1 430:1 
-260.9094354232271 14:1 15:1 17:1 24:1 37:1 39:2 42:1 89:1 129:2 312:1 313:1 341:1 407:1 408:1 409:1 410:1 411:2 436:1 479:1 588:1 
-512 15:1 19:1 37:1 76:1 91:1 97:1 148:2 204:1 249:1 282:1 322:1 391:1 455:1 642:1 
-512 0:1 1:1 4:1 15:1 35:1 39:1 43:1 330:1 331:1 332:1 333:1 334:1 
-512 21:1 22:1 24:1 36:1 51:1 91:1 833:1 
-512 22:1 24:1 43:1 141:1 165:1 578:1 648:1 774:1 921:1 995:1 
-512 57:1 69:1 73:1 202:1 1318:2 
-512 1:1 17:1 35:1 76:1 91:1 141:1 215:1 258:2 386:1 
-512 0:1 1:1 4:1 35:1 39:1 43:1 313:1 330:1 333:1 479:1 578:1 
-512 2:1 3:1 6:1 14:1 15:1 17:1 37:1 48:1 49:1 53:1 112:1 134:1 230:1 355:1 360:1 443:1 663:1 664:1 
-512 37:1 43:1 49:1 101:1 182:1 459:1 556:1 598:1 
-512 1:2 15:1 17:1 35:4 37:1 69:1 82:1 91:1 178:1 202:1 223:1 
-512 3:1 58:1 69:1 71:1 73:1 91:1 111:1 112:1 202:1 314:1 361:1 494:1 1007:1 1335:1 
-512 36:1 47:1 49:1 56:1 112:1 134:1 150:1 154:1 173:1 176:1 190:1 192:1 310:1 437:1 768:1 
-231.2477933664967 1:1 15:1 22:1 32:1 36:1 72:1 76:2 171:2 308:1 382:1 451:1 544:1 1056:1 1641:3 
-512 0:1 1:1 4:1 8:1 11:1 14:1 22:1 24:1 26:1 32:2 91:1 190:1 268:1 269:1 284:1 520:1 523:1 538:1 603:1 810:1 921:1 
-512 22:1 24:1 125:1 156:1 190:1 192:1 
-512 22:1 24:1 72:2 97:1 155:1 373:1 427:1 718:1 
-512 1:1 3:1 15:1 24:1 35:3 39:1 41:1 45:1 48:1 257:1 386:1 595:1 
-512 17:1 30:1 39:1 76:1 379:1 431:1 
-512 15:1 16:1 29:2 32:1 37:1 43:3 82:1 192:1 223:1 282:1 434:1 527:1 588:1 590:1 768:1 954:1 956:1 
-512 0:1 1:1 4:1 35:1 39:1 42:1 427:1 719:1 720:1 
-512 0:1 1:1 22:1 85:1 97:1 127:1 175:2 341:1 524:1 
-512 1:3 6:1 8:2 36:1 37:1 49:1 53:1 86:1 116:1 146:1 149:1 230:1 412:1 603:1 663:1 697:1 
-512 0:1 3:1 8:1 22:1 24:1 203:2 243:1 295:1 296:1 298:1 300:1 301:1 
-512 0:1 4:1 38:1 40:1 42:1 44:1 129:2 226:2 313:1 411:2 584:1 593:1 661:1 964:1 1051:1 
-512 0:1 14:1 15:1 17:1 24:1 31:1 37:1 44:3 89:1 164:1 186:3 
-512 0:1 22:1 24:1 29:1 36:2 47:1 49:1 63:1 76:1 143:1 154:1 155:1 423:1 1571:1 
-248.8271407171403 1:2 3:2 7:1 8:1 14:1 22:1 24:1 49:1 203:2 255:1 323:3 373:1 438:1 486:1 860:1 1163:1 1164:1 
-512 1:1 37:1 91:1 100:1 
-186.1038429935512 7:1 15:2 17:1 22:1 23:1 32:1 38:1 40:1 43:1 44:1 63:1 91:1 146:1 157:1 161:1 185:1 203:1 274:1 358:1 1221:1 
-512 1:2 11:1 15:1 17:1 22:1 47:1 57:1 91:2 206:1 309:1 524:2 654:1 666:1 794:1 
-512 15:1 17:1 48:1 81:1 82:1 87:1 155:1 778:1 
-512 0:1 5:1 10:1 22:1 24:1 97:1 122:2 361:1 392:1 942:1 1043:1 1044:1 1354:2 
-512 0:1 1:1 4:1 7:1 15:1 23:1 44:1 63:1 95:1 157:2 158:1 159:1 161:1 162:1 163:1 
-512 0:1 1:1 4:1 10:1 15:1 28:1 32:1 36:1 91:1 207:1 366:1 523:1 1056:1 
-512 35:1 37:1 39:1 43:1 125:1 140:1 141:2 408:1 578:1 714:1 
-512 11:3 15:1 28:1 32:1 56:1 76:1 97:1 164:2 165:2 166:1 172:1 195:1 268:1 500:1 980:1 1056:1 
-512 1:1 5:1 16:1 30:1 35:1 37:1 39:2 43:1 76:1 82:1 91:1 379:1 431:2 843:1 1151:1 
-10.06023500384338 2:1 7:1 8:1 15:1 17:1 22:1 29:1 36:1 38:1 40:1 44:1 47:1 49:1 77:2 125:1 141:1 500:1 589:1 673:1 1106:1 
-512 1:1 11:2 15:1 17:1 32:1 37:1 43:1 91:1 164:1 187:1 210:1 520:1 652:1 
-274.8950563758601 0:1 1:1 3:1 15:2 32:1 36:2 38:1 40:1 44:1 47:1 49:1 76:1 154:1 155:3 1287:2 
-512 1:1 3:1 15:1 16:1 37:1 76:1 82:1 91:1 181:1 203:1 296:2 300:1 386:1 486:1 
-512 1:1 5:1 8:1 14:1 15:1 16:1 37:2 72:2 82:1 91:1 112:2 127:1 128:1 134:2 141:1 147:1 190:1 201:1 427:1 718:1 757:1 
-512 0:2 1:2 4:1 5:1 36:1 37:1 47:1 49:1 140:1 155:1 164:2 189:2 195:1 200:1 210:2 423:1 647:1 657:1 673:1 
-512 0:1 6:1 22:1 23:1 32:1 36:1 143:1 159:1 274:1 633:1 
-512 3:1 8:1 11:1 15:1 22:1 37:1 43:1 48:1 91:1 215:1 286:1 346:1 355:1 359:1 373:1 477:1 700:1 760:1 
-512 3:1 8:1 14:1 15:4 16:1 35:1 37:1 39:2 42:1 129:2 140:1 141:1 312:1 313:1 331:2 407:1 408:2 409:2 411:2 436:2 
-512 37:1 89:1 203:1 215:1 296:1 
-512 0:1 1:1 4:1 15:1 35:1 39:1 43:1 313:2 330:1 331:1 333:1 
-491.9243402280374 0:1 1:1 4:1 8:1 15:1 36:1 86:1 148:2 230:1 572:1 603:1 
-512 0:1 1:1 10:1 16:1 24:1 36:1 47:1 48:1 49:1 51:1 53:1 54:1 55:1 56:1 
-512 22:1 32:1 43:1 57:1 58:1 67:1 313:1 333:1 338:1 789:1 
-512 3:2 22:1 24:1 47:1 91:1 223:1 322:1 
-512 1:1 15:1 35:3 37:1 39:2 41:1 45:1 202:1 
-512 1:1 6:1 11:1 15:1 26:1 32:1 76:1 86:1 91:1 157:2 263:1 268:1 274:1 357:1 413:1 905:1 
-512 0:1 22:1 24:1 57:1 86:1 875:1 
-460.1412442751219 3:3 22:1 30:2 32:1 62:1 77:1 154:1 199:1 255:1 310:1 486:1 781:1 860:1 1303:1 
-512 127:1 526:1 556:1 
-512 8:1 15:1 16:1 36:1 37:1 76:1 77:2 82:1 103:1 147:1 412:1 413:1 
-393.791080524518 11:3 14:1 15:1 16:2 22:1 28:1 32:1 37:1 49:1 57:2 76:2 82:1 164:1 165:1 169:1 251:1 268:1 656:1 
-512 11:2 15:1 16:1 28:1 32:2 37:1 38:1 40:1 43:1 44:1 82:1 164:1 165:1 357:1 
-437.8070217293845 3:1 5:1 15:1 16:1 35:2 37:1 41:1 82:1 91:1 185:1 257:1 351:1 
-512 3:1 4:1 8:1 15:1 35:1 39:2 45:2 97:1 185:1 491:1 503:2 
-512 0:1 22:1 24:1 36:1 63:1 93:1 143:1 159:1 
-512 11:1 13:1 15:2 36:1 37:1 43:1 47:1 49:1 82:1 164:1 165:1 182:1 328:1 355:1 359:1 459:1 700:1 
-325.0535658602928 0:2 3:1 8:1 37:1 185:1 203:2 243:3 294:2 295:2 296:1 297:1 298:1 299:1 300:1 301:1 
-512 1:1 15:2 16:1 17:1 22:1 24:1 29:1 31:1 37:1 56:1 82:1 91:1 177:1 255:1 263:1 380:1 869:1 870:1 
-512 17:1 71:1 91:1 105:1 106:1 107:1 111:1 112:1 
-512 1:2 8:1 35:1 71:1 118:1 120:1 202:1 256:1 742:1 
-512 1:1 6:1 8:1 14:1 37:1 49:1 53:1 86:1 215:1 663:1 
-512 0:1 1:1 11:1 23:1 30:1 37:1 76:1 95:1 140:1 
-512 15:1 35:1 36:1 37:1 56:1 76:1 82:1 677:1 1397:1 
-512 15:1 17:1 32:1 85:1 86:1 92:1 601:1 603:1 
-512 0:1 1:2 22:1 24:1 76:1 91:1 374:1 413:1 856:2 857:1 1069:1 
-512 3:1 15:1 16:1 37:1 38:1 40:1 43:3 44:1 48:2 82:1 295:2 332:1 333:1 415:1 491:2 553:1 768:1 1126:2 1130:1 1131:1 
-512 0:1 1:1 4:1 8:1 11:1 29:1 32:1 185:1 186:1 187:1 189:1 190:1 192:1 193:1 307:1 443:1 495:1 1350:1 
-512 17:1 22:1 32:1 91:1 206:1 308:1 753:1 980:1 
-512 15:1 70:1 106:1 223:2 816:1 823:1 1007:1 
-512 0:2 3:2 23:1 91:1 105:1 140:1 223:1 371:1 565:1 1303:1 
-512 1:1 8:1 35:1 223:1 1069:1 1161:1 
-512 0:1 6:1 22:1 23:1 30:1 36:1 143:1 274:1 633:1 
-512 3:1 15:2 16:1 19:1 37:1 48:1 76:2 82:1 91:1 92:1 134:1 148:1 204:1 263:1 322:1 434:1 451:1 455:1 
-451.0538371643701 1:1 8:1 15:1 22:2 29:1 32:1 72:1 76:1 91:1 98:1 100:1 102:1 128:1 147:1 171:1 182:1 189:1 308:1 702:2 1056:1 
-512 1:3 3:1 11:1 14:1 22:1 29:1 32:1 86:1 91:1 92:1 97:1 164:1 187:1 208:1 210:1 215:1 427:1 1233:1 
-471.2820039115392 14:1 22:1 24:1 30:1 32:2 36:1 37:1 415:1 589:1 1214:1 1571:1 1572:1 
-512 0:1 6:1 22:1 23:1 30:1 36:1 143:1 274:1 633:1 
-512 22:1 24:1 43:1 141:1 165:1 578:1 774:1 995:1 
-512 22:1 24:1 29:1 44:1 154:1 164:1 186:2 187:1 189:1 190:1 192:1 435:1 437:1 598:1 599:1 
-512 3:1 5:1 6:1 7:1 9:1 11:1 13:1 15:1 16:1 29:1 37:1 72:1 76:1 82:1 91:1 189:1 204:1 274:1 
-512 1:1 69:2 70:1 71:1 72:2 74:1 76:1 580:1 
-512 0:1 1:1 37:1 39:1 43:1 140:1 331:1 332:1 333:1 1256:1 1257:1 
-512 0:1 11:1 23:1 30:1 36:1 37:1 140:1 143:1 144:1 159:1 252:1 255:1 
-512 0:1 1:1 4:1 11:1 22:1 30:1 32:1 43:1 48:1 313:1 427:1 719:1 720:1 
-512 3:2 5:1 10:1 15:2 22:1 43:1 48:1 164:1 210:1 269:1 392:1 423:1 582:1 682:1 820:1 
-512 2:1 8:1 14:1 15:2 17:1 37:1 86:1 90:1 91:1 93:1 96:1 112:1 134:1 176:1 230:1 257:1 386:1 423:1 442:1 
-512 22:1 44:1 57:1 65:1 67:1 334:1 584:1 
-512 22:1 39:1 43:1 82:1 141:1 578:1 714:1 
-512 6:2 7:1 13:1 15:1 36:1 76:1 91:1 172:1 193:1 199:1 427:1 861:1 
-512 37:1 38:1 40:1 43:2 44:1 105:1 295:2 1130:1 1131:1 1346:2 
-512 0:1 1:1 23:1 30:1 36:1 143:1 274:1 500:1 
-512 22:1 43:1 57:1 67:1 250:1 392:1 584:1 682:1 769:1 1001:1 1002:1 
-512 1:1 22:1 24:1 30:1 69:1 143:1 203:1 345:1 413:1 415:1 418:1 
-512 8:1 15:2 16:1 22:1 36:1 37:1 72:2 82:1 90:1 91:1 93:1 96:1 112:1 128:1 134:1 147:1 176:1 
-512 22:1 44:1 57:1 65:1 67:1 334:1 789:1 
-512 22:1 24:1 29:1 32:1 154:1 190:1 192:1 393:1 590:1 598:1 599:1 
-134.0301875298248 1:1 8:1 11:1 17:1 32:1 66:1 91:1 92:1 116:1 153:1 190:1 432:1 571:1 
-512 0:1 5:1 22:1 23:1 24:1 30:1 32:1 36:1 143:1 274:1 393:1 
-512 8:1 11:1 15:2 19:1 32:1 36:1 37:1 43:1 68:1 76:1 249:1 271:1 
-512 0:1 11:1 23:1 30:1 36:1 37:1 38:1 40:1 44:1 76:1 140:1 143:1 159:1 165:1 526:1 
-512 0:1 29:1 31:1 36:1 43:1 47:1 49:1 154:2 495:1 526:1 
-512 1:1 11:1 91:1 106:1 212:1 223:1 479:1 856:1 857:2 1093:1 
-388.15379047855 1:1 22:1 24:1 36:1 91:1 203:3 773:1 793:2 794:1 796:1 797:1 799:1 800:1 
-512 1:1 3:1 6:1 8:1 22:1 43:1 44:1 72:3 92:1 164:1 186:2 187:1 328:1 434:1 657:1 
-512 3:1 22:1 24:1 69:3 72:1 73:1 79:1 415:1 
-512 8:1 11:3 15:1 22:1 32:1 37:1 82:1 164:2 165:1 189:1 520:1 
-512 4:1 10:1 22:1 26:1 32:1 37:1 100:1 103:1 147:1 366:1 525:1 
-512 1:1 22:1 24:1 71:1 97:1 391:1 415:1 
-512 22:1 23:1 24:1 30:2 93:1 144:1 
-36.86553906900685 3:3 11:1 15:1 36:1 76:1 97:1 140:1 164:1 203:1 210:1 341:1 380:1 413:1 477:1 500:1 552:1 657:1 725:2 769:1 1002:1 1303:1 1509:1 
-512 0:1 1:1 4:1 8:1 11:1 17:1 28:1 32:1 55:1 56:1 190:1 268:1 269:1 366:1 520:1 523:1 538:1 594:1 603:1 
-512 3:1 15:1 29:1 32:2 36:1 37:1 131:1 132:1 135:1 161:1 186:2 187:1 268:1 413:1 905:1 1014:1 1108:1 
-512 1:1 22:1 24:2 57:1 69:1 71:1 72:1 76:1 89:1 111:1 112:1 163:1 314:1 
-512 22:1 43:2 57:1 65:1 67:1 68:1 392:1 584:1 682:1 
-512 3:2 22:1 23:1 28:1 29:1 30:1 32:1 77:1 97:1 185:1 
-512 0:1 2:1 4:1 7:1 263:1 323:1 324:1 325:1 326:1 380:1 1244:1 
-512 0:1 1:1 4:1 8:1 17:1 32:1 56:1 85:1 601:1 603:1 1015:1 
-79.49325380665901 3:1 29:1 76:1 97:1 125:1 186:1 187:1 190:1 192:1 260:1 1335:1 
-512 1:1 3:1 7:1 13:1 15:1 36:1 72:1 128:1 147:1 161:1 191:1 203:1 324:1 438:1 861:1 
-512 51:1 69:2 70:1 71:2 73:1 580:1 582:1 
-512 11:1 15:1 16:1 22:1 32:1 37:1 76:1 82:1 284:1 366:2 523:1 
-512 0:1 1:1 5:1 16:1 24:1 27:1 37:1 76:1 82:1 89:1 105:1 141:1 145:1 155:1 166:1 187:2 244:1 267:1 268:1 269:1 
-512 15:1 91:1 118:1 315:1 369:1 421:1 422:1 434:1 980:1 
-512 11:1 15:1 16:1 22:1 30:1 37:1 48:1 82:1 144:1 255:1 589:1 657:1 769:1 
-512 4:1 8:1 22:1 35:1 39:1 43:1 45:1 76:2 578:3 
-512 3:1 8:1 37:2 91:1 185:1 203:1 215:1 296:1 
-512 1:1 8:1 35:1 48:1 175:1 223:1 1161:2 
-512 0:1 1:1 4:1 15:1 35:1 39:1 43:1 313:1 330:1 331:1 333:1 578:1 
-512 3:1 5:1 11:3 37:1 49:1 92:1 164:1 173:4 174:2 355:1 360:1 443:1 444:1 445:1 446:2 447:2 556:1 
-512 15:1 17:1 48:1 81:1 87:1 155:1 778:1 1244:1 
-512 8:1 76:1 83:1 84:1 232:1 237:1 
-512 29:1 31:1 36:1 47:1 49:1 93:1 154:1 189:1 190:1 192:1 268:1 435:1 437:1 
-512 16:1 37:1 42:1 43:1 82:1 195:1 408:1 478:1 479:1 691:1 
-512 1:1 8:1 35:1 48:1 175:1 223:1 1161:1 
-512 22:1 24:1 42:1 43:1 289:1 477:1 585:1 
-512 7:1 15:1 16:1 37:1 72:1 82:1 95:1 128:1 147:1 323:1 324:1 325:1 
-512 22:1 23:1 24:1 30:1 44:1 144:1 159:1 164:1 186:1 
-512 1:1 22:1 38:1 40:1 42:1 44:1 57:1 65:1 67:1 68:1 76:1 191:1 220:1 221:1 223:1 224:1 225:1 226:1 227:1 
-512 0:2 1:1 22:1 24:1 76:1 91:1 96:1 287:2 317:2 373:1 374:1 375:1 376:1 
-512 1:1 3:1 17:1 91:1 107:1 223:1 729:1 815:2 1093:1 
-512 30:1 32:1 43:2 165:1 313:2 333:1 580:1 
-359.0878102671327 1:1 33:1 34:1 35:1 36:1 46:1 223:1 226:1 313:1 673:1 842:1 1256:2 1257:2 
-512 8:1 76:1 83:1 84:1 97:1 98:1 100:1 101:1 102:1 103:1 
-512 0:1 4:1 7:1 8:1 36:1 47:1 49:1 77:2 549:1 589:1 673:1 1106:1 
-512 1:1 6:1 11:1 17:1 22:1 24:1 37:1 78:1 97:1 131:1 132:1 135:1 161:1 165:1 191:1 603:1 697:1 856:1 1108:1 
-512 2:1 11:1 15:1 17:1 36:1 76:1 90:1 91:1 93:1 95:1 96:1 
-512 0:1 15:1 23:1 36:2 37:1 140:1 143:1 155:1 159:1 165:1 289:2 
-286.3112140696323 15:1 16:1 37:1 48:1 56:1 76:1 91:1 92:1 98:1 127:1 182:1 191:1 215:1 244:1 1509:1 
-512 0:1 5:1 10:1 22:1 24:1 97:1 122:2 361:1 392:1 942:1 1043:1 1044:1 1354:2 
-512 0:2 1:1 15:1 16:1 22:1 24:1 37:1 56:1 82:1 91:1 177:1 217:1 255:1 440:1 870:1 
-512 22:1 38:1 40:1 42:1 44:1 57:1 65:1 67:1 223:1 226:1 307:1 
-512 0:1 5:1 22:1 24:1 76:2 182:1 274:1 309:1 379:1 438:1 608:1 609:1 
-512 22:1 24:1 156:1 190:1 192:1 437:1 
-512 3:1 4:1 8:1 11:1 95:1 187:1 202:1 223:1 369:1 778:1 1335:1 
-512 5:1 6:1 22:1 24:1 32:2 36:1 49:1 366:1 388:1 443:1 
-512 0:1 5:1 10:1 15:1 37:1 41:1 51:1 282:1 296:1 351:1 642:1 
-276.5031028254638 0:1 4:1 42:1 43:2 47:2 138:2 190:1 224:1 313:1 415:1 471:1 472:1 593:1 661:1 768:1 964:1 1092:1 
-512 0:1 1:1 35:1 37:1 39:1 42:2 43:1 140:1 
-512 22:1 43:1 57:1 65:1 66:1 67:1 68:1 
-512 1:2 8:1 10:1 11:3 17:1 22:1 32:1 38:1 40:1 44:1 125:1 126:1 141:1 164:2 165:1 
-59.27145226916289 3:2 5:1 10:1 15:3 19:1 43:1 68:1 76:1 392:1 682:1 1047:1 
-512 22:1 24:1 38:1 40:1 44:1 289:1 477:1 584:1 585:1 
-512 0:1 1:1 11:2 37:1 42:1 43:1 62:1 140:1 150:1 164:1 173:1 174:1 185:1 271:1 310:1 
-359.1202495773557 33:1 36:1 43:1 57:1 61:1 65:1 66:1 67:1 250:1 
-289.8183225545818 30:1 36:1 59:1 186:1 187:1 553:1 1571:1 1572:1 
-279.8168662484572 47:1 49:1 57:1 69:1 106:1 212:1 223:1 677:1 822:1 1035:1 1077:2 
-512 0:1 1:1 4:1 14:1 30:2 32:1 35:1 36:1 37:1 47:2 49:2 57:2 58:1 60:2 62:2 63:2 76:2 263:1 865:1 
-512 0:1 23:1 24:1 30:2 36:1 59:1 143:1 202:1 345:1 346:1 
-512 3:1 8:1 16:1 37:2 76:1 82:1 87:1 101:2 147:1 173:2 174:1 175:1 176:1 177:1 178:1 179:1 183:1 189:1 413:1 445:1 869:1 905:1 
-512 22:1 24:1 42:1 47:1 138:1 190:1 223:1 226:1 289:1 593:1 642:1 
-308.9687134709749 11:1 15:1 26:1 28:1 30:1 32:1 37:1 56:1 82:1 92:1 97:1 182:1 189:1 608:1 1287:1 1571:1 
-512 1:2 91:1 125:1 177:1 189:1 376:1 379:1 413:2 430:1 440:1 905:2 
-208.718400855796 3:1 8:1 11:1 15:2 17:1 32:1 33:1 36:1 42:1 44:2 103:1 187:2 203:1 272:1 477:1 812:1 
-512 0:1 15:1 35:1 37:1 39:1 127:1 203:2 296:1 300:1 301:1 
-52.03697864376842 15:1 17:1 37:1 49:1 76:1 91:1 127:1 1151:1 1163:1 1247:2 
-512 3:1 15:1 17:1 24:2 48:1 82:1 282:1 296:1 479:1 731:1 
-512 0:1 23:1 37:1 76:1 140:1 182:1 589:1 
-512 15:2 24:1 35:1 36:1 59:1 71:1 106:1 120:1 202:1 932:1 
-512 14:1 15:1 16:1 36:1 37:2 86:1 90:1 91:1 93:1 95:1 96:1 249:1 385:1 386:1 
-512 1:2 8:1 19:2 22:1 24:1 47:1 57:1 65:1 67:1 68:3 76:2 89:1 125:1 127:1 141:1 195:1 224:1 307:1 774:2 855:1 1047:1 1209:1 
-512 1:1 3:2 14:1 15:1 35:1 36:1 76:1 1219:1 
-512 43:1 127:1 526:1 556:1 
-512 8:1 10:1 14:1 15:1 21:1 22:1 24:1 36:1 112:1 190:1 215:1 341:1 361:1 789:2 791:2 954:1 1590:1 
-237.5408518554552 11:1 23:1 30:1 37:1 43:4 140:1 159:1 313:3 333:1 577:3 578:1 579:1 
-512 0:1 1:1 4:1 35:2 37:1 38:1 39:1 40:1 42:1 43:1 44:1 140:1 332:1 333:1 
-512 15:1 16:1 37:1 43:1 82:1 173:1 408:1 436:1 478:1 553:1 559:1 691:1 
-512 22:1 24:1 32:1 42:1 43:1 57:1 65:1 338:1 577:1 954:1 1001:1 1590:1 
-489.4091337929692 8:1 14:1 15:1 16:1 24:1 36:1 37:1 44:2 72:1 82:1 95:1 128:1 147:1 164:1 186:2 187:1 
-512 0:1 4:1 23:1 30:1 36:1 76:1 143:1 155:1 
-512 0:1 1:1 4:1 35:1 38:1 39:1 40:1 43:1 44:1 332:1 333:1 
-423.5205386496213 22:1 42:1 43:2 57:1 65:1 67:1 277:1 392:1 682:1 1092:1 
-512 0:1 22:1 24:1 48:1 69:2 79:1 141:1 263:1 791:1 
-512 15:1 36:1 69:1 73:1 91:1 202:1 363:1 677:1 
-512 1:1 14:1 33:2 34:2 35:2 36:1 37:1 38:1 39:1 40:1 41:1 42:1 43:1 44:1 45:1 46:1 
-512 1:1 10:1 15:1 17:1 71:1 84:1 91:1 118:1 282:1 
-301.9780888290452 8:1 14:2 15:1 36:1 68:1 76:1 95:1 127:1 191:1 223:1 369:1 371:1 415:1 565:1 1214:1 
-512 0:1 4:1 43:1 91:1 97:1 105:1 215:1 260:1 427:1 577:1 593:2 628:1 660:1 661:1 1015:1 
-512 15:1 17:1 22:1 32:1 36:1 37:1 72:1 76:1 91:1 98:1 103:1 128:1 140:1 147:1 263:1 382:1 451:1 1056:1 
-512 0:1 1:1 4:1 82:1 155:1 837:2 838:2 
-512 23:1 30:1 36:1 143:1 252:1 
-512 1:1 3:1 46:1 148:2 193:1 230:1 
-512 0:1 22:1 23:1 30:1 36:1 143:1 274:1 284:1 286:1 
-507.7870837756652 1:1 8:1 15:1 36:1 51:1 69:1 71:1 73:1 91:1 150:1 202:1 363:1 677:1 820:1 822:1 932:1 
-512 6:1 15:1 16:1 24:1 37:1 48:1 76:1 146:1 163:1 203:1 249:1 274:1 276:1 323:1 781:1 860:1 1152:1 
-512 15:1 32:1 37:1 39:1 129:1 249:1 312:1 331:1 338:1 407:1 408:1 411:1 427:1 921:1 
-512 1:1 22:1 24:1 36:1 76:1 91:2 177:1 310:1 320:1 799:1 869:1 
-512 3:1 15:1 37:1 48:2 51:1 76:1 82:1 129:1 312:1 315:1 430:2 866:1 
-512 1:1 6:1 37:1 77:1 91:1 375:1 
-512 3:1 5:1 15:1 35:3 37:1 39:2 72:2 82:1 189:1 410:1 479:1 508:1 1230:1 
-512 3:1 14:1 33:1 34:1 37:1 76:1 319:1 321:1 
-512 1:1 3:1 5:1 8:1 11:1 15:1 47:1 76:1 257:1 341:1 423:1 593:2 677:1 769:1 1002:1 
-512 1:1 15:1 36:1 37:1 76:1 82:1 91:1 101:1 173:2 180:1 189:1 230:1 445:1 446:1 447:1 1287:1 
-512 29:1 31:1 36:1 47:1 49:1 148:1 154:1 189:1 190:1 192:1 193:1 437:1 
-512 1:1 69:2 71:1 72:1 76:1 79:1 580:1 
-512 29:1 36:1 47:1 49:1 56:1 66:1 154:1 186:1 187:1 190:1 192:1 193:1 
-512 0:1 1:1 8:1 14:1 15:2 35:1 37:2 39:1 125:1 129:1 140:1 141:1 312:1 331:1 407:1 408:1 409:1 410:1 411:1 
-512 11:3 14:1 15:1 16:2 22:1 28:1 32:1 37:1 49:1 57:2 76:2 82:1 164:1 165:1 169:1 251:1 268:1 656:1 
-512 3:2 8:1 22:2 24:2 47:1 76:1 165:1 257:1 465:3 
-512 1:2 6:2 26:1 32:1 77:1 86:1 91:1 116:1 252:1 374:1 
-512 15:1 16:1 37:1 86:1 91:1 97:1 187:1 209:1 249:1 654:1 
-512 15:1 16:1 36:1 37:1 72:1 76:1 82:1 90:1 91:1 93:1 95:1 96:1 128:1 147:1 
-512 0:1 1:1 3:1 4:1 8:1 15:1 76:1 177:1 186:1 191:1 320:1 438:1 443:1 463:1 869:1 
-512 0:1 1:1 4:1 24:1 76:1 89:1 150:1 173:2 174:1 176:1 310:1 341:1 599:1 
-265.9743323022156 3:3 6:1 7:2 9:1 13:1 14:1 15:1 72:3 91:1 140:1 204:1 263:1 274:1 360:1 434:1 1187:1 1288:1 1303:1 
-512 3:1 8:1 15:1 203:1 296:2 391:1 486:1 544:1 549:1 
-512 37:1 38:1 40:1 44:1 49:1 76:1 556:1 
-287.6425358696275 0:1 1:1 3:1 4:1 22:1 33:1 35:1 55:1 57:1 61:1 76:1 91:1 97:2 182:1 215:1 379:1 459:1 495:1 1509:1 
-512 1:1 8:1 36:1 69:1 73:1 202:1 363:1 593:1 660:1 736:1 791:1 1350:1 
-512 15:2 16:1 36:1 37:1 76:1 82:1 86:1 180:1 186:1 187:1 189:1 193:1 230:1 274:1 309:1 379:1 963:1 
-512 1:1 22:1 32:1 37:2 44:1 47:1 49:1 92:1 95:1 203:1 249:1 427:1 
-512 1:1 10:1 202:1 279:1 301:1 341:1 500:1 788:1 1269:1 
-512 0:1 1:2 4:1 22:1 32:1 76:1 85:1 91:2 100:1 102:1 189:2 230:1 274:1 443:1 544:1 702:2 
-512 22:1 57:1 204:1 524:1 1079:1 
-512 1:1 8:1 15:1 91:1 151:1 195:1 260:1 427:2 648:1 714:1 719:1 720:1 921:1 1012:2 1013:1 1014:1 
-512 0:1 1:1 4:1 7:1 76:1 77:1 91:1 274:1 276:1 
-512 0:1 11:1 23:1 30:1 36:1 37:1 38:1 40:1 43:1 44:1 140:1 526:1 
-324.799673477446 7:3 15:1 17:1 101:1 202:3 274:1 322:1 367:1 1106:1 1221:2 1287:2 
-512 1:2 10:1 11:1 37:1 91:1 127:1 175:1 810:1 
-512 22:1 26:1 32:1 366:1 367:1 
-512 15:2 16:1 36:1 37:1 72:1 90:1 91:1 96:1 97:1 128:1 147:1 173:1 249:1 263:1 423:1 445:1 446:1 447:1 718:1 
-512 15:1 30:2 36:1 37:1 56:1 76:1 249:1 673:1 800:1 1256:1 1257:2 
-512 71:2 105:1 147:1 219:1 810:1 1093:1 
-220.2332273650558 1:1 22:1 24:1 35:1 39:1 215:1 261:1 313:1 427:1 437:1 719:1 720:1 
-512 6:1 23:1 36:1 63:1 78:1 143:1 157:1 
-512 22:1 24:1 156:1 190:1 192:1 553:1 558:1 590:1 
-512 22:1 24:1 32:1 57:1 58:1 65:1 66:1 223:1 226:1 338:1 954:1 1001:1 1590:1 
-191.9064923123071 3:3 6:2 14:1 15:1 24:1 37:1 62:1 76:1 200:1 280:1 346:1 438:1 443:1 544:2 664:1 
-512 14:1 31:2 36:1 37:1 47:2 48:1 49:2 81:1 83:1 84:1 85:1 87:1 88:1 154:2 
-512 0:1 1:1 4:1 5:1 35:1 38:1 39:1 40:1 44:1 72:1 185:1 508:1 578:1 
-512 0:1 1:1 4:1 11:1 42:1 220:1 223:1 225:1 226:1 227:1 341:1 
-512 1:1 37:1 91:1 177:1 320:1 
-353.8023593197505 22:1 42:1 43:2 57:1 65:1 67:1 392:1 584:1 682:1 1092:1 
-512 1:1 37:1 175:1 212:1 742:1 
-443.7224761769951 1:1 3:1 16:1 33:1 35:1 37:1 42:1 43:1 61:1 76:1 82:1 91:1 189:1 379:1 434:1 677:1 842:1 843:1 1151:1 1397:1 
-512 15:3 16:1 22:1 36:1 37:1 38:1 40:1 44:1 72:1 82:1 86:1 91:1 165:1 186:1 187:1 191:1 230:1 327:1 
-512 15:1 17:1 22:1 30:1 32:1 35:1 38:1 40:1 43:1 44:1 57:1 159:1 279:1 954:1 
-512 22:1 24:1 29:1 44:1 154:1 164:1 186:2 187:1 189:1 190:1 192:1 307:1 435:1 598:1 599:1 
-512 1:1 8:1 22:1 38:1 40:1 42:1 44:1 57:1 65:1 67:1 68:1 76:1 191:1 220:1 223:1 224:1 225:1 226:1 227:1 307:1 
-512 15:1 29:1 31:1 37:1 44:1 66:1 76:1 82:1 164:1 186:2 187:1 189:1 190:1 191:1 192:1 193:1 
-512 15:2 16:1 22:1 37:1 72:2 82:1 86:1 91:1 165:2 186:1 187:1 193:1 263:1 274:1 309:1 379:1 380:1 
-512 0:1 1:3 3:1 4:1 22:1 33:1 35:1 55:1 57:1 61:1 76:1 91:1 97:2 182:1 215:1 379:1 459:1 495:1 1509:1 
-512 3:1 6:1 15:1 17:1 22:1 24:2 29:2 30:1 37:1 48:1 51:1 133:2 282:1 572:1 603:1 786:1 
-512 22:1 24:1 29:1 148:1 154:1 189:1 190:1 192:1 307:1 435:1 598:1 599:1 
-512 1:1 91:1 177:1 182:1 440:1 445:1 459:1 810:1 813:1 
-512 15:1 36:1 38:1 40:1 44:1 56:1 76:2 91:1 129:1 189:1 202:1 379:1 413:1 495:1 496:1 497:1 
