svm_type c_svc
kernel_type rbf
gamma 0.000629327
nr_class 2
total_sv 1078
rho 0.65868
label 1 -1
nr_sv 531 547
SV
1 0:1 1:1 2:1 3:1 4:1 5:1 6:1 7:1 8:1 9:1 10:1 11:1 12:1 13:1 
1 0:1 3:1 14:1 22:1 24:2 30:1 32:1 33:1 37:1 46:1 48:1 56:3 57:2 58:1 59:1 60:1 61:1 62:1 63:1 64:1 
1 0:1 1:1 22:1 24:1 68:2 69:1 70:1 71:1 72:1 73:1 74:1 75:1 
1 0:1 1:1 4:1 6:1 22:1 23:1 30:1 38:1 40:1 43:1 44:1 76:1 77:1 
1 15:1 16:1 37:1 47:1 80:1 81:1 82:1 83:1 84:1 85:1 86:1 87:1 
1 0:1 14:1 15:1 17:1 24:1 37:1 85:1 88:1 89:1 90:1 91:1 92:1 93:1 94:1 95:1 
1 0:1 1:1 22:1 91:1 114:1 115:1 116:1 117:1 118:1 119:1 120:1 121:1 122:1 
1 35:4 46:1 123:4 124:2 125:1 126:1 127:1 128:1 129:1 130:1 
1 16:1 22:1 23:2 29:1 30:3 37:1 75:1 81:1 111:1 131:1 132:1 133:1 134:1 135:1 136:1 137:1 
1 0:1 1:1 29:1 36:1 37:1 46:1 48:1 140:2 150:2 151:1 152:1 153:1 154:1 155:1 156:1 
1 3:1 15:1 16:1 36:1 37:2 81:1 86:1 90:1 100:1 173:2 174:2 175:1 176:1 177:1 178:1 179:1 180:1 181:1 182:1 183:1 184:1 
1 0:1 4:1 11:1 23:1 30:1 36:1 42:1 44:1 142:1 158:1 159:1 196:1 197:1 198:1 199:1 200:1 
1 0:1 1:2 4:1 8:1 11:2 15:1 37:1 38:1 40:1 43:1 44:2 81:1 96:1 102:1 188:1 209:1 210:1 211:1 
1 10:1 15:1 23:1 30:1 36:1 37:1 48:1 56:2 143:1 159:1 223:1 250:1 251:1 252:1 
1 3:1 22:1 24:1 46:1 90:1 257:2 258:1 259:1 260:1 261:1 262:1 263:1 264:1 265:1 266:1 267:1 
1 0:1 3:1 22:1 23:1 24:1 30:1 32:1 33:1 36:1 94:2 96:1 142:1 159:1 272:1 273:1 
1 15:1 16:1 36:1 37:1 75:1 81:1 85:1 89:1 90:1 92:1 94:1 95:1 
1 33:1 34:1 36:1 46:2 90:1 96:1 126:2 259:1 260:1 283:1 303:1 304:1 305:1 306:1 307:1 
1 1:1 15:1 16:1 26:1 32:2 37:1 59:1 75:1 76:1 81:1 85:1 90:1 96:1 309:1 310:1 311:1 
1 11:1 15:1 22:1 23:1 30:1 32:1 37:1 42:1 222:2 225:2 250:1 312:1 313:1 314:1 
1 15:1 17:1 70:3 222:1 286:1 288:1 315:1 316:1 317:1 318:1 
1 43:1 46:2 126:1 147:1 303:1 320:1 321:1 322:1 323:1 324:1 
1 0:1 4:1 7:1 15:1 94:1 161:1 192:1 204:1 325:1 326:1 327:1 328:1 
1 0:1 1:1 4:1 15:1 35:2 42:1 43:2 123:1 332:1 333:1 334:1 335:1 
1 22:1 24:1 44:1 56:1 64:1 65:1 308:1 336:1 
1 3:2 32:1 99:1 102:1 164:1 330:1 357:1 358:1 359:1 360:1 361:1 362:1 
1 1:1 14:2 20:1 21:1 68:1 72:1 203:1 363:1 364:1 365:1 
1 22:1 26:1 32:1 37:1 368:1 369:1 370:1 
1 0:2 1:1 22:1 24:1 75:1 90:1 95:1 288:2 318:2 375:1 376:1 377:1 378:1 379:1 380:1 
1 1:2 8:1 15:1 22:1 24:1 37:1 71:1 75:1 90:1 127:1 146:1 147:1 148:1 216:1 231:2 264:1 381:1 382:1 383:1 
1 0:1 22:1 23:1 30:1 36:1 142:1 384:1 385:1 
1 1:1 6:1 15:1 16:1 37:1 81:1 85:1 90:1 146:1 378:1 387:1 388:1 389:1 
1 0:1 1:1 11:2 15:1 30:1 37:1 75:1 90:1 139:1 158:1 172:1 205:2 366:2 367:2 
1 0:1 22:1 23:1 30:1 36:1 58:1 142:1 146:2 159:1 275:1 
1 1:1 3:1 8:1 32:1 75:2 110:1 258:1 268:1 371:1 372:1 388:1 396:1 397:1 398:1 399:1 400:1 401:1 402:1 403:1 404:1 405:1 406:1 407:1 408:1 
1 0:1 4:1 23:1 30:1 36:1 37:1 139:1 142:1 378:1 414:1 
1 1:1 15:1 37:2 74:1 75:1 90:1 117:1 153:1 238:1 250:1 422:1 423:1 424:1 425:1 
1 1:1 3:1 16:1 30:1 33:1 35:1 37:1 60:1 75:1 81:1 90:1 123:2 433:2 434:1 435:1 436:1 437:1 
1 23:1 30:1 36:1 44:1 142:1 165:1 187:1 
1 0:2 1:1 4:1 22:1 24:2 56:2 58:1 65:1 68:1 71:1 75:1 85:1 191:1 193:1 223:1 427:1 438:1 439:1 440:1 
1 0:1 1:1 4:1 15:1 35:1 42:1 43:1 123:1 128:1 332:1 333:1 334:1 335:1 413:1 
1 3:1 5:1 8:1 11:3 16:1 37:1 81:1 165:2 173:2 174:1 357:1 362:1 445:1 446:1 447:1 448:1 449:1 
1 3:1 15:1 16:1 19:1 37:1 46:1 75:2 81:1 90:1 91:1 148:2 205:1 258:1 311:1 324:1 452:1 453:1 454:1 455:1 456:1 457:1 458:1 
1 0:1 1:1 22:1 24:1 75:1 90:1 182:1 264:1 378:1 459:1 460:1 461:1 462:1 463:1 464:1 465:1 466:1 
1 13:1 22:1 24:1 162:1 223:1 473:1 474:1 475:1 476:1 477:1 478:1 479:1 
1 3:1 75:1 90:1 162:1 306:1 457:1 475:1 485:1 486:1 487:1 488:1 489:1 490:1 
1 0:1 22:1 23:1 24:1 26:1 30:1 32:1 36:1 142:1 368:1 
1 0:1 15:1 23:1 32:1 36:3 48:2 52:1 159:1 204:1 252:1 275:1 491:1 492:1 
1 3:1 22:1 24:1 35:2 123:2 493:1 494:1 495:1 
1 15:1 22:1 24:1 31:1 36:1 42:1 43:1 75:2 90:1 128:1 190:1 302:1 381:1 415:1 496:1 497:1 498:1 499:1 
1 8:1 11:1 13:2 15:1 36:1 37:1 48:1 164:1 165:1 250:1 330:2 461:1 500:1 501:1 502:1 
1 0:1 22:1 23:1 30:1 36:1 142:1 275:1 503:1 504:1 
1 35:1 52:1 123:1 126:1 147:1 505:1 506:1 507:1 508:1 
1 1:1 8:1 35:1 58:1 123:1 130:1 155:1 190:1 203:1 439:1 493:3 509:4 510:3 511:2 512:2 513:1 514:1 515:1 516:1 517:1 518:1 519:1 520:1 521:1 
1 8:1 11:1 22:1 31:1 36:1 46:1 48:1 152:1 164:1 165:1 205:1 526:1 527:1 
1 3:2 8:1 16:1 35:1 37:1 46:1 48:1 81:1 123:1 185:1 461:1 529:2 530:1 531:1 532:1 533:1 534:1 535:1 
1 8:1 35:1 58:1 71:2 123:2 130:1 193:1 203:1 410:1 536:2 537:2 538:1 539:1 540:1 541:1 542:1 543:1 544:1 545:1 
1 1:1 8:1 35:1 123:1 124:1 128:1 173:1 388:1 561:1 562:1 563:1 564:1 565:1 566:1 
1 0:1 1:1 8:1 11:1 23:1 30:1 37:1 38:1 40:1 44:1 94:1 139:1 159:1 371:1 372:1 373:1 567:1 568:1 
1 1:2 5:1 8:1 10:3 17:1 24:1 203:1 569:2 570:1 571:1 572:1 573:1 574:1 575:1 576:1 
1 6:1 11:1 15:1 16:1 22:1 37:1 38:1 40:1 44:1 76:1 81:1 128:1 130:1 140:1 164:1 165:1 502:1 578:1 
1 177:1 190:1 191:1 194:1 378:1 420:1 465:1 551:1 579:1 
1 22:1 24:1 43:1 290:1 334:1 335:1 479:1 587:1 589:1 590:1 
1 22:1 24:2 88:1 153:1 193:1 425:1 593:2 594:2 595:1 596:1 597:1 
1 17:1 130:1 177:1 182:2 381:1 443:1 461:1 551:1 599:1 
1 1:1 15:1 16:1 29:2 31:1 37:1 75:1 81:1 90:1 152:1 190:1 381:1 382:1 497:1 
1 15:1 36:1 46:1 48:1 152:1 172:1 343:1 602:1 
1 37:1 48:1 528:1 558:1 603:1 
1 2:1 3:1 17:1 43:1 46:1 90:1 96:1 106:1 112:1 179:1 316:1 320:1 471:1 607:2 608:1 609:1 
1 0:1 1:1 4:1 8:1 36:1 46:1 48:1 71:1 127:1 147:1 152:1 343:1 602:1 610:1 
1 3:2 22:1 24:1 46:1 90:1 222:1 324:1 613:1 614:1 615:1 616:1 617:1 618:1 619:1 620:1 
1 1:1 56:1 68:1 72:1 623:1 624:1 625:1 
1 1:1 7:1 146:1 445:1 488:1 626:1 
1 3:1 15:1 17:1 24:1 35:1 47:1 50:1 150:1 200:1 238:1 343:1 439:1 630:1 631:1 632:1 633:1 634:1 
1 0:1 6:1 22:1 23:1 32:1 36:1 142:1 159:1 275:1 635:1 636:1 
1 0:1 1:1 4:1 8:1 11:1 15:1 29:1 32:1 37:1 139:1 152:1 182:2 395:1 461:2 648:1 
1 22:1 30:8 58:1 199:1 341:1 347:1 492:1 650:2 651:1 652:1 653:1 
1 0:1 1:1 3:1 11:1 37:1 48:1 139:1 200:1 211:1 252:1 330:1 523:1 528:1 650:1 654:1 
1 1:1 11:2 15:1 32:1 37:1 43:1 90:1 188:1 211:1 250:1 522:1 655:1 
1 5:1 10:1 22:1 24:1 42:1 43:1 65:1 67:1 68:1 71:1 191:1 659:1 
1 0:1 4:1 10:1 15:1 37:1 43:1 90:1 96:1 104:1 216:1 250:1 257:1 261:1 429:1 562:1 580:1 596:2 631:1 661:1 662:1 663:1 664:1 665:1 666:1 
1 6:2 8:1 15:1 16:1 22:1 23:1 30:1 37:1 71:2 81:1 127:1 147:1 329:1 330:1 
1 0:1 1:1 5:1 15:1 16:1 22:1 37:1 71:1 75:2 81:1 89:1 90:1 95:1 161:1 399:1 429:1 669:1 670:1 671:1 672:1 
1 0:1 1:1 8:1 33:1 34:1 36:1 46:1 75:1 115:1 153:1 297:1 320:1 326:1 343:1 397:1 673:1 674:1 675:1 676:1 677:1 678:1 
1 0:1 1:1 4:1 11:1 31:1 88:1 164:1 165:1 205:1 526:1 
1 0:1 1:1 4:1 8:1 28:1 31:1 32:2 368:1 522:1 523:1 524:1 525:1 
1 0:2 1:1 3:1 4:1 8:2 15:1 28:1 29:1 32:1 35:1 37:1 75:2 139:1 140:1 153:2 191:1 242:1 243:1 244:1 427:1 595:1 596:1 648:1 679:1 680:1 681:1 
1 0:2 3:1 14:1 22:1 24:1 30:1 32:1 33:1 37:1 46:1 48:1 56:3 57:2 59:1 60:1 61:1 62:1 63:1 64:1 
1 0:1 1:1 15:2 16:1 22:1 24:1 26:1 37:1 45:1 81:1 110:1 161:1 222:1 382:1 525:1 687:2 688:2 689:1 690:1 691:1 692:1 693:1 694:1 695:1 696:1 
1 0:1 1:2 90:1 117:1 234:1 283:1 322:1 423:1 424:1 700:1 
1 1:1 267:1 363:1 688:1 702:1 
1 0:1 15:1 23:1 36:2 62:1 92:1 142:1 703:1 704:1 705:1 
1 22:1 24:1 29:1 32:1 152:1 191:1 193:1 594:1 602:1 604:1 
1 1:1 4:1 32:1 38:1 40:1 44:1 76:1 90:1 128:1 309:1 360:1 578:1 713:1 
1 0:1 1:1 4:1 11:2 24:1 42:1 43:1 61:1 88:1 150:1 165:1 173:1 174:1 272:1 311:1 
1 62:3 199:1 200:1 492:1 651:1 714:1 715:1 
1 3:1 15:3 17:1 22:1 24:1 35:1 123:1 128:1 130:1 140:2 222:1 227:1 312:1 313:1 333:1 343:1 410:1 411:1 412:1 413:1 716:1 717:1 
1 37:1 96:1 141:1 150:1 425:1 429:1 721:1 
1 22:1 24:1 29:1 44:1 152:1 165:1 187:2 188:1 190:1 191:1 193:1 437:1 594:1 601:1 602:1 
1 1:2 11:1 15:1 17:1 22:1 46:1 56:1 90:2 207:1 310:1 507:1 526:2 657:1 670:1 729:1 730:1 731:1 732:1 
1 13:1 22:1 24:1 43:1 162:1 223:1 228:1 413:1 475:1 476:1 555:1 748:1 749:1 750:1 751:1 752:1 753:1 754:1 
1 1:1 22:1 24:1 29:1 37:1 85:1 94:1 161:1 216:1 755:1 756:1 757:1 758:1 759:1 
1 0:1 1:2 4:1 5:1 8:1 11:1 14:1 15:1 37:1 71:2 85:1 90:1 111:2 126:1 127:1 134:2 140:1 147:1 191:1 202:1 258:1 388:1 429:1 721:1 760:1 761:1 
1 15:1 16:1 37:1 47:1 80:1 81:1 83:1 85:1 86:1 
1 8:1 11:2 15:1 16:1 22:1 24:2 32:1 37:1 38:1 40:1 43:1 44:1 76:1 81:1 147:1 165:1 268:1 334:1 335:1 395:1 527:1 528:1 610:1 762:1 763:1 
1 1:1 22:1 24:1 38:1 40:1 42:1 44:1 56:1 64:1 65:1 66:1 75:1 90:1 192:1 222:1 223:1 225:1 226:1 228:1 477:1 479:1 765:1 
1 1:1 5:2 22:1 23:2 37:1 62:1 71:1 75:1 111:1 134:1 143:1 147:1 152:1 159:1 201:1 250:1 384:1 425:1 525:1 
1 11:3 15:1 33:1 37:1 91:1 147:1 165:2 173:1 174:1 190:1 203:1 204:1 250:1 384:1 445:1 446:1 766:1 767:1 
1 0:1 1:1 11:1 32:1 37:1 43:1 139:1 188:1 211:1 222:1 225:1 655:1 772:1 
1 8:1 23:2 30:1 36:1 43:3 142:1 143:1 159:1 164:1 314:2 335:1 580:2 581:1 582:1 651:1 
1 22:1 23:1 29:1 30:2 36:1 142:1 143:1 159:1 174:1 256:2 650:1 652:1 699:1 
1 22:1 24:1 188:1 330:1 554:1 773:2 774:1 
1 0:1 22:1 23:1 30:1 36:1 142:1 384:1 775:1 776:1 
1 23:1 36:1 44:1 62:1 142:1 165:1 187:1 
1 29:1 31:1 36:1 46:1 48:1 148:1 152:1 190:1 191:1 193:1 194:1 579:1 
1 0:1 3:1 8:1 22:1 204:1 243:3 295:1 296:3 297:1 298:1 299:1 300:1 301:1 302:1 680:1 
1 0:1 3:1 15:1 22:1 24:1 75:1 164:1 290:1 479:1 587:1 722:1 723:1 778:4 779:1 
1 3:1 22:1 23:1 24:1 30:1 46:1 48:1 143:1 159:1 341:1 343:1 353:1 678:1 780:1 
1 0:1 3:1 11:1 23:1 30:1 36:1 37:1 46:1 48:1 75:1 139:1 142:1 143:1 159:1 269:1 597:1 677:1 781:1 
1 0:1 22:1 24:1 47:1 80:2 86:1 140:1 440:1 545:1 631:1 782:2 783:1 
1 6:2 15:1 23:1 37:1 42:2 44:2 54:1 62:2 142:1 152:1 250:1 444:1 785:2 
1 0:1 1:1 4:1 11:1 15:2 32:1 53:1 85:1 94:2 161:1 272:1 332:1 481:1 786:1 787:1 
1 0:1 1:1 4:1 8:1 11:2 15:1 37:1 50:1 75:1 81:1 96:1 205:1 366:1 367:1 393:1 610:1 
1 0:1 4:1 38:1 40:1 44:1 145:1 223:1 269:1 290:1 645:1 788:1 789:1 790:1 791:1 
1 22:1 23:1 24:1 30:1 159:1 161:1 338:1 347:1 
1 22:1 23:1 24:1 30:1 58:1 159:1 347:1 504:1 807:1 
1 0:1 5:1 6:1 11:1 22:1 24:1 27:1 29:1 32:1 38:1 40:1 43:1 44:1 185:1 190:1 191:1 193:1 194:1 445:1 497:1 579:1 
1 0:1 1:1 10:1 115:1 121:1 203:1 363:1 394:1 583:1 808:1 809:1 810:1 811:1 812:1 813:1 814:1 
1 0:1 15:1 16:1 23:1 24:1 30:1 32:2 36:1 37:1 58:1 75:1 81:1 85:1 111:1 134:1 142:1 275:1 445:1 
1 1:1 17:1 29:1 45:1 75:1 181:1 204:1 268:1 399:1 479:1 721:1 815:1 816:1 817:1 818:1 819:1 
1 0:1 1:1 4:1 15:1 35:1 42:1 123:1 128:2 225:1 314:1 332:1 333:1 413:2 
1 1:1 14:1 15:1 35:1 36:1 37:1 68:1 78:1 90:2 150:1 203:1 365:1 825:2 826:1 827:1 828:1 
1 0:1 22:1 23:1 30:1 36:1 142:1 148:1 275:1 
1 1:1 15:1 36:1 90:1 479:1 831:1 832:1 833:1 834:1 835:1 
1 5:1 37:2 67:1 81:1 90:1 91:1 191:1 275:1 325:1 434:1 526:1 815:1 836:1 
1 22:1 23:1 24:1 62:1 143:1 152:1 159:1 465:1 
1 1:1 15:1 37:1 71:1 127:1 146:1 147:1 148:2 194:1 264:1 382:1 435:1 844:1 845:1 
1 5:1 8:1 23:1 30:1 36:1 43:2 75:1 142:1 143:1 159:1 314:1 417:1 582:1 651:1 851:2 852:1 
1 3:1 15:2 16:1 36:1 37:1 71:1 75:1 81:1 85:1 90:1 126:1 127:1 147:1 264:1 374:1 429:1 523:1 853:1 854:1 855:1 856:1 
1 1:1 22:1 24:1 36:1 90:1 204:1 488:2 626:1 799:1 802:1 804:1 862:1 863:1 864:1 865:1 866:1 
1 15:1 24:1 35:1 37:1 75:1 81:1 91:1 192:1 203:1 204:1 297:1 316:1 867:1 868:1 869:1 870:1 
1 15:1 37:1 47:1 81:1 203:1 204:1 297:1 461:1 496:1 502:1 867:1 870:1 875:1 
1 0:1 11:1 23:1 30:1 36:1 37:1 75:2 139:1 142:1 597:1 778:1 882:1 883:1 
1 22:1 24:1 36:1 75:1 90:1 177:1 311:1 322:1 404:1 437:1 804:2 850:1 873:1 884:1 885:1 886:1 887:1 888:1 889:1 
1 15:1 69:1 222:2 365:1 821:1 828:1 894:1 895:1 896:1 897:1 898:1 899:1 
1 0:1 15:2 16:1 22:1 24:1 29:1 31:2 37:1 81:1 152:1 218:1 382:1 903:1 
1 6:1 16:1 22:1 24:1 32:1 37:4 81:1 82:1 87:1 131:1 132:1 133:1 135:1 136:1 205:1 598:1 606:3 701:3 904:1 
1 22:1 30:3 439:1 650:1 651:2 652:1 653:1 
1 0:1 1:1 8:1 11:1 14:1 15:1 17:1 37:1 47:1 94:1 187:2 188:1 258:1 388:1 905:1 
1 1:1 22:1 24:1 35:1 43:1 123:3 216:1 290:1 314:1 479:1 581:2 587:1 622:1 653:1 906:1 907:1 
1 1:1 3:1 22:1 24:1 90:1 177:1 191:1 194:1 415:1 420:1 465:2 579:1 909:1 910:1 
1 36:1 46:1 48:1 152:1 162:1 724:1 911:1 912:1 913:1 914:1 915:1 916:1 917:1 918:1 919:1 920:1 921:1 922:1 
1 16:1 37:1 42:1 43:1 81:1 410:1 439:1 480:1 481:1 483:1 695:1 924:1 
1 33:1 34:1 36:1 45:1 46:1 75:1 259:1 260:1 265:1 283:1 320:1 545:1 717:1 722:1 925:1 
1 0:1 1:1 4:1 10:1 32:1 42:1 56:1 57:2 65:2 222:1 225:1 280:1 658:2 
1 0:2 1:2 4:1 15:1 22:1 24:1 56:1 70:1 71:1 85:1 191:1 193:1 438:1 439:1 936:1 
1 1:1 22:1 24:1 110:1 363:2 695:1 696:1 944:1 945:1 946:1 947:1 948:1 
1 0:1 1:1 3:1 15:1 24:1 35:2 37:2 47:1 81:1 415:1 680:1 868:1 869:1 890:1 949:1 950:1 951:1 952:1 953:1 954:1 955:1 956:1 957:1 
1 1:1 5:2 22:1 23:2 37:1 59:1 62:2 71:2 90:1 142:1 152:1 159:1 181:1 201:1 250:1 275:1 384:1 444:1 525:1 
1 1:1 22:1 45:1 46:1 141:1 150:1 153:2 320:1 598:1 608:1 963:2 964:2 965:1 
1 0:1 1:1 11:1 32:1 37:1 43:1 139:1 272:1 784:1 
1 0:1 4:1 37:1 53:1 257:1 332:1 481:1 531:1 596:1 661:1 665:1 786:1 787:1 931:1 968:1 
1 21:1 22:1 24:1 36:1 50:1 90:1 838:1 971:1 972:1 973:1 
1 0:1 15:1 16:1 30:1 36:1 37:1 38:1 40:1 44:1 76:1 81:1 128:1 142:1 159:1 578:1 
1 1:1 15:1 36:1 90:1 146:1 204:2 445:1 626:2 798:2 800:1 801:1 974:1 
1 15:1 16:1 37:1 47:1 80:1 81:1 83:1 85:1 86:1 
1 16:1 37:1 81:1 90:1 96:1 173:1 326:1 425:1 434:1 448:1 449:1 675:1 677:1 678:1 721:1 979:1 
1 1:1 17:1 90:1 131:1 132:1 135:1 216:1 217:1 283:1 434:1 573:1 576:1 988:1 
1 15:1 37:1 81:1 316:1 469:1 680:1 870:1 989:1 990:1 991:1 
1 0:1 10:1 22:1 24:1 26:1 32:1 75:1 84:1 91:1 94:1 99:1 151:1 203:1 836:1 869:1 992:2 
1 3:1 8:1 22:1 24:1 47:1 68:1 70:1 71:1 134:1 145:1 315:1 647:1 678:1 994:1 995:1 996:1 997:1 
1 1:1 15:1 37:1 96:1 148:1 205:1 250:1 391:1 393:1 998:1 
1 22:1 23:1 24:1 30:1 58:1 111:1 159:1 347:1 999:1 
1 37:1 43:1 48:1 111:1 134:1 558:1 
1 10:1 68:1 72:1 203:1 365:1 596:1 664:1 739:1 
1 1:1 22:1 24:1 35:1 43:1 90:1 123:1 216:1 290:1 479:1 581:1 587:1 653:1 906:1 
1 23:1 30:1 36:1 44:1 142:1 165:1 187:1 
1 3:1 22:1 24:1 35:2 123:2 493:1 495:1 510:1 
1 1:1 3:1 5:1 10:1 15:1 90:1 343:1 353:1 678:1 790:2 1006:1 1007:1 1008:1 
1 0:1 29:1 31:1 36:1 38:1 40:1 43:1 44:1 46:1 48:1 152:2 497:1 
1 0:1 32:1 56:1 70:1 90:1 105:1 107:1 108:1 109:1 110:1 248:1 586:1 879:1 
1 1:1 14:1 22:1 35:2 37:1 43:1 90:1 96:1 178:1 203:1 207:1 250:1 1013:1 1014:1 
1 22:1 24:1 32:1 43:1 56:1 57:1 314:1 335:1 340:1 588:1 1001:1 1002:1 
1 0:1 22:1 23:1 24:1 30:1 36:1 37:1 75:1 81:1 91:1 111:1 131:1 132:1 133:1 134:1 135:1 136:1 142:1 159:1 598:2 
1 1:1 10:1 17:1 32:1 35:1 151:1 204:1 392:1 479:1 572:1 573:1 817:1 
1 15:1 31:1 36:1 37:1 43:1 55:1 81:1 90:1 128:1 336:1 381:1 415:1 498:1 499:1 528:1 
1 15:1 16:1 22:1 23:1 29:1 30:1 37:1 81:1 85:1 111:1 134:1 
1 1:1 8:1 15:2 130:1 155:1 200:1 261:1 429:2 717:1 722:1 723:1 925:1 1020:2 1021:1 1022:1 
1 1:1 22:1 24:1 38:1 40:1 42:1 44:1 56:1 64:1 66:1 75:1 90:1 192:1 222:1 223:1 225:1 226:1 228:1 765:1 1001:1 1002:1 
1 0:1 22:1 24:1 47:1 80:2 86:1 140:1 440:1 545:1 623:1 631:1 782:2 783:1 
1 0:1 5:1 6:1 11:1 22:1 23:1 24:1 30:1 32:3 164:1 165:1 368:1 445:1 
1 8:1 15:1 36:1 37:1 38:1 40:1 44:1 55:1 75:2 81:1 128:1 190:1 381:1 415:1 498:1 499:1 
1 0:1 1:1 4:1 15:1 23:1 30:1 32:1 76:1 152:1 164:1 187:2 268:1 444:1 1024:1 
1 3:1 5:1 10:1 15:1 17:1 56:1 70:1 75:1 90:1 102:1 113:1 175:1 233:1 238:1 363:1 732:1 900:1 1025:1 1026:1 1027:1 1028:1 1029:1 
1 0:1 1:1 36:1 46:1 48:1 96:1 131:1 132:1 135:1 152:1 283:1 1030:1 
1 8:1 23:1 36:1 75:1 91:1 114:1 116:1 117:1 118:1 119:1 121:2 122:1 201:1 423:1 424:1 583:1 591:1 1032:1 
1 8:1 15:1 28:1 32:1 37:2 48:1 75:1 140:1 153:1 172:1 191:1 202:1 243:1 244:1 250:1 681:1 
1 15:1 71:1 75:2 90:1 98:1 101:1 102:1 127:1 147:1 348:1 503:1 807:1 1037:1 1038:1 
1 8:1 22:2 75:1 90:1 98:1 101:1 102:1 163:1 171:1 503:1 807:1 1038:1 1039:2 
1 1:1 310:1 507:1 661:2 670:1 729:1 1044:1 1045:1 
1 15:1 35:1 37:1 47:1 50:1 75:1 192:1 250:1 316:1 469:1 585:1 870:1 1046:1 
1 1:1 90:1 99:1 101:1 151:1 572:1 992:1 
1 15:1 32:1 37:1 123:1 127:1 128:1 250:1 313:1 333:1 340:1 409:1 410:1 413:1 429:1 925:1 
1 5:1 8:1 43:1 191:1 211:2 223:1 269:1 271:1 360:1 388:1 773:1 1047:1 1048:1 1049:1 
1 23:1 30:1 36:1 128:1 142:1 204:1 256:1 
1 36:1 46:1 48:1 152:1 205:1 366:1 367:1 602:1 
1 1:1 8:1 10:1 343:1 363:1 946:1 1033:1 1050:1 
1 0:1 10:1 21:1 22:1 24:2 70:1 91:1 121:2 175:1 203:1 363:1 394:1 509:1 1051:1 1052:1 1053:1 1054:1 
1 22:1 23:1 24:1 30:2 164:1 568:1 
1 0:1 1:1 11:1 37:1 43:2 139:1 334:1 335:1 394:1 686:1 
1 0:1 1:1 11:1 15:1 24:1 36:1 37:1 43:1 66:1 75:1 139:1 394:1 686:1 1055:1 1056:1 
1 29:1 32:1 36:1 46:1 48:1 152:1 191:1 193:1 594:1 602:1 604:1 
1 0:1 22:1 24:1 43:1 128:1 222:1 224:1 225:1 314:1 371:1 413:1 474:1 597:1 1058:1 
1 22:1 24:1 43:2 290:1 479:1 581:1 587:1 1059:1 1060:1 
1 36:1 46:1 47:1 48:1 55:1 80:1 83:1 86:1 152:1 
1 1:1 3:1 17:1 35:1 90:1 150:1 200:1 439:1 540:1 630:1 634:1 1061:1 1062:1 
1 15:1 16:1 37:1 43:1 81:1 130:1 173:1 480:1 555:1 561:1 695:1 748:1 924:1 1063:1 1064:1 
1 0:2 1:3 4:1 8:2 11:2 15:1 24:1 32:1 37:1 75:1 76:1 139:1 172:1 205:1 366:1 367:1 395:1 610:1 
1 0:1 5:1 15:1 16:1 22:1 36:1 37:1 71:1 75:2 81:1 89:1 90:1 95:1 161:1 180:1 399:1 670:1 1067:1 
1 0:2 1:2 2:1 3:1 4:1 8:1 11:1 14:1 37:1 47:1 90:1 94:1 187:2 188:1 362:1 
1 1:1 22:1 24:1 56:1 64:1 65:1 66:1 75:1 90:1 130:1 140:1 164:2 190:1 223:1 778:2 795:1 859:1 1056:1 1059:1 1068:1 
1 3:1 6:2 15:1 32:1 43:1 71:1 84:1 90:1 127:1 147:1 182:1 183:1 190:1 268:1 357:1 361:1 362:1 1038:1 1070:1 
1 6:1 22:1 24:1 32:1 47:1 75:1 269:1 445:1 668:1 
1 0:1 22:1 24:1 46:1 75:1 320:1 465:1 1071:1 
1 1:1 16:1 37:1 81:1 90:1 177:2 378:1 427:1 432:1 1072:1 1073:1 
1 22:1 24:1 29:1 154:1 191:1 193:1 439:1 1074:1 
1 22:1 24:1 43:2 56:1 64:1 65:1 314:1 394:1 580:1 686:1 796:1 
1 1:1 3:1 15:3 37:1 47:1 50:1 90:1 243:1 343:1 353:1 596:2 678:1 680:1 1006:1 1008:1 1035:1 1075:1 1076:1 
1 0:1 1:1 11:1 32:1 37:1 42:1 43:1 139:1 222:1 223:1 224:1 225:1 226:1 272:1 474:1 
1 1:1 3:1 15:1 56:1 75:1 90:1 624:1 625:1 1080:1 1081:1 
1 1:1 37:1 117:1 216:1 743:1 936:1 
1 22:1 68:1 213:1 222:1 828:1 1085:1 1086:1 1087:1 1088:1 1089:1 1090:1 
1 36:1 68:1 71:1 203:1 363:1 365:1 1092:1 
1 16:1 22:1 30:1 37:2 81:1 82:1 87:1 90:1 95:1 131:1 132:1 133:1 135:1 136:1 205:1 598:2 606:1 701:1 
1 0:1 1:1 4:1 22:1 24:1 35:1 71:2 75:1 91:1 110:1 425:1 427:1 1093:1 
1 22:1 24:1 193:1 425:1 593:1 594:1 595:1 596:1 
1 22:1 24:1 29:1 92:1 152:1 190:1 191:1 193:1 268:1 437:1 440:1 602:1 
1 3:2 6:1 14:1 15:1 37:1 48:1 52:1 85:1 258:1 388:1 414:1 606:1 667:1 701:1 789:1 
1 3:1 90:1 91:1 185:1 204:1 297:1 369:1 1095:1 1096:1 1097:1 1098:1 1099:1 1100:1 
1 36:1 46:1 48:1 152:1 187:1 322:1 343:1 465:1 
1 22:1 24:1 42:1 43:2 56:1 64:1 65:1 394:1 686:1 796:1 1101:1 
1 8:1 22:2 75:1 99:2 102:1 171:1 705:2 1038:1 1102:1 1103:1 
1 22:1 24:1 29:1 43:1 130:1 154:1 191:1 193:1 272:1 841:1 843:1 
1 22:1 24:1 29:1 148:1 152:1 190:1 191:1 193:1 437:1 440:1 601:1 602:1 
1 5:1 10:1 26:1 32:1 84:1 99:1 115:1 121:2 151:1 181:1 203:1 583:1 836:1 992:1 1104:1 1105:1 1106:1 
1 1:1 3:1 17:1 21:1 35:1 147:1 365:1 509:2 793:1 1061:1 1107:1 
1 6:1 16:1 37:2 81:1 90:1 95:1 131:1 132:1 133:1 135:1 136:1 205:1 598:2 606:1 701:1 
1 0:1 1:1 4:1 24:1 35:1 88:1 123:1 124:1 127:1 561:1 563:1 566:1 
1 14:1 36:1 37:1 46:2 47:2 48:2 55:2 80:2 82:1 83:1 86:2 152:2 
1 8:1 37:1 50:1 96:1 179:1 250:1 315:1 610:1 1111:1 1112:1 
1 0:1 1:1 7:1 37:1 76:1 139:1 277:1 325:1 528:1 
1 0:1 7:1 13:1 24:1 37:1 75:1 111:1 134:1 139:1 256:2 328:1 592:3 1116:1 
1 0:1 1:1 3:1 4:1 7:1 15:1 71:1 75:1 111:1 127:1 134:1 147:1 212:1 264:1 326:1 327:1 382:1 438:1 
1 7:1 8:1 46:1 126:1 146:1 445:1 488:2 626:2 974:1 
1 0:1 14:1 68:1 78:1 111:1 203:1 331:1 365:1 1036:1 
1 16:1 22:1 35:1 37:1 75:1 81:1 90:1 104:1 1118:1 1119:1 1120:1 1121:1 1122:1 
1 3:1 8:1 28:1 32:1 43:1 90:1 178:1 182:1 203:1 253:1 268:1 357:1 359:1 361:1 362:1 713:1 1038:1 
1 1:1 5:1 15:1 71:1 85:1 89:1 90:1 95:1 173:1 264:1 382:1 448:1 
1 0:2 1:2 2:1 3:1 4:1 8:1 14:1 37:1 47:1 90:1 187:2 188:1 362:1 429:1 438:1 
1 10:1 14:1 15:1 18:1 19:1 20:1 21:1 37:1 91:1 147:1 250:1 1095:1 
1 17:1 70:1 90:1 104:1 105:1 106:1 107:1 108:1 109:1 110:1 111:1 220:1 388:1 1123:1 
1 3:1 11:1 15:1 44:1 152:1 211:1 602:1 
1 16:1 37:1 38:1 40:1 43:3 44:1 47:2 81:1 296:2 334:1 335:1 467:1 493:2 555:1 772:1 1125:1 1136:2 1137:1 1138:1 1139:1 1140:1 1141:1 1142:1 
1 8:1 15:1 36:1 75:1 257:1 259:1 260:1 266:1 354:1 355:1 1143:1 1144:1 1145:1 1146:1 
1 1:1 3:1 8:1 15:2 19:1 22:1 29:1 47:1 75:1 153:1 207:1 264:1 343:1 655:1 718:1 720:1 1147:1 
1 16:1 37:1 42:1 43:1 81:1 200:1 262:1 410:1 480:1 481:1 482:1 483:1 484:1 527:1 1148:1 1149:1 1150:1 
1 22:1 24:1 42:1 43:1 56:1 64:1 65:1 580:1 1151:1 
1 3:1 15:1 17:1 69:1 70:1 222:1 283:1 413:1 437:1 820:1 821:1 894:1 
1 0:1 14:1 15:1 24:1 37:2 44:3 55:1 165:2 185:1 186:1 187:3 250:1 
1 15:1 30:1 32:1 36:1 277:1 339:2 340:1 341:1 342:1 343:1 
1 1:1 14:1 22:1 35:1 37:1 75:2 250:1 429:1 1122:1 1155:1 1156:1 1157:1 1158:1 
1 3:1 8:1 15:2 37:1 91:1 190:1 204:1 250:1 297:1 488:1 547:1 682:1 683:1 684:1 685:1 
1 17:1 70:1 104:1 110:1 112:1 119:2 147:1 213:1 257:1 742:1 743:1 745:1 1159:1 1160:1 
1 7:1 8:1 15:1 36:1 181:1 381:1 438:1 793:1 818:1 894:1 1161:1 1162:1 1163:1 
1 5:1 6:1 7:1 8:1 11:1 37:1 47:1 208:1 250:1 388:1 496:1 546:2 1115:1 1164:1 1165:1 1166:1 
1 0:1 1:1 4:1 11:1 94:1 188:1 203:1 222:1 371:1 372:1 373:1 567:1 1167:1 
1 3:1 15:1 29:1 55:1 92:1 190:1 191:1 193:1 268:1 437:1 440:1 
1 1:1 8:1 22:1 24:1 38:1 40:1 42:1 44:1 56:1 64:1 65:1 66:1 75:1 192:1 222:1 223:1 224:1 225:1 226:1 228:1 765:1 
1 3:1 15:1 17:1 37:1 45:1 70:1 73:1 75:1 90:1 116:1 175:1 190:1 282:1 283:1 284:1 286:1 287:2 288:1 289:1 
1 0:1 5:1 22:1 24:1 75:2 182:1 275:1 310:1 381:1 388:1 438:1 611:1 612:1 
1 0:1 8:1 14:1 15:1 16:1 37:2 71:1 81:1 94:1 96:1 127:1 147:1 188:1 210:1 656:1 657:1 
1 8:1 75:1 82:1 83:1 233:1 234:1 235:1 236:1 237:1 238:1 239:1 240:1 241:1 
1 1:1 22:1 70:1 147:1 153:1 216:1 240:1 316:1 876:1 
1 22:1 24:1 35:1 39:1 410:1 439:1 493:1 509:1 510:1 552:1 553:1 554:1 
1 14:2 33:1 34:1 36:1 75:1 91:1 321:1 323:1 354:1 355:1 356:2 
1 1:1 8:1 35:1 222:1 376:1 1078:1 1168:1 1169:1 1170:1 1171:1 1172:1 1173:1 
1 0:1 1:1 3:1 4:1 8:1 14:1 15:4 35:1 42:1 91:1 123:2 128:2 140:1 313:1 314:1 333:2 409:1 410:2 411:2 413:2 439:2 
1 1:2 10:1 17:1 70:1 83:1 90:1 117:1 283:1 725:1 727:1 820:1 1178:1 
1 17:1 24:1 90:1 111:1 115:1 363:1 397:1 551:1 900:1 901:1 1179:1 
1 3:1 10:1 15:1 32:1 33:1 36:1 37:1 42:1 44:3 46:1 48:1 91:1 102:2 188:1 250:1 273:1 1180:1 
1 8:1 11:2 15:1 16:1 17:1 22:1 28:2 32:1 37:1 47:1 80:1 81:1 84:1 86:1 317:1 522:2 604:1 677:1 764:1 1143:1 
1 5:1 8:1 15:1 22:2 29:1 37:1 62:2 71:1 91:1 152:1 203:1 208:1 250:1 275:1 525:1 785:1 1156:1 1181:1 1182:1 1183:1 
1 1:2 8:1 22:1 29:1 71:4 128:1 213:2 222:2 330:2 555:2 1184:1 
1 0:1 1:1 3:1 8:1 15:1 35:1 90:1 206:1 222:1 248:1 838:1 1135:1 1186:1 1187:1 1188:1 1189:1 
1 1:1 15:1 22:1 24:2 32:1 50:1 96:1 204:2 264:1 393:1 417:1 1190:1 1191:1 
1 1:1 37:1 49:1 54:1 55:1 90:1 250:1 
1 22:1 24:1 38:1 40:1 44:1 290:1 479:1 579:1 587:1 589:1 
1 1:1 15:1 16:1 17:1 22:1 24:1 29:1 31:1 37:1 55:1 81:1 90:1 177:1 256:1 264:1 382:1 816:1 872:1 874:1 1193:1 
1 3:1 17:1 37:1 58:1 147:1 222:1 417:1 618:1 722:1 733:1 734:1 735:1 736:1 737:1 738:1 740:1 1194:1 
1 22:1 24:1 43:2 56:1 64:1 65:1 66:1 394:1 686:1 796:1 
1 22:1 24:1 56:1 65:1 67:1 222:1 225:1 314:1 319:1 343:1 773:1 1009:1 1010:1 
1 33:1 34:1 36:1 257:1 266:1 321:1 323:1 927:1 
1 1:1 15:1 16:1 32:2 37:1 59:1 76:1 81:1 85:1 90:1 253:1 309:1 1196:1 
1 1:1 3:1 5:1 15:1 35:1 50:1 105:1 127:1 352:1 536:1 890:1 892:1 1198:1 
1 5:1 10:1 56:1 200:1 203:2 604:1 653:1 859:2 860:1 861:1 
1 1:1 56:1 59:1 68:1 70:1 71:1 75:1 110:1 111:1 315:1 363:1 1199:1 
1 8:1 75:1 82:1 83:1 96:1 97:1 98:1 99:1 100:1 101:1 102:1 103:1 
1 90:1 622:1 662:1 680:1 722:1 723:1 923:1 
1 3:1 16:1 35:2 37:1 39:1 46:1 48:1 81:1 369:1 535:1 1200:1 1201:1 1202:1 
1 15:1 17:1 31:1 47:1 80:1 82:1 86:1 
1 1:1 15:1 22:1 35:1 37:2 204:1 264:1 302:1 583:1 680:1 1133:1 1203:1 1204:1 1205:1 1206:1 
1 11:3 15:1 28:1 32:1 55:1 75:1 96:1 164:2 165:1 166:1 172:1 200:1 268:1 502:1 985:1 1065:1 
1 22:1 24:1 153:1 593:1 594:1 595:1 596:1 597:1 
1 15:1 37:1 150:1 173:2 174:1 176:1 185:1 250:1 311:1 343:1 602:1 966:1 
1 0:1 5:1 10:1 68:1 203:1 205:1 526:1 793:1 827:1 1091:1 1161:1 1217:1 1218:1 
1 22:1 24:1 43:2 581:1 722:1 723:1 1219:1 1220:1 
1 5:1 46:1 126:1 303:1 321:1 323:1 1221:1 
1 22:1 24:1 43:1 140:1 164:1 581:1 778:1 925:1 1222:1 1223:1 
1 1:1 8:1 22:1 24:1 54:1 56:1 64:1 65:1 66:1 308:1 332:1 778:1 1055:1 1224:2 1225:1 1226:1 
1 8:1 22:1 24:1 47:2 65:2 110:1 111:1 140:2 145:2 264:1 280:1 343:1 363:1 792:1 793:1 794:2 796:2 
1 7:1 8:1 22:1 24:1 27:1 36:1 46:1 48:1 76:2 465:1 592:1 677:1 1115:1 1227:1 
1 3:1 5:1 8:1 10:1 22:1 24:1 65:1 68:1 78:1 111:1 179:1 976:1 977:1 978:1 1222:1 
1 0:1 7:4 22:1 24:1 46:1 126:1 592:1 677:1 824:1 1237:1 1238:1 
1 126:1 528:1 558:1 1018:1 1019:1 
1 1:1 6:1 8:1 22:1 43:1 71:4 329:1 330:2 436:1 
1 1:1 14:1 15:1 35:2 36:1 37:1 75:1 190:1 250:1 429:1 562:1 1236:1 1239:1 1240:1 1241:1 1242:1 
1 8:3 99:2 203:1 375:1 462:1 1108:1 1109:1 1110:2 
1 11:1 15:1 16:1 32:1 37:1 75:1 81:1 268:1 
1 0:1 1:2 22:1 24:1 75:1 90:1 415:1 774:1 860:2 861:1 1078:1 1082:1 1083:1 
1 8:1 11:1 15:1 16:1 22:1 32:1 37:1 75:1 81:1 188:1 211:1 773:2 1244:1 
1 0:1 1:2 11:1 36:1 146:2 275:1 417:1 453:1 677:1 864:1 947:2 1245:1 
1 1:1 5:1 22:1 32:1 75:1 90:1 191:1 211:2 223:1 269:1 271:1 360:1 388:1 602:1 1047:1 1048:1 1049:1 
1 0:1 1:1 8:1 14:1 15:2 35:1 37:2 123:1 128:1 139:1 140:1 313:1 333:1 409:1 410:1 411:1 412:1 413:1 439:1 
1 3:1 8:1 14:1 15:1 35:3 39:1 46:1 48:1 203:1 204:1 258:1 283:1 302:1 388:1 535:1 1201:1 1202:2 
1 56:1 90:1 194:1 222:1 732:1 860:2 878:2 
1 8:1 15:1 17:1 28:2 30:1 31:2 32:1 37:1 81:1 91:1 96:1 99:1 152:1 178:1 191:1 268:1 269:1 522:2 525:2 606:1 677:1 815:1 925:1 1251:1 
1 15:1 16:1 36:1 37:1 75:1 81:1 85:1 89:1 90:1 92:1 94:1 95:1 
1 11:2 15:1 16:1 32:2 37:1 38:1 40:1 43:1 44:1 81:1 164:1 165:1 268:1 359:1 
1 1:1 17:1 37:1 70:1 90:1 96:1 222:1 316:1 743:1 820:1 970:1 1255:1 
1 1:1 17:1 35:1 75:1 90:1 140:1 216:1 259:2 388:1 981:1 982:1 984:1 1256:1 
1 15:1 36:1 68:1 78:1 90:1 203:1 365:1 680:1 1113:1 
1 1:2 8:1 22:1 24:2 46:1 56:1 64:1 65:1 66:3 75:2 88:1 126:1 140:1 223:1 778:2 795:1 859:1 1055:1 1224:2 1225:1 1226:1 1257:1 
1 50:1 68:2 69:1 70:2 78:1 583:1 584:1 585:1 586:1 
1 22:1 107:1 130:1 259:1 260:1 265:1 555:3 651:1 1109:1 1258:1 1259:1 
1 16:1 37:1 44:2 47:1 81:1 89:1 90:1 94:2 95:1 166:1 264:1 554:1 760:1 
1 0:1 1:1 4:1 11:1 32:1 43:2 272:1 334:1 335:1 
1 15:2 16:1 22:2 23:2 29:1 30:1 37:2 75:1 161:1 250:1 287:1 450:1 950:1 1261:1 1262:1 
1 1:1 33:1 34:1 35:1 36:1 42:1 43:1 45:1 677:1 847:1 1275:2 1276:2 
1 1:1 17:1 83:1 96:1 233:2 320:1 727:1 820:1 1026:1 1053:1 
1 3:1 37:1 43:1 45:1 54:1 250:1 269:2 580:1 596:2 664:1 665:2 968:1 
1 0:1 1:1 22:1 24:1 27:1 35:1 38:1 40:1 42:1 44:1 123:1 332:1 1283:1 
1 3:1 15:1 35:2 37:1 81:1 123:2 396:1 405:1 1129:1 
1 3:1 73:1 90:1 116:1 175:1 285:2 288:1 372:1 1089:1 1284:1 1285:1 1286:1 1287:1 
1 22:1 24:1 43:1 56:1 64:1 65:1 225:1 314:1 335:1 394:1 686:1 796:1 
1 15:1 22:1 23:1 29:1 37:1 55:1 96:1 159:1 182:1 250:1 461:1 
1 1:2 8:1 35:1 70:1 117:1 119:1 219:1 257:1 742:1 745:1 1159:1 1160:1 
1 3:1 8:1 15:2 16:1 37:1 48:1 81:1 123:1 710:1 711:1 712:1 
1 22:1 24:1 29:1 154:1 191:1 193:1 555:1 560:1 594:1 941:1 943:1 1094:1 
1 0:1 22:1 23:1 30:1 36:1 142:1 275:1 285:1 287:1 1297:1 
1 3:1 15:1 36:1 37:1 250:1 283:1 297:1 481:1 734:1 1132:1 1133:1 1134:1 1135:1 1300:1 1301:1 
1 11:1 22:1 23:1 29:1 30:1 37:1 38:1 40:1 44:1 139:1 
1 0:1 1:1 11:1 37:1 42:1 139:1 222:1 224:1 225:1 226:1 228:1 343:1 
1 1:2 35:1 46:1 75:1 90:1 138:1 203:1 213:1 257:1 462:1 745:1 764:1 1302:1 
1 22:1 24:1 37:1 43:1 56:2 57:1 61:1 65:1 279:1 280:1 281:1 1151:1 
1 1:1 3:2 6:1 14:1 15:1 24:1 37:1 47:1 48:1 52:1 71:1 111:2 134:2 231:1 357:1 362:1 445:1 451:1 667:1 1307:1 
1 1:1 19:1 75:1 90:1 148:2 205:1 283:1 324:1 457:1 639:1 640:1 641:1 643:1 644:1 645:1 
1 0:2 1:1 4:1 8:1 11:3 14:1 15:1 30:1 37:1 43:1 47:1 88:1 111:1 134:1 158:1 205:2 366:2 367:2 
1 1:1 175:1 203:1 213:1 745:1 878:1 1169:1 1234:1 1302:1 1308:1 1309:1 
1 0:1 1:1 22:1 35:1 204:1 259:1 260:1 297:1 1131:1 1166:1 1311:1 1312:1 1313:1 
1 1:2 3:1 4:1 10:1 11:1 75:1 90:1 192:1 768:1 769:1 770:1 771:1 
1 6:1 15:1 32:1 37:1 47:1 75:1 178:1 250:1 348:1 438:2 450:1 668:1 
1 1:2 3:2 7:1 8:1 14:1 22:1 24:1 48:1 204:2 256:1 325:3 375:1 438:1 488:1 777:1 864:1 1175:1 1176:1 1177:1 1329:1 
1 33:1 34:1 36:1 321:1 323:1 917:1 927:1 
1 1:2 5:1 10:2 15:1 75:1 90:1 368:1 381:1 572:1 573:1 576:1 632:1 1031:1 
1 1:1 11:4 15:1 22:1 31:1 32:1 96:1 125:1 130:1 140:1 164:3 165:1 166:1 167:1 168:1 169:1 171:1 172:1 1334:1 
1 23:1 30:1 36:1 92:1 142:1 
1 1:1 35:1 90:1 151:1 705:1 887:1 1040:1 1042:1 1090:1 1335:1 1336:1 
1 15:1 36:1 37:1 44:1 55:1 75:2 81:1 90:1 128:1 190:1 381:1 415:1 498:1 499:1 
1 3:1 15:2 35:1 36:1 37:1 75:1 104:1 150:1 250:1 444:1 729:1 850:1 1122:1 1322:1 1340:1 1341:1 1342:1 1343:1 1344:1 1345:1 1346:1 1347:1 
1 1:1 22:1 24:1 30:1 68:1 142:1 204:1 341:1 415:1 416:1 417:1 418:1 419:1 420:1 421:1 
1 8:1 24:1 37:1 46:1 115:1 126:2 303:1 321:1 323:2 696:1 1350:1 1351:1 1352:1 
1 0:1 1:1 4:1 38:1 40:1 44:1 123:1 333:1 1275:1 1276:1 
1 1:1 22:1 24:1 68:2 90:1 161:1 216:1 222:2 1086:1 1088:1 1090:1 1298:2 1356:1 
1 0:2 3:1 4:1 15:1 22:1 24:1 35:1 39:1 75:1 91:1 203:1 216:1 286:1 296:2 298:1 299:1 300:1 453:1 985:1 1194:1 1357:1 1358:1 1359:1 1360:1 
1 3:1 11:1 15:1 22:1 23:1 29:1 30:1 43:1 128:1 314:1 413:1 
1 1:1 8:1 11:1 15:2 16:1 37:1 45:1 71:2 127:1 146:1 147:1 148:2 250:1 264:1 329:1 330:1 331:2 382:1 
1 8:1 46:1 126:1 173:1 259:1 260:1 261:1 265:1 283:1 303:1 561:1 
1 1:1 8:1 257:1 259:1 260:1 397:1 886:1 917:1 1145:1 1253:1 1362:1 1363:1 
1 0:1 8:1 15:1 22:1 24:1 37:3 48:1 71:1 110:1 139:1 179:1 264:1 1364:1 
1 0:1 3:1 8:1 22:1 24:1 71:1 123:1 204:2 243:1 296:1 297:1 300:1 301:1 302:1 1247:1 
1 15:1 70:3 222:1 288:1 318:1 1004:1 1367:1 1368:1 
1 15:1 16:1 32:1 37:1 84:1 85:1 163:1 250:1 604:1 606:1 
1 15:1 37:1 222:1 250:1 283:1 395:1 555:1 734:2 
1 1:1 17:1 35:1 37:1 90:1 151:1 434:1 675:1 880:1 
1 15:1 32:1 37:1 55:1 84:1 250:1 604:1 606:1 815:1 
1 8:1 15:2 16:1 22:1 36:1 37:1 71:1 81:1 85:1 89:1 90:1 92:1 95:1 111:1 134:1 176:1 
1 1:2 8:1 15:1 36:1 71:4 128:1 213:1 222:1 330:1 383:1 388:1 554:1 1184:1 1246:1 1369:1 
1 11:3 15:2 22:1 32:1 36:1 37:1 164:2 165:1 182:1 250:1 461:1 1152:1 
1 15:1 16:1 29:2 32:1 37:1 43:2 81:1 193:1 200:1 222:1 436:1 529:1 531:1 591:1 772:1 958:1 960:1 961:1 962:1 1057:1 
1 0:1 1:1 4:1 11:1 28:1 29:1 32:1 253:1 522:1 
1 1:1 3:1 8:1 15:1 17:1 29:1 32:1 43:1 187:1 188:1 209:1 211:1 843:1 1248:1 1249:1 1250:1 
1 3:2 22:1 96:1 185:1 296:1 297:1 399:1 680:1 926:1 927:1 928:1 929:1 
1 15:1 29:1 31:1 37:1 44:1 75:1 81:1 165:1 187:2 188:1 190:1 191:1 192:1 193:1 194:1 195:1 579:1 
1 22:1 32:1 37:1 90:1 207:1 250:1 757:1 986:1 987:1 
1 15:1 69:1 105:1 222:2 821:1 828:1 895:1 896:1 897:1 898:1 899:1 1015:1 
1 3:1 11:1 15:1 44:1 94:1 211:1 272:1 373:1 1380:1 
1 3:1 4:1 6:2 7:1 8:1 9:1 13:1 15:1 37:1 71:1 81:1 90:1 264:1 275:1 785:1 
1 0:1 3:1 8:1 22:1 24:1 204:2 243:1 296:1 297:1 299:1 301:1 302:1 1140:1 1141:1 
1 8:1 14:2 15:1 36:1 37:1 48:1 66:1 75:1 94:1 192:1 222:1 371:1 373:1 417:1 567:1 1230:1 1231:1 1232:1 1233:1 
1 0:1 1:1 4:1 15:1 35:1 38:1 40:1 44:1 123:1 314:1 332:1 333:1 335:1 
1 1:1 22:1 35:1 37:1 75:1 250:1 429:1 873:1 1156:1 1158:1 1207:1 1208:1 
1 22:1 24:1 154:1 191:1 193:1 439:1 577:1 
1 37:1 55:1 90:1 126:1 250:1 1073:1 1175:1 1266:1 1267:1 
1 15:1 24:1 35:1 37:1 75:1 88:1 164:1 190:1 382:1 1057:1 1383:1 1384:1 1385:1 1386:1 1387:1 
1 8:1 15:1 16:1 22:1 37:1 71:1 99:1 127:1 147:1 182:1 250:1 275:1 705:1 905:1 1388:1 
1 22:1 24:1 43:2 581:1 722:1 723:1 1220:1 1222:1 
1 3:2 5:1 15:1 29:1 35:1 47:1 75:1 264:1 453:1 931:1 1061:1 1132:1 1354:1 1394:1 1395:1 
1 8:1 14:1 15:2 16:1 37:2 81:1 85:1 89:1 90:1 92:1 95:1 111:1 134:1 176:1 425:1 444:1 1396:1 
1 0:1 1:1 35:1 37:1 38:1 40:1 43:1 44:1 123:1 139:1 334:1 335:1 
1 4:1 68:1 459:1 460:2 1356:1 1402:2 1403:1 1404:1 1405:1 
1 1:2 29:1 90:1 177:1 190:1 191:1 194:1 378:1 415:2 420:1 432:1 551:1 579:1 909:2 
1 3:1 10:2 15:1 22:1 24:1 27:1 90:1 394:1 790:1 1406:1 1407:1 1408:1 
1 1:1 6:1 8:1 32:2 37:2 43:1 71:1 102:1 127:1 147:1 216:1 268:1 361:1 1038:1 1043:1 1409:1 1410:1 
1 15:1 16:1 36:1 37:2 161:1 222:1 250:1 377:1 525:1 724:1 817:1 836:1 1109:1 1162:2 1416:1 
1 0:1 15:1 22:1 24:1 123:1 333:1 410:1 439:1 680:2 925:1 1417:1 
1 233:1 394:1 820:1 1087:1 1427:1 
1 0:1 22:1 23:1 30:1 36:1 142:1 275:1 285:1 287:1 984:1 1428:1 1429:1 
1 8:1 21:1 36:1 56:1 68:1 71:1 111:1 185:1 203:1 365:1 1036:1 
1 0:1 22:1 24:1 32:1 43:2 272:1 343:1 394:1 686:1 
1 16:1 37:1 43:3 47:1 75:1 81:1 482:3 493:1 1125:1 1126:1 1130:1 1137:1 
1 14:1 35:2 91:1 203:1 479:1 1122:1 1158:1 1234:1 1235:1 1236:1 1263:1 
1 16:1 37:2 81:1 185:1 204:1 297:1 1191:1 1200:1 1206:1 1436:1 
1 1:1 6:1 8:1 22:1 43:1 44:1 71:3 91:1 165:1 187:2 188:1 190:1 329:1 330:1 436:1 
1 15:2 32:1 36:1 37:1 75:1 153:2 196:1 250:1 1306:1 1391:1 
1 0:1 1:2 4:1 8:1 11:2 42:1 44:1 47:1 96:1 188:1 216:1 264:1 962:1 
1 22:1 24:1 43:1 140:1 223:1 429:2 581:1 722:1 723:1 1219:1 1222:1 
1 1:2 8:1 22:1 66:1 175:1 203:1 216:1 288:1 318:1 799:1 1224:2 1253:1 1391:1 1392:1 
1 1:1 22:1 24:1 35:1 43:1 96:1 123:1 216:1 314:2 335:2 369:1 
1 8:1 11:1 15:2 36:1 37:1 43:1 66:1 250:1 394:1 686:1 1224:1 
1 1:1 3:1 15:2 16:1 22:1 37:1 148:1 161:1 171:1 231:1 250:1 255:1 384:1 639:2 703:1 1442:1 
1 11:1 17:2 24:1 47:1 81:1 139:1 146:1 264:1 277:1 325:1 583:1 864:1 1370:2 
1 15:1 22:1 37:1 259:1 260:1 1311:1 1377:1 1444:1 1445:1 1446:1 1447:1 
1 11:1 15:1 16:1 22:1 32:1 37:1 75:1 81:1 287:1 368:2 525:1 
1 0:1 1:1 3:1 7:2 9:1 15:2 22:1 24:1 100:2 275:2 381:1 382:1 1115:2 1199:2 1238:1 1306:1 1448:1 1449:1 
1 0:1 1:1 4:1 15:1 35:1 43:1 123:1 314:1 332:1 333:1 334:1 335:2 
1 22:1 24:1 46:1 71:2 96:2 128:1 213:1 222:1 297:1 320:1 330:1 381:1 417:1 1184:1 1214:1 1310:1 
1 0:1 1:1 4:1 123:1 222:1 225:1 314:1 333:1 1275:1 1276:1 
1 4:1 70:2 104:1 119:1 212:1 213:1 215:1 216:1 217:1 218:1 219:1 220:1 1173:1 
1 1:1 8:1 11:2 15:1 17:1 24:1 28:1 32:2 37:1 47:1 81:1 178:1 192:1 204:1 268:1 269:1 395:1 522:1 
1 22:1 24:1 43:1 56:1 67:1 319:1 394:1 686:1 773:1 1001:1 1002:1 1009:1 1010:1 
1 0:1 1:1 4:1 43:1 123:1 333:1 334:1 335:1 1275:1 1276:1 
1 4:1 8:1 16:1 37:1 47:1 55:1 75:1 115:1 126:1 182:1 244:1 250:1 287:1 1266:1 1388:1 
1 0:1 1:1 3:1 8:1 22:1 24:1 35:3 75:1 185:1 216:1 598:1 869:1 1348:1 1453:1 1454:1 1455:1 1456:1 
1 11:1 15:1 28:1 32:1 37:1 42:1 44:1 211:1 250:1 
1 0:1 22:1 24:1 32:1 43:2 272:1 343:1 394:1 686:1 
1 0:1 1:1 11:1 37:1 43:1 139:1 394:1 686:1 784:1 
1 11:1 22:1 29:1 30:1 37:1 38:1 40:1 44:1 75:1 139:1 253:1 1289:1 
1 17:1 38:1 40:1 44:1 290:1 447:1 579:1 596:1 645:1 664:1 1465:1 1466:1 1467:1 
1 1:2 15:1 35:1 37:1 41:1 81:1 284:1 353:1 381:1 1468:1 1469:1 1470:1 1471:1 
1 37:1 450:1 453:1 583:1 657:1 661:2 670:1 836:1 1044:1 1045:1 1290:1 1291:1 1292:1 1293:1 1295:1 1296:1 1472:1 
1 1:1 15:1 37:1 75:1 96:1 596:1 789:1 968:1 1040:1 1104:1 1474:1 1475:1 1476:1 
1 233:1 820:1 1026:1 1427:1 1477:1 
1 1:1 14:1 22:1 32:1 75:1 90:1 91:1 100:1 177:1 216:1 285:1 442:1 447:1 601:1 1481:1 
1 15:1 177:1 182:1 256:1 372:1 427:1 442:1 461:1 874:1 1412:1 1482:1 1483:1 
1 11:1 22:1 23:1 29:1 30:1 37:1 43:1 139:1 580:1 581:1 582:1 
1 5:1 15:1 35:1 36:1 37:1 75:1 123:1 250:1 275:1 429:1 433:1 1484:1 1485:1 1486:1 
1 1:2 15:1 37:1 90:1 321:1 323:2 1487:1 1488:1 1489:1 1490:1 1491:1 
1 36:1 38:1 40:1 44:1 46:1 48:1 152:1 313:1 409:1 
1 1:1 6:1 8:1 22:1 44:1 71:2 91:1 146:1 148:1 165:1 187:2 188:1 190:1 329:1 436:1 591:1 
1 0:1 1:1 4:1 7:1 11:1 15:1 22:1 29:1 30:1 157:2 158:1 161:1 192:1 856:1 1238:1 
1 15:1 90:1 117:1 316:1 371:1 423:1 424:1 436:1 985:1 1497:1 
1 0:2 1:1 4:1 8:1 11:2 30:1 36:1 42:1 44:1 48:1 62:1 188:1 252:1 
1 22:1 24:1 43:1 140:1 290:1 479:1 581:1 587:1 925:1 1257:1 1502:1 
1 0:1 6:1 22:1 23:1 30:1 36:1 142:1 275:1 636:1 
1 14:1 15:1 16:1 24:1 30:1 32:1 35:1 37:2 46:1 48:1 56:2 57:1 61:1 64:1 250:1 1507:1 
1 1:1 6:2 8:1 37:1 43:1 71:3 329:1 330:1 436:1 
1 1:1 10:1 22:1 56:1 68:1 71:1 111:1 203:1 216:1 332:1 365:1 732:1 1036:1 
1 10:1 22:1 56:1 110:1 121:1 203:1 216:1 363:1 394:1 757:1 879:1 1051:1 1052:1 1373:1 1374:1 1375:1 
1 36:1 68:1 72:1 90:1 111:1 203:1 365:1 1036:1 
1 0:2 1:1 8:1 11:3 14:1 15:1 16:1 30:1 37:2 43:1 47:1 111:1 134:1 139:1 158:1 205:2 366:2 367:2 
1 1:1 8:1 15:1 36:1 71:2 190:1 191:1 194:1 204:2 436:1 439:1 488:2 626:1 798:2 801:2 
1 11:1 22:1 29:1 30:1 37:1 44:1 75:1 139:1 253:1 1289:1 
1 3:1 15:1 17:1 45:1 70:3 105:1 109:1 111:2 147:1 222:1 288:1 316:2 318:1 1516:1 
1 15:1 36:1 46:1 47:1 48:1 80:1 86:1 152:1 153:1 782:1 1264:1 
1 3:1 7:2 22:1 24:1 150:1 256:1 417:1 582:1 1199:1 1238:1 1376:1 1498:1 1499:1 
1 0:1 3:1 8:1 22:1 24:1 204:2 243:1 296:1 297:1 298:1 301:1 302:1 1210:1 1211:1 1212:1 
1 4:1 35:1 43:1 88:1 123:1 140:2 410:1 581:1 717:1 1225:1 1319:1 1437:1 1501:1 
1 1:1 8:1 22:1 66:1 216:1 1041:1 1055:2 1224:1 1226:1 1438:1 1519:1 
1 4:1 8:1 22:1 35:1 39:1 164:1 290:1 479:1 587:1 778:1 925:2 1023:1 1223:1 1503:3 1504:2 1505:1 1506:1 
1 1:1 8:1 35:1 47:1 175:1 222:1 1173:2 1314:1 1315:1 1316:1 1317:1 
1 1:1 22:1 24:1 96:1 371:1 393:1 417:1 1430:1 1431:1 1432:1 
1 1:1 8:1 35:1 222:1 1042:1 1262:1 1520:1 1521:1 1522:1 1523:1 
1 36:1 43:1 46:1 48:1 126:1 324:1 482:1 535:1 558:1 722:1 723:1 1130:1 1322:1 
1 1:1 10:1 11:1 15:1 56:1 90:1 213:1 222:1 332:1 830:1 860:1 861:1 1097:1 1268:1 1524:1 
1 1:1 22:1 24:1 35:2 43:1 45:1 47:1 123:2 124:1 128:1 173:1 216:1 561:1 1525:1 1526:1 
1 3:2 50:1 96:2 131:1 132:1 135:1 357:1 393:1 670:1 672:1 704:1 1022:1 1117:1 1527:1 
1 0:1 1:1 4:1 11:1 32:1 37:1 188:1 211:1 222:1 225:1 655:1 
1 1:1 11:1 15:2 36:1 85:1 89:1 90:1 95:1 96:1 173:1 425:1 448:1 449:1 721:1 979:1 1273:1 
1 1:2 10:1 90:1 222:1 231:1 755:1 823:1 1061:1 1389:1 1390:1 1531:1 1532:1 
1 1:1 3:1 8:1 37:1 75:1 177:1 178:1 187:1 192:1 322:1 438:2 465:1 873:1 
1 11:1 15:1 17:1 22:1 23:1 24:1 32:1 36:1 48:1 58:1 75:1 188:2 330:1 360:1 390:1 523:1 554:1 773:2 774:1 1382:1 
1 0:1 22:1 24:1 47:1 68:2 71:1 140:1 264:1 793:1 1260:1 
1 2:1 7:1 8:1 15:1 16:1 22:1 29:1 36:1 37:1 38:1 40:1 44:1 46:1 48:1 76:3 128:1 139:1 140:1 250:1 388:1 502:1 578:1 592:1 677:1 1115:1 1257:1 
1 1:1 22:1 37:1 56:1 161:1 205:1 526:1 1085:1 1088:1 1091:1 1267:1 1542:1 1543:1 
1 1:1 3:1 17:1 35:1 36:1 45:1 75:1 123:2 140:1 190:1 332:1 410:1 429:2 433:1 481:2 562:1 1216:1 1257:1 1544:1 1545:1 
1 3:1 8:1 10:1 14:1 15:1 24:1 30:1 33:1 37:1 54:1 56:2 57:1 60:1 190:1 204:1 250:1 280:1 479:1 579:1 764:1 1001:1 1002:1 
1 3:1 17:1 22:1 70:1 90:1 213:1 424:1 876:1 1549:1 1550:1 1551:1 1552:1 1553:1 
1 1:1 35:1 37:1 90:1 222:1 250:1 1013:1 1558:1 1559:1 
1 0:1 1:1 3:1 11:1 22:1 24:1 32:1 35:1 90:1 854:1 955:1 1188:1 1317:1 1560:1 1561:1 1562:1 1563:1 
1 38:1 40:1 44:1 96:1 105:1 147:1 157:1 377:1 1162:1 1310:1 1477:1 
1 11:1 15:1 36:1 37:1 43:1 81:1 90:1 178:1 190:1 209:1 361:1 415:1 773:1 909:1 1010:1 
1 22:1 24:1 37:1 43:1 50:1 70:1 90:1 104:1 112:1 119:2 1528:1 1549:1 1571:1 
1 1:1 6:1 8:1 11:1 13:1 15:1 24:1 33:1 36:1 37:1 96:1 182:1 185:1 194:1 250:1 256:1 378:1 438:1 461:1 660:1 715:1 1573:1 
1 1:1 3:1 10:1 15:1 17:1 90:1 114:1 231:1 233:1 755:1 758:1 1026:1 1102:1 
1 37:1 46:1 48:1 56:1 319:1 343:1 502:1 1288:1 1333:1 
1 0:1 23:1 30:1 36:1 142:1 203:1 275:1 346:1 348:1 
1 36:1 46:1 47:1 48:1 80:1 86:1 152:1 153:1 388:1 782:1 1513:1 1574:1 
1 11:2 15:1 16:1 32:2 37:1 164:1 165:1 250:1 359:1 360:1 528:1 
1 1:1 22:1 24:1 36:1 90:1 149:1 204:1 488:2 626:1 799:1 802:1 803:1 804:1 862:1 864:1 865:1 
1 1:1 3:2 7:1 8:1 14:1 22:1 24:1 48:1 204:1 256:1 325:3 375:1 438:1 488:1 864:1 866:1 1175:1 1176:1 1177:1 
1 1:1 33:1 34:1 35:1 36:1 42:1 43:1 45:1 582:1 1275:1 1276:1 1582:1 1583:1 
1 14:1 22:1 24:1 30:1 32:1 33:1 37:1 43:1 56:2 57:2 60:1 62:1 272:1 588:1 1001:1 1002:1 
1 3:3 14:1 15:3 85:1 89:1 173:2 231:1 425:1 448:1 449:1 471:1 672:1 1022:2 1323:1 1399:1 1400:1 
1 1:1 11:1 22:1 56:1 75:1 96:1 216:1 343:1 502:1 985:1 1288:1 1401:1 1512:1 
1 3:1 17:1 43:1 90:1 194:1 214:1 399:1 408:1 1132:1 1234:1 1353:1 1354:1 1584:1 
1 37:1 310:1 450:1 453:1 583:1 661:2 670:1 836:1 1044:1 1045:1 1290:1 1291:1 1292:1 1293:1 1294:1 1295:1 1296:1 
1 1:1 175:1 203:1 284:1 394:1 988:1 1339:1 1473:1 1585:1 
1 1:1 11:2 15:1 32:1 36:1 46:1 48:1 75:1 96:1 111:1 134:1 152:1 172:1 366:1 367:1 525:1 1586:1 
1 22:1 23:1 29:1 30:1 37:1 75:1 139:1 465:1 
1 3:1 4:1 8:1 11:1 15:2 16:1 36:1 37:1 71:1 81:1 85:1 127:1 147:1 190:1 264:1 374:1 429:2 1418:1 1419:1 
1 22:1 24:1 76:1 77:1 177:1 465:1 
-1 0:1 1:1 16:1 22:1 23:1 24:1 25:1 26:1 27:1 28:1 29:1 30:1 31:1 32:1 
-1 1:1 14:1 33:2 34:2 35:2 36:1 37:1 38:1 39:1 40:1 41:1 42:1 43:1 44:1 45:1 
-1 0:1 1:1 10:1 16:1 24:1 36:1 46:1 47:1 48:1 49:1 50:1 51:1 52:1 53:1 54:1 55:1 
-0.2325755053064562 22:1 24:1 43:1 56:1 64:1 65:1 66:1 67:1 
-0.4416242523716842 0:1 3:1 22:1 24:1 68:4 71:1 72:1 78:1 79:1 
-1 8:1 75:1 82:1 83:1 96:1 97:1 98:1 99:1 100:1 101:1 102:1 103:1 
-1 17:1 70:1 90:1 104:1 105:1 106:1 107:1 108:1 109:1 110:1 111:1 112:1 113:1 
-1 0:2 1:1 11:1 23:1 30:2 36:1 37:1 46:2 75:1 138:2 139:1 140:1 141:1 142:1 143:1 144:1 145:1 
-1 15:1 16:1 22:1 37:1 71:1 81:1 127:1 146:1 147:1 148:1 149:1 
-1 0:1 1:1 4:1 7:1 15:1 23:1 44:1 94:1 157:2 158:1 159:1 160:1 161:1 162:1 163:1 
-1 1:1 11:4 15:1 22:1 31:1 32:1 96:1 125:1 130:1 140:1 164:3 165:1 166:1 167:1 168:1 169:1 170:1 171:1 172:1 
-1 0:1 14:1 15:1 16:1 24:1 37:2 44:1 81:1 85:1 94:1 185:1 186:1 187:1 188:1 189:1 
-1 15:1 29:1 31:1 37:1 44:1 67:1 75:1 81:1 165:1 187:2 188:1 190:1 191:1 192:1 193:1 194:1 195:1 
-1 8:1 17:1 22:1 24:1 37:1 44:1 48:1 81:1 88:1 91:1 115:1 148:2 165:1 187:2 188:1 201:2 202:1 203:1 204:1 205:1 206:1 207:1 208:1 
-1 4:1 70:2 104:1 119:1 212:1 213:1 214:1 215:1 216:1 217:1 218:1 219:1 220:1 
-1 1:1 22:1 24:1 38:1 40:1 42:1 44:1 56:1 64:1 65:1 66:1 75:1 192:1 221:1 222:1 223:1 224:1 225:1 226:1 227:1 228:1 
-1 0:1 11:1 15:1 17:1 22:1 23:1 24:1 30:1 43:1 143:1 159:1 
-1 1:1 3:1 45:1 148:2 194:1 229:1 230:1 231:1 232:1 
-1 8:1 75:1 82:1 83:1 233:1 234:1 235:1 236:1 237:1 238:1 239:1 240:1 241:1 
-1 3:1 8:1 15:2 28:1 29:1 32:1 37:1 75:2 81:1 140:1 145:1 153:2 242:1 243:1 244:1 245:1 
-1 1:1 35:1 90:1 105:1 206:1 222:1 246:1 247:1 248:1 249:1 
-1 0:1 1:1 22:1 23:2 29:1 30:2 37:1 44:2 139:1 143:1 153:1 154:1 159:1 
-1 0:1 11:1 23:1 30:1 36:1 37:1 139:1 142:1 143:1 159:1 253:1 254:1 255:1 256:1 
-1 0:1 1:1 5:1 16:1 24:1 27:1 37:1 75:1 81:1 88:1 104:1 140:1 145:1 153:1 166:1 188:2 244:1 268:1 269:1 270:1 271:1 
-1 0:1 1:1 4:1 7:1 75:1 76:1 90:1 274:1 275:1 276:1 277:1 
-1 22:1 24:1 37:1 43:1 56:2 57:1 61:1 65:1 278:1 279:1 280:1 281:1 
-1 3:1 15:1 17:1 37:1 45:1 70:1 73:1 75:1 90:1 116:1 175:1 190:1 282:1 283:1 284:1 285:1 286:1 287:1 288:1 289:1 
-1 0:1 15:1 23:1 36:2 37:1 139:1 142:1 153:1 159:1 164:1 290:2 291:1 292:1 293:1 294:1 
-1 0:2 3:1 8:1 37:1 185:1 204:2 243:3 295:2 296:2 297:1 298:1 299:1 300:1 301:1 302:1 
-1 22:1 24:1 38:1 40:1 42:1 44:1 56:1 64:1 65:1 222:1 225:1 308:1 
-0.4104061444952605 32:1 33:1 36:1 43:1 56:1 60:1 64:1 65:1 272:1 308:1 319:1 
-1 6:1 8:1 15:1 16:1 22:1 23:1 29:1 30:1 37:1 71:3 75:1 81:1 127:1 147:1 329:2 330:2 331:1 
-1 0:1 22:1 30:1 36:1 126:1 142:1 159:1 175:1 207:1 214:1 337:1 338:1 
-1 15:1 30:1 32:1 36:1 277:1 339:2 340:1 341:1 342:1 343:1 
-1 0:1 23:1 24:1 30:2 36:1 58:1 142:1 203:1 344:1 345:1 346:1 347:1 348:1 
-1 3:1 5:1 15:1 16:1 35:2 37:1 41:1 81:1 90:1 185:1 258:1 349:1 350:1 351:1 352:1 353:1 
-1 3:1 14:1 33:1 34:1 37:1 75:1 321:1 323:1 354:1 355:1 356:1 
-1 0:1 11:1 15:1 23:1 30:1 36:1 37:1 43:1 142:1 205:1 250:1 366:1 367:1 
-1 0:1 1:1 11:1 37:1 94:1 139:1 188:1 222:1 371:1 372:1 373:1 374:1 
-1 0:1 22:1 23:1 30:1 36:1 111:1 134:1 142:1 275:1 386:1 
-1 5:1 6:2 10:1 32:1 36:2 46:1 48:2 55:1 152:1 368:1 390:1 
-1 1:2 96:1 148:1 205:1 231:1 233:1 391:1 392:1 393:1 394:1 
-1 0:1 5:1 22:1 23:1 24:1 30:1 32:1 36:1 142:1 275:1 395:1 
-1 0:1 1:1 8:1 14:1 15:2 35:1 37:2 123:1 128:1 130:1 139:1 140:1 313:1 333:1 409:1 410:1 411:1 412:1 413:1 
-1 1:1 22:1 24:1 30:1 68:1 142:1 199:1 204:1 415:1 416:1 417:1 418:1 419:1 420:1 421:1 
-1 0:1 1:1 14:1 23:1 130:1 177:1 322:2 381:1 441:1 442:1 443:1 
-1 0:1 1:1 4:1 15:1 35:1 38:1 40:1 44:1 123:1 332:1 333:1 334:1 335:1 
-1 0:2 1:1 5:1 11:1 22:1 23:1 24:1 30:1 32:1 37:1 75:1 139:1 142:1 395:1 444:1 
-1 6:1 15:1 32:1 37:1 47:1 75:1 178:1 250:1 348:1 438:2 450:1 451:1 
-1 0:2 1:2 4:1 23:1 30:1 37:1 139:1 142:1 153:1 154:1 425:1 444:1 
-1 3:2 8:1 22:2 24:2 46:1 75:1 164:1 258:1 467:3 468:1 469:1 470:1 471:1 472:1 
-1 16:1 37:1 42:1 43:1 81:1 130:1 262:1 410:1 480:1 481:1 482:1 483:1 484:1 
-1 15:1 28:1 31:1 32:2 37:1 250:1 368:1 522:1 523:1 524:1 525:1 
-1 0:1 11:1 23:1 30:1 36:1 37:1 139:1 142:1 274:1 528:1 
-1 3:1 8:1 15:1 204:1 297:2 306:1 393:1 488:1 489:1 546:1 547:1 548:1 549:1 550:1 551:1 
-1 3:1 8:1 14:1 15:4 16:1 35:1 37:1 42:1 123:2 128:2 139:1 140:1 313:1 314:1 333:2 409:1 410:2 411:2 413:2 439:2 
-1 22:1 23:1 24:1 29:1 30:2 71:1 130:1 191:1 194:1 436:1 
-1 22:1 24:1 35:1 123:1 130:1 410:1 493:1 509:1 510:1 552:1 553:1 554:1 
-1 22:1 24:1 37:1 43:5 48:1 304:1 361:2 555:3 556:1 557:1 558:1 559:1 560:1 
-1 0:1 1:1 4:1 15:1 35:1 43:1 123:1 332:1 333:1 334:1 335:1 336:1 
-1 22:1 24:1 130:1 154:1 191:1 193:1 577:1 
-1 11:1 23:1 30:1 37:1 43:4 139:1 159:1 314:3 335:1 568:1 580:3 581:1 582:1 
-1 50:1 68:2 69:1 70:2 72:1 583:1 584:1 585:1 586:1 
-1 22:1 24:1 38:1 40:1 44:1 290:1 479:1 587:1 588:1 589:1 
-1 15:1 16:1 37:1 47:1 80:1 81:1 82:1 85:1 86:1 
-1 0:1 1:1 23:1 30:1 36:1 75:1 142:1 152:1 256:1 438:1 591:1 592:1 
-1 0:1 1:1 4:1 6:1 152:1 185:1 205:1 465:2 598:1 
-1 22:1 24:1 29:1 32:1 152:1 191:1 193:1 395:1 594:1 600:1 601:1 602:1 
-1 0:1 22:1 23:1 24:1 30:1 36:1 142:1 187:1 188:1 
-1 15:1 17:1 32:1 84:1 85:1 91:1 604:1 605:1 606:1 
-1 0:1 3:1 11:2 22:1 23:1 24:1 30:1 37:1 38:1 40:1 43:1 44:1 46:1 48:1 61:1 75:2 139:1 143:1 159:1 165:1 272:1 334:1 335:1 528:1 591:1 
-1 0:1 5:1 22:1 24:1 75:2 182:1 275:1 310:1 381:1 438:1 611:1 612:1 
-1 0:1 11:1 23:1 30:1 36:1 37:1 38:1 40:1 44:1 75:1 139:1 142:1 159:1 164:1 528:1 568:1 621:1 622:1 
-1 3:2 15:2 17:1 75:1 90:1 407:1 549:1 627:1 628:1 629:1 
-1 8:1 15:1 16:1 36:1 37:1 51:1 75:1 76:2 81:1 102:1 147:1 414:1 415:1 637:1 638:1 
-1 15:1 19:1 37:1 75:1 90:1 96:1 148:2 205:1 250:1 283:1 324:1 393:1 457:1 639:1 640:1 641:1 642:1 643:1 644:1 645:1 
-1 37:1 43:1 48:1 100:1 182:1 461:1 558:1 601:1 646:1 647:1 
-1 0:1 6:1 22:1 23:1 32:1 36:1 142:1 159:1 275:1 636:1 649:1 
-1 0:1 8:1 11:1 14:1 15:2 17:1 24:1 37:1 85:1 88:1 94:1 96:1 188:1 210:1 656:1 657:1 
-1 35:3 46:1 123:3 124:2 125:1 126:1 127:1 128:1 200:1 660:1 
-1 6:1 22:1 24:1 29:1 152:1 190:1 191:1 193:1 440:1 601:1 602:1 
-1 2:1 3:1 6:1 14:1 15:1 17:1 37:1 47:1 48:1 52:1 111:1 134:1 231:1 357:1 362:1 445:1 451:1 667:1 668:1 
-1 8:1 15:2 16:1 22:1 36:1 37:1 71:2 81:1 89:1 90:1 92:1 95:1 111:1 127:1 134:1 147:1 176:1 
-1 22:1 23:1 24:1 30:2 92:1 143:1 
-1 0:1 22:1 24:1 75:1 182:1 275:1 310:1 381:1 611:1 612:1 
-1 0:1 1:1 4:1 15:1 35:1 42:1 123:1 222:1 225:1 314:1 332:1 333:1 335:1 
-1 0:1 22:1 23:1 30:1 36:1 142:1 275:1 291:1 697:1 698:1 699:1 
-1 30:1 37:2 81:1 82:1 87:1 90:1 91:1 95:1 131:1 132:1 133:1 135:1 136:1 137:1 606:1 701:1 
-1 8:1 14:1 15:1 16:1 24:1 36:1 37:1 44:2 71:1 81:1 94:1 127:1 147:1 165:1 187:2 188:1 
-1 3:1 8:2 15:1 32:2 43:1 47:1 59:1 97:1 102:1 253:1 268:1 357:1 361:1 703:1 
-1 3:1 10:1 21:1 32:1 68:1 78:1 203:1 365:1 706:1 
-1 4:1 29:1 37:1 92:1 139:1 153:1 190:1 191:1 193:1 268:1 425:1 437:1 440:1 
-1 0:1 22:1 23:1 36:1 44:1 62:1 142:1 165:1 187:2 188:1 
-1 22:1 24:1 42:1 46:1 138:1 191:1 222:1 225:1 290:1 596:1 645:1 707:1 708:1 709:1 
-1 3:1 8:1 15:1 17:1 48:1 91:1 123:1 710:1 711:1 712:1 
-1 0:1 4:1 23:1 30:1 36:1 75:1 142:1 153:1 
-1 3:2 8:1 15:3 17:1 19:1 36:1 47:1 50:1 75:1 153:1 343:1 655:1 718:1 719:1 720:1 
-1 0:1 15:1 23:1 30:1 36:1 37:1 142:1 153:1 250:1 
-1 8:1 22:1 24:2 38:1 40:1 44:1 200:1 257:1 429:2 439:1 591:1 722:2 723:2 724:1 
-1 43:1 126:1 528:1 558:1 
-1 1:1 10:1 15:1 17:1 70:1 83:1 90:1 117:1 283:1 725:1 726:1 727:1 
-1 0:1 6:1 22:1 23:1 30:1 36:1 142:1 275:1 728:1 
-0.3350004552659569 3:1 17:1 58:1 147:1 222:1 417:1 618:1 722:1 733:1 734:1 735:1 736:1 737:1 738:1 739:1 740:1 
-0.7715417722914461 3:1 17:1 70:1 104:1 110:1 112:1 119:2 147:1 213:1 257:1 741:1 742:1 743:1 744:1 745:1 
-1 14:1 33:1 37:1 123:3 124:2 127:1 128:1 273:1 493:1 510:1 746:1 
-1 0:1 5:1 22:1 23:1 24:1 30:1 32:1 36:1 142:1 275:1 395:1 
-1 0:1 22:1 24:1 43:1 128:1 222:1 224:1 225:1 228:1 314:1 371:1 413:1 597:1 747:1 
-1 22:1 23:1 24:1 30:1 44:1 143:1 159:1 165:1 187:1 
-1 3:1 8:1 11:1 15:1 22:1 37:1 43:1 47:1 90:1 216:1 287:1 348:1 357:1 361:1 375:1 479:1 703:1 764:1 
-1 14:1 31:2 36:1 37:1 46:2 47:1 48:2 80:1 82:1 83:1 84:1 86:1 87:1 152:2 
-1 1:2 3:1 4:1 10:1 11:1 75:1 90:1 183:1 192:1 768:1 769:1 770:1 771:1 
-1 0:2 1:1 4:1 8:1 11:2 14:1 15:1 37:1 43:1 47:1 111:1 134:1 205:1 366:1 367:1 
-1 1:1 32:2 59:1 76:1 90:1 177:1 253:1 309:1 360:1 442:1 
-1 0:1 1:1 4:1 7:1 13:1 15:2 71:1 85:1 127:1 147:1 161:1 192:1 204:1 231:1 258:1 325:1 326:1 388:1 
-1 22:1 24:1 42:1 43:1 56:1 64:1 65:1 580:1 658:1 
-1 0:1 15:1 23:1 30:1 36:1 37:1 75:1 142:1 250:1 256:1 438:1 591:1 592:1 
-1 0:1 1:1 36:1 46:1 48:1 53:1 71:2 90:1 152:1 525:1 657:1 777:1 
-1 1:1 3:1 15:1 37:1 85:1 90:1 231:1 296:1 332:1 680:1 755:1 756:1 758:1 759:1 
-0.4945971856344035 0:1 14:1 15:1 17:1 24:1 31:1 37:1 44:3 88:1 165:2 187:3 
-1 38:1 40:1 44:1 67:1 126:1 223:1 224:1 228:1 558:1 784:1 
-1 8:1 22:1 24:1 47:2 65:2 67:1 110:1 111:1 140:2 145:2 264:1 280:1 343:1 363:1 792:1 793:1 794:1 795:1 796:1 
-1 1:1 15:1 16:1 26:1 32:2 37:1 59:1 76:1 81:1 85:1 90:1 253:1 309:1 
-1 22:1 23:1 24:1 30:1 58:1 159:1 347:1 797:1 
-0.5626973306507437 1:1 22:1 24:1 36:1 90:1 204:3 777:1 798:2 799:1 800:1 801:1 802:1 803:1 804:1 805:1 
-0.2411328513474638 4:1 22:1 24:1 42:1 66:1 198:1 200:1 222:2 225:2 286:1 314:1 587:1 806:1 
-1 29:1 31:1 36:1 46:1 48:1 92:1 152:1 190:1 191:1 193:1 268:1 437:1 440:1 
-1 0:1 1:1 4:1 11:1 42:1 222:1 224:1 225:1 226:1 228:1 343:1 
-1 8:1 15:2 16:1 22:1 37:1 71:1 81:1 127:1 146:1 147:1 148:1 149:1 264:1 382:1 
-1 15:1 17:1 37:1 69:1 70:1 105:1 222:1 413:1 437:1 820:1 821:1 822:1 
-1 6:1 23:1 36:1 62:1 77:1 142:1 157:1 
-1 1:1 22:1 24:2 56:1 68:1 70:1 71:1 75:1 88:1 110:1 111:1 163:1 315:1 823:1 824:1 
-1 1:1 37:1 75:1 76:1 90:2 157:1 377:1 829:1 830:1 
-1 22:1 26:1 32:1 368:1 369:1 
-1 4:1 11:1 15:2 16:1 22:1 37:1 71:1 81:1 85:1 90:1 99:2 127:1 147:1 182:1 275:1 445:1 705:1 840:1 
-1 22:1 24:1 67:1 222:1 225:1 290:1 479:1 587:1 589:1 
-1 22:1 24:1 29:1 43:1 145:1 154:1 193:1 272:1 594:1 841:1 842:1 843:1 
-1 3:1 14:1 15:2 16:1 33:1 35:1 37:2 60:1 75:1 81:1 123:1 333:1 381:1 410:1 411:1 412:1 436:1 439:1 846:1 847:1 848:1 849:1 850:1 
-1 1:1 46:1 68:2 72:1 78:1 624:1 787:1 
-1 1:2 8:1 10:1 11:3 17:1 22:1 32:1 38:1 40:1 44:1 125:1 130:1 140:1 164:1 165:2 857:1 
-1 0:1 1:1 3:1 4:1 6:2 7:1 8:1 9:1 13:1 15:1 71:1 90:1 161:1 264:1 275:1 785:1 
-1 23:1 30:2 36:1 142:1 143:1 204:1 492:1 598:1 600:1 650:1 652:1 858:1 
-1 5:1 10:1 56:1 200:2 203:2 604:1 859:2 860:1 861:1 
-1 0:1 4:1 7:1 8:1 15:1 75:1 161:1 192:1 204:1 326:1 327:1 328:1 865:1 
-1 0:1 11:1 23:1 30:1 32:1 36:1 37:1 75:1 139:1 142:1 275:1 
-1 1:1 15:1 16:1 17:1 22:1 24:1 29:1 31:1 37:1 55:1 81:1 90:1 177:1 256:1 264:1 382:1 816:1 871:1 872:1 873:1 874:1 
-1 1:1 17:1 70:1 90:1 91:1 153:1 240:1 315:1 876:1 
-1 10:1 17:1 151:1 434:1 675:1 880:1 881:1 
-1 3:1 5:1 15:1 35:1 46:1 50:1 105:1 127:1 258:1 352:1 536:1 890:1 891:1 892:1 
-1 0:1 22:1 23:1 36:1 142:1 146:1 148:1 159:1 893:1 
-1 17:1 24:1 90:1 111:1 115:1 363:1 397:1 551:1 900:1 901:1 902:1 
-1 0:1 1:1 4:1 15:1 35:1 42:1 123:1 128:1 332:1 333:1 413:1 784:1 
-1 37:1 38:1 40:1 44:1 48:1 75:1 558:1 
-1 11:4 15:1 16:1 23:1 30:1 32:1 37:1 43:3 61:1 66:2 81:1 127:2 159:1 164:1 165:1 272:1 285:1 598:1 908:1 
-1 37:1 90:1 558:1 662:1 680:1 722:1 723:1 923:1 
-1 3:2 24:1 37:1 88:1 96:1 296:1 297:1 399:1 680:1 926:1 927:1 928:1 929:1 
-1 22:1 24:1 53:1 90:1 96:1 216:1 261:1 420:1 429:1 596:1 665:1 666:1 786:1 787:1 930:1 931:1 
-1 1:1 3:1 15:1 16:1 37:1 75:1 81:1 90:1 181:1 204:1 297:2 301:1 388:1 488:1 932:1 933:1 934:1 
-1 0:1 15:1 36:2 62:1 92:1 142:1 159:1 525:1 703:1 935:1 
-1 22:1 24:1 29:1 32:1 145:1 152:1 193:1 555:2 560:2 594:1 602:1 841:1 937:1 938:1 939:1 940:1 941:1 942:1 943:1 
-1 15:1 16:1 29:2 32:1 37:1 43:3 81:1 193:1 222:1 283:1 436:1 529:1 591:1 594:1 772:1 958:1 959:1 960:1 961:1 962:1 
-1 0:1 1:1 4:1 24:1 75:1 88:1 150:1 173:2 174:1 176:1 311:1 343:1 602:1 966:1 
-1 0:1 22:1 30:1 36:1 111:1 134:1 142:1 159:1 275:1 386:1 
-1 15:2 16:1 36:1 37:1 75:1 81:1 85:1 180:1 187:1 188:1 190:1 194:1 231:1 275:1 310:1 381:1 967:1 
-1 1:1 3:1 17:1 70:1 90:1 96:1 222:1 316:1 743:1 820:1 969:1 970:1 
-1 3:1 5:1 8:1 10:1 22:1 24:1 65:1 68:1 78:1 111:1 179:1 975:1 976:1 977:1 978:1 
-1 0:1 22:1 24:1 36:1 62:1 92:1 142:1 159:1 
-1 0:1 4:1 7:1 13:1 90:1 94:1 187:1 325:1 980:1 
-1 1:1 17:1 35:1 75:1 90:1 140:1 216:1 259:2 388:1 981:1 982:1 983:1 984:1 
-1 17:1 22:1 32:1 90:1 207:1 309:1 757:1 985:1 986:1 987:1 
-1 1:1 8:1 16:1 37:1 44:1 47:1 81:1 89:1 90:1 94:2 95:1 166:1 216:1 264:1 554:1 760:2 993:1 
-1 22:1 24:1 42:1 43:1 290:1 479:1 587:1 589:1 590:1 
-1 0:1 1:1 4:1 35:1 42:1 43:1 123:1 409:1 429:1 1000:1 
-1 14:1 22:1 24:2 30:1 32:1 33:1 37:1 43:1 56:2 57:2 60:1 272:1 794:1 1001:1 1002:1 
-1 0:1 1:1 4:1 35:1 38:1 40:1 44:1 71:1 123:1 185:1 538:1 581:1 1003:1 
-1 33:1 34:1 36:1 43:1 46:1 90:1 320:1 321:1 322:1 323:1 
-1 15:1 70:3 222:1 288:1 318:1 1004:1 1005:1 
-1 22:1 24:1 56:1 65:1 222:1 225:1 314:1 319:1 343:1 579:1 773:1 1009:1 1010:1 
-1 22:1 24:1 71:2 96:1 153:1 375:1 429:1 721:1 1011:1 1012:1 
-1 1:1 8:1 70:1 100:1 117:1 119:1 122:1 239:1 388:1 423:1 424:1 
-1 56:1 68:2 71:1 72:1 203:3 365:1 1015:1 1016:1 
-1 37:1 43:1 48:1 361:1 558:1 1017:1 
-1 43:1 126:1 558:1 1018:1 1019:1 
-1 0:1 1:1 4:1 8:1 17:1 32:1 55:1 84:1 604:1 606:1 1023:1 
-1 0:1 22:1 24:1 46:1 75:1 234:1 320:1 465:1 
-1 15:1 16:1 24:1 32:1 37:1 123:1 128:1 130:1 140:2 222:1 227:1 250:1 313:1 340:1 409:1 410:1 413:1 481:1 716:1 717:1 
-1 1:2 5:1 10:2 15:1 75:1 90:1 368:1 381:1 571:1 573:1 576:1 632:1 1031:1 
-1 15:1 90:1 117:1 316:1 371:1 423:1 424:1 436:1 985:1 
-1 56:1 75:1 200:2 203:2 859:2 861:1 
-1 1:1 11:1 90:1 343:1 363:1 946:1 1033:1 1034:1 
-1 1:1 3:1 5:1 8:1 11:1 15:1 46:1 75:1 258:1 343:1 425:1 596:2 680:1 773:1 1007:1 1008:1 1010:1 1035:1 
-1 36:1 68:1 78:1 90:1 111:1 203:1 365:1 1036:1 
-1 15:1 17:1 22:1 71:1 90:1 91:1 127:1 146:1 147:1 148:1 264:1 382:1 
-1 1:1 35:1 90:1 110:1 111:1 151:1 887:1 993:1 1040:1 1041:1 1042:1 1043:1 
-1 1:2 3:1 10:2 90:1 183:1 363:1 769:1 770:1 771:1 
-1 1:1 3:1 17:1 35:1 90:1 151:1 434:1 675:1 880:1 
-1 70:2 222:1 316:1 318:1 
-1 8:1 15:1 32:1 37:2 48:1 75:1 140:1 153:1 172:1 191:1 202:1 243:1 244:1 250:1 268:1 681:1 
-1 0:1 1:1 4:1 5:1 8:1 11:1 22:1 164:1 165:1 526:1 602:1 1023:1 
-0.8847813166632048 6:1 15:1 17:1 29:1 36:1 46:1 48:1 152:1 153:1 190:1 191:1 193:1 425:1 594:1 601:1 
-1 15:1 16:1 29:2 32:1 37:1 43:2 81:1 193:1 222:1 436:1 529:1 531:1 591:1 594:1 772:1 958:1 960:1 961:1 962:1 1057:1 
-1 36:1 46:1 47:1 48:1 55:1 80:1 82:1 86:1 152:1 
-1 11:1 22:1 24:1 55:1 152:1 163:1 164:1 165:1 205:1 389:1 526:1 
-1 0:1 1:1 4:1 15:1 35:1 43:1 123:1 332:1 333:1 334:1 335:1 336:1 
-1 11:3 15:1 28:1 32:1 55:1 75:1 96:1 164:2 165:1 166:1 172:1 200:1 268:1 502:1 985:1 1065:1 
-1 0:2 1:2 4:1 11:2 14:1 15:1 32:1 53:1 85:1 91:1 94:2 161:1 281:1 481:1 555:1 1066:1 
-1 15:1 16:1 36:1 37:1 71:1 75:1 81:1 89:1 90:1 92:1 94:1 95:1 127:1 147:1 
-1 1:1 3:1 8:1 14:1 15:1 16:1 24:1 36:1 37:1 71:1 81:1 90:1 94:1 127:1 147:1 187:2 188:1 362:1 
-1 1:1 15:1 90:1 130:1 155:1 429:2 439:1 717:1 925:1 1020:1 1021:1 1022:2 1069:1 
-1 37:1 43:2 48:1 361:1 558:1 560:1 
-1 22:1 24:1 71:1 96:1 153:1 429:1 593:1 594:1 597:1 721:1 
-1 0:1 1:1 11:1 32:1 37:1 43:2 56:1 61:1 139:1 272:1 319:1 334:1 335:1 
-1 1:2 15:1 35:1 37:1 48:1 90:1 127:1 204:1 337:1 536:1 816:1 993:1 1077:1 
-1 0:1 22:1 24:1 111:1 363:1 554:1 1004:1 1078:1 1079:1 
-1 0:1 1:2 22:1 24:1 75:1 90:1 376:1 415:1 860:2 861:1 1078:1 1082:1 1083:1 
-1 22:1 24:1 75:1 118:1 121:2 235:1 1084:1 
-1 36:1 68:1 78:1 203:1 365:1 596:1 664:1 739:1 1091:1 
-1 22:1 24:1 29:1 130:1 154:1 191:1 193:1 555:1 560:1 941:1 943:1 1094:1 
-0.5318119518881046 22:1 24:1 43:1 56:1 64:1 65:1 225:1 314:1 335:1 394:1 686:1 794:1 
-1 32:1 37:1 43:1 272:1 343:1 
-1 15:1 36:1 44:1 55:1 75:2 90:1 128:1 190:1 203:1 381:1 415:1 497:1 498:1 499:1 
-1 29:1 36:1 46:1 48:1 55:1 67:1 152:1 187:1 188:1 191:1 193:1 194:1 
-1 8:3 99:2 203:1 375:1 462:1 1108:2 1109:1 1110:1 
-1 15:1 36:1 68:1 72:1 90:1 203:1 365:1 680:1 1113:1 
-1 8:1 22:1 24:1 71:1 127:1 146:1 147:1 148:1 264:1 382:1 1114:1 1115:1 
-1 3:2 9:1 14:1 15:2 37:1 43:1 71:1 96:1 100:1 131:1 132:1 135:1 149:1 777:1 1117:1 
-1 1:1 22:1 24:1 38:1 40:1 42:1 44:1 56:1 64:1 65:1 66:1 75:1 90:1 192:1 222:1 223:1 225:1 226:1 474:1 579:1 
-1 15:2 16:1 22:1 37:1 71:2 81:1 85:1 90:1 164:2 187:1 188:1 194:1 264:1 275:1 310:1 381:1 382:1 
-1 1:1 5:1 22:1 32:1 75:1 90:1 191:1 211:2 223:1 269:1 271:1 360:1 602:1 1048:1 1049:1 1124:1 
-1 3:1 11:1 15:1 44:1 94:1 211:1 272:1 
-1 15:1 16:1 37:1 43:3 47:1 81:1 96:1 482:3 493:1 960:1 1125:1 1126:1 1127:1 1128:1 1129:1 1130:1 1131:1 
-1 3:1 15:1 17:1 24:2 47:1 81:1 283:1 297:1 481:1 734:1 1132:1 1133:1 1134:1 1135:1 
-1 1:1 3:1 15:1 17:1 37:1 74:1 75:1 90:1 117:1 153:1 238:1 422:1 423:1 424:1 425:1 
-1 0:1 1:1 4:1 15:1 35:1 43:1 123:1 314:1 332:1 333:1 335:1 581:1 
-0.07979795388038846 15:1 17:1 222:1 283:1 395:1 555:1 734:2 
-1 1:2 11:1 15:1 17:1 22:1 46:1 56:1 90:2 207:1 310:1 507:1 526:2 657:1 670:1 729:1 730:1 731:1 799:1 
-1 8:1 15:1 16:1 37:1 81:1 173:1 259:1 260:1 261:1 265:1 283:1 561:1 
-1 1:1 11:2 15:1 17:1 32:1 37:1 43:1 90:1 188:1 211:1 522:1 655:1 
-1 15:1 69:1 222:2 365:1 821:1 828:1 894:1 895:1 896:1 897:1 898:1 899:1 
-1 11:3 15:1 22:1 24:1 32:1 36:1 96:1 164:2 165:2 182:1 208:1 461:1 1131:1 1152:1 1153:1 1154:1 
-1 177:1 182:2 191:1 381:1 461:1 551:1 579:1 599:1 
-1 16:1 37:1 42:1 43:1 81:1 200:1 410:1 480:1 481:1 483:1 695:1 924:1 
-1 1:1 33:1 34:1 36:1 90:1 96:1 259:1 260:1 283:1 304:1 305:1 306:1 307:1 
-1 22:1 24:1 29:1 44:1 152:1 165:1 187:2 188:1 190:1 191:1 193:1 437:1 579:1 601:1 602:1 
-1 22:1 24:1 44:1 56:1 64:1 65:1 336:1 1151:1 
-1 15:1 29:1 31:1 37:1 44:1 75:1 81:1 165:1 187:2 188:1 190:1 191:1 192:1 193:1 194:1 195:1 440:1 
-1 3:2 22:1 24:1 46:1 90:1 222:1 324:1 613:1 615:1 616:1 617:1 618:1 619:1 620:1 1174:1 
-0.3731203818223234 1:1 3:2 7:1 8:1 14:1 22:1 24:1 48:1 149:1 204:1 256:1 325:3 375:1 438:1 488:1 864:1 1175:1 1176:1 1177:1 
-1 22:1 24:1 153:1 193:1 593:1 594:1 595:1 596:1 
-1 0:1 3:1 8:1 22:1 24:1 204:2 243:1 296:1 297:1 300:1 301:1 302:1 1140:1 1141:1 
-1 15:1 17:1 96:1 131:1 132:1 135:1 283:1 1030:1 
-1 3:1 15:2 16:1 19:1 37:1 47:1 75:2 81:1 90:1 91:1 134:1 148:1 205:1 264:1 324:1 405:1 407:1 436:1 452:1 453:1 454:1 455:1 456:1 457:1 
-1 0:2 1:1 15:1 16:1 22:1 24:1 37:1 55:1 81:1 90:1 177:1 218:1 256:1 442:1 874:1 
-1 0:1 1:1 11:2 37:1 42:1 43:1 61:1 139:1 150:1 165:1 173:1 174:1 185:1 272:1 311:1 
-1 11:1 15:1 16:1 28:1 32:1 37:1 75:1 81:1 
-1 11:2 15:1 16:1 28:1 32:2 37:1 38:1 40:1 43:1 44:1 81:1 164:1 165:1 359:1 
-1 1:2 8:1 35:1 70:1 117:1 119:1 203:1 219:1 257:1 742:1 745:1 1185:1 
-1 0:1 1:1 4:1 29:1 37:1 150:1 153:1 154:1 163:1 
-1 22:1 24:1 154:1 191:1 193:1 440:1 577:1 
-1 15:1 32:1 37:1 123:1 128:1 250:1 313:1 333:1 340:1 409:1 410:1 413:1 429:1 925:1 1195:1 
-1 11:1 15:1 28:1 37:1 250:1 253:1 522:1 
-1 1:1 8:1 22:1 24:1 35:1 123:1 124:1 128:1 173:1 216:1 388:1 561:1 562:1 563:1 564:1 566:1 
-1 1:1 22:1 24:1 30:1 68:1 142:1 204:1 347:1 415:1 416:1 417:1 418:1 419:1 420:1 421:1 
-1 1:1 22:1 24:1 36:1 90:1 204:1 488:2 626:1 777:1 799:1 802:1 804:1 862:1 863:1 864:1 865:1 
-1 24:1 37:1 47:1 81:1 91:1 146:1 189:1 203:1 277:2 325:1 583:1 864:1 1164:1 
-1 22:1 24:1 42:1 43:2 290:1 479:1 587:1 1059:1 1197:1 
-1 21:1 22:1 24:1 36:1 50:1 90:1 838:1 971:1 972:1 973:1 
-1 1:1 17:1 22:1 35:1 75:1 429:1 873:1 1156:1 1158:1 1207:1 1208:1 
-1 0:2 1:2 4:1 15:1 22:1 24:1 56:1 70:1 71:1 85:1 191:1 193:1 438:1 440:1 936:1 
-1 15:1 90:1 117:1 316:1 371:1 423:1 424:1 436:1 985:1 1209:1 
-1 1:1 8:1 15:2 130:1 155:1 261:1 429:2 439:1 717:1 722:1 723:1 925:1 1020:2 1021:1 1022:1 
-1 22:1 24:1 42:1 43:2 56:1 64:1 65:1 394:1 686:1 794:1 1101:1 
-1 126:1 528:1 558:1 603:1 
-1 7:1 8:1 46:1 126:1 146:2 445:1 488:1 626:1 974:1 
-1 0:1 3:1 8:1 22:1 24:1 204:2 243:1 296:1 297:1 300:1 301:1 302:1 1210:1 1211:1 1212:1 
-1 3:1 5:1 11:3 37:1 48:1 91:1 165:2 173:4 174:2 357:1 362:1 445:1 446:1 447:1 448:2 449:2 558:1 1213:1 
-1 1:1 4:1 32:1 38:1 40:1 44:1 76:1 90:1 128:1 309:1 578:1 713:1 1196:1 
-1 37:1 88:1 204:1 216:1 297:1 1035:1 1191:1 1206:1 1214:1 
-1 15:1 17:1 35:1 96:1 123:1 332:1 433:1 854:1 1215:1 1216:1 
-1 3:2 8:1 15:1 35:2 123:2 203:1 396:1 405:1 1129:1 
-1 3:1 15:1 29:1 32:2 36:1 37:1 131:1 132:1 135:1 161:1 187:2 188:1 268:1 415:1 909:1 1022:1 1117:1 1228:1 1229:1 
-1 8:1 14:2 15:1 36:1 66:1 75:1 94:1 126:1 192:1 222:1 371:1 373:1 417:1 567:1 1230:1 1231:1 1232:1 1233:1 
-1 14:1 15:1 16:1 35:2 37:1 81:1 479:1 1122:1 1158:1 1234:1 1235:1 1236:1 
-1 1:1 22:1 24:1 30:1 68:1 142:1 204:1 415:1 416:1 417:1 418:1 419:1 420:1 421:1 492:1 
-1 1:1 8:1 15:1 36:1 71:2 190:1 191:1 194:1 204:2 436:1 488:2 594:1 626:1 798:2 801:2 
-1 1:1 22:1 24:1 56:1 64:1 65:1 66:1 75:1 90:1 130:1 140:1 164:2 190:1 223:1 579:1 778:2 859:1 1056:1 1059:1 1068:1 
-1 36:1 68:1 71:1 203:1 363:1 1015:1 1092:1 
-1 4:1 22:1 24:1 35:1 71:1 75:1 110:1 153:1 427:1 1093:1 
-1 22:1 23:1 24:1 30:1 159:1 187:1 188:1 347:1 1243:1 
-1 0:1 1:1 4:1 15:1 35:1 43:1 123:1 314:2 332:1 333:1 335:1 
-1 0:1 1:1 4:1 11:1 43:2 334:1 335:1 394:1 686:1 
-1 0:1 4:1 7:1 13:1 43:1 111:1 134:1 256:1 328:1 592:2 
-1 1:1 8:1 15:1 17:1 36:1 71:3 128:1 213:1 222:1 330:1 381:1 446:1 554:1 1184:1 1246:1 
-1 0:1 3:1 8:1 22:1 24:1 71:1 123:1 204:2 243:1 296:1 297:1 298:1 301:1 302:1 1247:1 
-1 15:1 69:1 105:1 222:2 821:1 828:1 895:1 896:1 897:1 898:1 899:1 1015:1 
-1 1:1 3:1 8:1 15:1 29:1 32:1 37:1 43:1 81:1 187:1 188:1 209:1 211:1 843:1 1248:1 1249:1 1250:1 
-1 8:1 23:1 36:1 75:1 91:1 114:1 116:1 117:1 119:1 121:2 122:1 201:1 423:1 424:1 583:1 591:1 1032:1 1051:1 1052:1 
-1 22:1 30:3 439:1 650:1 651:2 652:1 653:1 
-1 1:1 8:1 257:1 259:1 260:1 397:1 886:1 917:1 1145:1 1252:1 1253:1 1254:1 
-1 15:1 16:1 36:1 37:1 71:1 75:1 81:1 89:1 90:1 92:1 94:1 95:1 127:1 147:1 
-1 0:1 29:1 31:1 36:1 43:1 46:1 48:1 152:2 497:1 528:1 
-1 15:1 16:1 37:1 43:1 81:1 173:1 410:1 439:1 480:1 555:1 561:1 695:1 748:1 924:1 1064:1 
-1 22:1 24:1 32:1 43:1 56:1 57:1 314:1 335:1 340:1 579:1 1001:1 1002:1 
-1 22:1 24:1 42:1 43:1 56:1 64:1 65:1 308:1 580:1 
-1 1:1 5:1 8:1 14:1 15:1 16:1 37:2 71:2 81:1 90:1 111:2 126:1 127:1 134:2 140:1 147:1 191:1 202:1 429:1 721:1 760:1 761:1 
-1 0:1 3:1 8:1 22:1 24:1 71:1 123:1 204:2 243:1 296:1 297:1 299:1 301:1 302:1 1247:1 
-1 0:1 22:1 24:1 47:1 68:2 72:1 140:1 264:1 793:1 1260:1 
-1 15:1 17:1 47:1 80:1 86:1 153:1 782:1 1263:1 1264:1 
-0.8367351281221074 22:1 24:1 43:1 140:1 223:1 308:1 429:2 581:1 722:1 723:1 1222:1 
-1 1:1 8:1 22:1 66:1 140:1 191:1 216:1 760:1 1055:1 1161:1 1223:1 1224:1 1226:1 
-1 8:1 11:1 15:1 17:1 92:1 1265:1 
-1 15:1 17:1 37:1 48:1 75:1 90:1 126:1 1163:1 1175:1 1266:2 1267:1 
-1 1:1 11:1 90:1 105:1 213:1 222:1 481:1 830:1 860:1 861:2 1102:1 1268:1 
-1 3:2 22:1 23:1 28:1 29:1 30:1 32:1 76:1 96:1 185:1 1269:1 1270:1 1271:1 
-1 2:1 7:1 8:1 15:1 17:1 22:1 29:1 36:1 38:1 40:1 44:1 46:1 48:1 76:2 140:1 502:1 592:1 677:1 1115:1 1257:1 
-1 15:2 16:1 36:1 37:1 71:1 89:1 90:1 95:1 96:1 127:1 147:1 173:1 250:1 264:1 425:1 447:1 448:1 449:1 721:1 979:1 1272:1 1273:1 
-1 4:1 35:2 43:1 123:1 124:1 127:1 332:1 854:1 1274:1 
-1 6:1 22:1 23:1 30:1 37:1 91:1 131:1 132:1 135:1 136:1 205:1 250:1 598:1 606:1 1213:1 
-1 0:1 1:1 37:1 38:1 40:1 44:1 123:1 139:1 333:1 1275:1 1276:1 
-1 11:1 15:1 17:1 32:1 42:1 44:1 171:1 211:1 789:1 1277:1 
-1 22:1 56:1 205:1 526:1 1016:1 1085:1 1088:1 1091:1 1278:1 1279:1 1280:1 1281:1 1282:1 
-1 8:1 11:1 15:2 32:1 36:1 37:1 43:1 66:1 250:1 272:1 1224:1 
-1 0:1 1:1 4:1 35:1 42:1 43:1 123:1 314:1 332:1 335:1 481:1 
-1 0:1 1:1 4:1 11:1 43:1 104:1 314:1 343:1 502:1 580:2 664:1 1288:1 
-1 4:1 11:1 32:1 37:1 38:1 40:1 44:1 75:1 253:1 1164:1 1289:2 
-1 37:1 450:1 453:1 583:1 657:1 661:2 670:1 836:1 1044:1 1045:1 1290:1 1291:1 1292:1 1293:1 1294:1 1295:1 1296:1 
-1 1:1 3:1 6:1 8:1 22:1 43:1 44:1 71:3 91:1 165:1 187:2 188:1 330:1 436:1 501:1 661:1 1260:1 
-1 22:1 68:1 213:1 222:1 828:1 1043:1 1085:1 1086:1 1087:1 1088:1 1089:1 
-1 8:1 22:1 37:1 75:1 99:2 102:1 171:1 705:2 1038:1 1102:1 1103:1 
-0.2317199792860064 1:1 8:1 22:1 24:1 54:1 56:1 64:1 65:1 66:1 332:1 588:1 778:1 1055:1 1224:2 1225:1 1226:1 
-1 3:1 15:3 17:1 22:1 24:1 35:1 123:1 128:1 140:2 222:1 312:1 313:1 333:1 343:1 410:1 411:1 412:1 413:1 439:1 716:1 717:1 1192:1 
-1 29:1 31:1 36:1 46:1 48:1 148:1 152:1 190:1 191:1 193:1 194:1 440:1 
-1 68:1 1043:1 1088:1 1090:1 1162:1 1298:1 
-1 0:1 1:1 15:1 16:1 22:1 24:1 37:1 55:1 81:1 90:1 218:1 264:1 382:1 816:1 
-1 15:1 90:1 117:1 316:1 371:1 423:1 424:1 436:1 985:1 1299:1 
-1 1:1 22:1 24:1 36:1 90:1 204:1 488:2 626:1 799:1 804:1 862:1 863:1 864:1 865:1 866:1 1245:1 
-1 1:1 16:1 37:1 81:1 90:1 130:1 177:2 378:1 432:1 554:1 1303:1 1304:1 1305:1 
-1 15:1 22:1 23:2 29:1 30:1 37:1 142:1 152:1 159:1 250:1 444:1 465:2 
-1 22:1 24:1 43:2 290:1 314:1 479:1 587:1 1059:1 1060:1 
-1 1:1 14:2 20:1 21:1 68:1 72:1 203:1 363:1 364:1 1015:1 
-1 0:1 32:1 56:1 70:1 90:1 105:1 106:1 109:1 110:1 220:1 248:1 879:1 
-1 22:1 24:1 56:1 65:1 222:1 225:1 314:1 319:1 343:1 773:1 796:1 1009:1 1010:1 
-1 70:2 222:1 288:1 316:1 
-1 0:1 11:1 23:1 30:1 36:1 37:1 75:1 139:1 142:1 621:1 
-1 1:1 8:1 22:1 24:1 38:1 40:1 42:1 44:1 56:1 64:1 65:1 66:1 75:1 192:1 222:1 223:1 224:1 225:1 226:1 228:1 579:1 
-1 22:1 24:1 46:1 71:2 96:2 128:1 213:1 222:1 297:1 320:1 330:1 381:1 417:1 1184:1 1214:1 1310:1 
-1 1:1 8:1 35:1 47:1 175:1 214:1 222:1 1173:1 1314:1 1315:1 1316:1 1317:1 
-1 22:1 43:1 81:1 123:1 140:1 581:1 717:1 1318:1 1319:1 1320:1 1321:1 
-1 0:1 6:1 22:1 23:1 30:1 36:1 142:1 275:1 636:1 649:1 
-1 3:1 22:1 24:1 36:1 43:1 46:1 48:1 184:1 324:1 417:1 482:1 535:1 722:1 723:1 1130:1 1322:1 
-1 3:3 22:1 30:2 32:1 61:1 76:1 152:1 199:1 256:1 311:1 488:1 785:1 864:1 1228:1 1323:1 1324:1 1325:1 
-1 1:2 3:2 6:1 45:1 76:1 99:1 102:1 131:1 132:1 135:1 414:1 864:1 1117:1 1326:1 1327:1 1328:1 
-1 8:1 15:1 36:1 38:1 40:1 44:1 55:1 75:2 128:1 190:1 203:1 381:1 415:1 497:1 498:1 499:1 
-1 1:1 6:1 8:1 22:1 44:1 71:2 91:1 146:1 148:1 165:1 187:2 188:1 190:1 191:1 194:1 436:1 440:1 591:1 
-1 0:1 3:1 8:1 22:1 24:1 204:2 243:1 296:1 297:1 299:1 301:1 302:1 1210:1 1211:1 1212:1 
-1 1:1 22:1 32:1 37:2 44:1 46:1 48:1 91:1 94:1 204:1 250:1 429:1 621:1 1191:1 1200:1 1330:1 1331:1 1332:1 1333:1 
-1 22:1 24:1 43:2 308:1 581:1 722:1 723:1 1220:1 
-1 3:1 15:1 35:2 37:1 81:1 123:2 493:1 495:1 510:1 
-1 0:1 1:1 11:1 32:1 37:1 43:1 139:1 188:1 211:1 222:1 225:1 622:1 655:1 
-0.2432171403518786 22:1 24:1 43:2 56:1 64:1 65:1 66:1 394:1 686:1 765:1 
-0.1872805203597024 10:1 14:2 15:2 16:1 17:1 18:1 19:1 20:1 21:1 
-1 1:1 3:1 10:1 15:1 17:1 90:1 106:1 231:1 233:1 394:1 755:1 758:1 
-1 14:1 29:1 36:1 37:1 46:2 48:2 55:1 152:2 187:1 188:1 191:1 193:1 194:1 579:1 612:1 
-1 22:1 24:1 43:1 140:1 164:1 581:1 778:1 1222:1 
-1 56:1 68:1 72:1 203:1 1337:2 1338:1 1339:1 
-1 1:1 3:1 15:1 24:1 35:3 39:1 41:1 47:1 258:1 388:1 598:1 1348:1 
-1 1:1 8:1 37:1 66:1 216:1 261:1 324:1 1055:1 1224:2 1226:1 
-1 17:1 30:1 75:1 123:1 381:1 433:1 1349:1 
-1 3:1 4:1 8:1 11:1 94:1 188:1 203:1 222:1 371:1 726:1 782:1 1167:1 1353:1 1354:1 
-0.8729524470621508 10:1 14:1 15:1 17:1 24:1 30:1 33:1 54:1 56:2 57:1 60:1 190:1 204:1 280:1 479:1 579:1 1001:1 1002:1 1355:1 
-1 23:1 30:1 36:1 142:1 253:1 
-1 1:1 10:1 17:1 32:1 35:1 151:1 204:1 392:1 479:1 571:1 573:1 817:1 
-1 3:1 8:1 14:1 15:1 16:1 35:1 37:1 47:1 50:1 81:1 123:1 432:1 680:1 869:1 1247:1 1271:1 1361:1 
-1 1:1 90:1 99:1 101:1 151:1 571:1 992:1 
-1 0:1 1:1 4:1 11:1 32:1 42:1 43:1 222:1 223:1 224:1 225:1 226:1 272:1 474:1 
-1 1:1 14:1 15:1 35:1 36:1 37:1 68:1 72:1 90:2 150:1 203:1 365:1 825:2 826:1 827:1 828:1 
-1 37:1 38:1 40:1 43:2 44:1 104:1 296:2 467:1 1138:1 1140:1 1141:1 1365:2 1366:1 
-1 22:1 24:1 42:1 43:2 56:1 64:1 65:1 394:1 588:1 686:1 1101:1 
-1 3:1 5:1 10:1 15:1 17:1 56:1 70:1 75:1 90:1 106:1 113:1 175:1 233:1 238:1 363:1 732:1 900:1 1025:1 1026:1 1027:1 1028:1 1029:1 
-1 11:1 22:1 23:1 29:1 30:1 37:1 44:1 139:1 
-1 1:1 3:2 14:1 15:1 35:1 36:1 75:1 429:1 562:1 1236:1 1239:1 1240:1 
-1 0:1 1:1 11:1 37:1 42:1 44:1 139:1 188:1 274:1 
-0.2141411335402324 22:1 24:1 29:1 44:1 152:1 165:1 187:2 188:1 190:1 191:1 193:1 437:1 440:1 601:1 602:1 
-1 22:1 24:1 32:1 43:1 56:1 57:1 314:1 335:1 340:1 796:1 1001:1 1002:1 
-1 1:1 22:1 24:1 56:1 64:1 65:1 66:1 75:1 90:1 130:1 140:1 164:2 190:1 223:1 765:1 778:2 859:1 1056:1 1059:1 1068:1 
-1 0:2 1:2 4:1 15:1 22:1 24:1 56:1 70:1 71:1 85:1 191:1 193:1 438:1 594:1 936:1 
-1 5:1 6:1 7:1 8:2 11:1 17:1 47:1 208:1 388:1 496:1 546:1 1115:1 1164:1 1166:1 1370:1 
-1 8:1 15:1 17:1 28:2 30:1 31:2 32:1 37:1 81:1 91:1 96:1 99:1 140:1 152:1 178:1 191:1 268:1 269:1 522:2 525:2 606:1 677:1 815:1 1251:1 
-1 1:1 14:1 17:1 22:1 35:1 75:2 429:1 1122:1 1156:1 1157:1 1158:1 
-1 14:1 37:1 46:1 48:1 152:1 162:1 724:1 911:1 912:1 913:1 915:1 916:1 917:1 918:1 919:1 920:1 921:1 922:1 
-1 3:1 8:1 37:2 90:1 185:1 204:1 216:1 297:1 1096:1 1097:1 1099:1 1100:1 1371:1 
-1 0:1 14:1 68:1 72:1 111:1 203:1 331:1 365:1 1036:1 
-1 22:1 24:1 44:1 56:1 64:1 65:1 336:1 1372:1 
-1 10:1 22:1 56:1 110:1 118:1 121:1 203:1 216:1 363:1 394:1 757:1 879:1 1373:1 1374:1 1375:1 
-1 1:1 3:1 6:1 8:1 22:1 43:1 71:4 330:2 436:1 501:1 661:1 1234:1 
-1 3:1 7:2 22:1 24:1 150:1 256:1 417:1 582:1 1199:1 1237:1 1238:1 1376:1 
-1 1:1 8:1 15:1 36:1 71:2 190:1 191:1 194:1 204:2 436:1 440:1 488:2 626:1 798:2 801:2 
-1 0:1 4:1 11:1 14:1 15:1 24:1 37:1 71:1 88:1 127:1 134:1 146:1 147:1 148:1 258:1 264:1 357:1 382:1 388:1 435:1 844:1 845:1 
-1 22:1 36:1 259:1 260:1 1311:1 1377:1 1378:1 1379:1 
-1 11:2 15:1 16:1 32:2 37:1 164:1 165:1 250:1 359:1 528:1 1196:1 
-1 7:1 15:1 16:1 37:1 71:1 81:1 94:1 127:1 147:1 325:1 326:1 327:1 
-1 11:1 15:1 16:1 22:1 32:1 37:1 75:1 81:1 285:1 368:2 525:1 
-1 1:2 6:1 11:1 17:1 32:1 90:1 96:1 157:1 297:1 360:1 1131:1 1234:1 1310:1 1381:1 
-1 0:1 6:1 22:1 23:1 30:1 36:1 142:1 275:1 636:1 
-1 11:1 22:1 32:1 36:1 37:1 48:1 139:1 142:1 164:1 188:1 211:1 360:1 390:1 444:1 523:1 773:1 1382:1 
-1 15:1 17:1 47:1 80:1 81:1 86:1 153:1 503:1 782:1 1027:1 
-1 0:1 1:1 37:1 123:1 139:1 222:1 225:1 314:1 333:1 1275:1 1276:1 
-1 1:2 11:1 46:1 56:1 70:1 90:1 175:1 222:1 231:1 258:1 315:1 388:1 730:1 755:1 969:1 1109:1 1389:1 1390:1 
-1 1:2 8:1 22:1 66:1 175:1 203:1 216:1 318:2 799:1 1224:2 1253:1 1391:1 1392:1 
-1 0:1 22:1 24:1 47:1 68:2 78:1 140:1 264:1 793:1 1260:1 
-1 1:1 17:1 83:1 96:1 233:1 320:1 727:1 820:1 1053:1 1393:1 
-1 0:1 4:1 7:1 8:1 36:1 46:1 48:1 76:2 551:1 592:1 677:1 1115:1 
-1 0:1 1:1 3:1 4:1 8:1 15:1 75:1 177:1 187:1 192:1 322:1 438:1 445:1 465:1 873:1 
-1 22:2 24:2 153:1 375:2 425:1 478:1 561:1 1397:1 1398:1 
-0.4569266012448938 2:1 3:3 14:1 15:2 85:1 89:1 173:2 231:1 258:1 388:1 425:1 448:1 449:1 1022:1 1323:1 1399:1 1400:1 
-1 1:1 11:1 22:1 56:1 75:1 96:1 216:1 343:1 502:1 985:1 1282:1 1288:1 1401:1 
-1 3:1 8:1 15:4 17:1 35:2 175:2 203:1 222:1 838:1 918:2 
-1 0:2 1:1 22:1 24:1 75:1 90:1 95:1 288:2 318:2 375:1 376:1 377:1 378:1 379:1 380:1 
-1 6:1 15:1 16:1 24:1 37:1 47:1 75:1 146:1 163:1 204:1 250:1 275:1 277:1 325:1 785:1 864:1 1164:1 
-0.6718898275113742 3:1 15:1 17:1 182:1 256:1 461:1 554:1 874:1 1234:1 1411:1 1412:1 
-1 17:1 37:1 81:1 162:2 250:1 404:1 724:1 911:1 916:1 917:1 919:2 1413:2 1414:2 1415:2 
-0.05657822594837041 15:1 16:1 17:1 24:1 29:1 32:1 42:1 43:1 154:1 842:1 1331:1 
-1 0:1 1:1 23:1 30:1 36:1 142:1 275:1 345:1 502:1 1322:1 
-1 3:1 4:1 8:1 11:1 15:1 16:1 36:1 37:1 71:1 81:1 127:1 147:1 190:1 264:1 369:1 374:1 429:2 1418:1 1419:1 
-1 35:1 37:2 175:1 216:1 936:1 1268:1 1420:1 1421:1 1422:1 
-1 15:1 17:1 22:1 23:1 30:1 36:1 46:1 48:1 71:1 96:1 152:1 153:1 429:1 661:1 721:1 
-1 15:1 17:1 35:1 889:1 1424:1 1425:1 1426:1 
-1 1:2 15:2 17:1 85:1 90:1 161:1 343:1 728:2 773:1 1010:1 
-1 1:1 10:1 203:1 251:1 280:1 302:1 343:1 502:1 795:1 1002:1 1288:1 
-0.4827671423923946 22:1 24:1 43:1 56:1 64:1 65:1 225:1 314:1 335:1 394:1 588:1 686:1 
-1 15:1 16:1 37:1 43:1 81:1 173:1 480:1 545:1 555:1 561:1 695:1 748:1 924:1 1063:1 1064:1 
-1 1:2 8:1 35:1 116:1 117:1 119:1 219:1 257:1 742:1 745:1 1159:1 1160:1 
-1 1:1 22:1 24:1 70:1 96:1 393:1 417:1 1430:1 1431:1 1432:1 
-0.4858041777913507 0:1 1:1 4:1 8:1 15:1 17:1 36:1 85:1 148:2 231:1 264:1 382:1 606:1 1263:1 1433:1 
-1 1:1 7:1 8:1 22:1 24:1 36:2 48:1 149:1 204:1 256:1 325:3 375:1 488:1 864:1 1176:1 1329:1 1434:1 
-1 15:1 90:1 117:1 316:1 371:1 423:1 424:1 436:1 985:1 1435:1 
-1 4:1 7:1 22:1 29:1 30:1 157:2 158:1 192:1 204:1 258:1 388:1 993:1 
-1 2:1 11:1 15:1 17:1 36:1 75:1 89:1 90:1 92:1 94:1 95:1 
-1 0:1 1:1 15:1 16:1 22:1 24:1 37:1 55:1 81:1 90:1 182:1 218:1 461:1 
-1 22:1 43:1 81:1 123:1 140:1 581:1 717:1 1319:1 1320:1 1321:1 1437:1 
-1 0:1 22:1 23:1 30:1 36:1 142:1 275:1 285:1 287:1 1429:1 
-1 0:1 3:1 8:1 22:1 24:1 204:2 243:1 296:1 297:1 298:1 301:1 302:1 1140:1 1141:1 
-1 1:1 8:1 22:1 66:1 216:1 1041:1 1055:2 1224:1 1226:1 1438:1 1439:1 
-1 22:1 24:1 29:1 148:1 152:1 190:1 191:1 193:1 437:1 579:1 601:1 602:1 
-1 1:1 2:1 6:1 7:1 15:1 17:1 81:1 90:1 378:2 1115:1 
-1 1:1 14:2 20:1 21:1 68:1 78:1 203:1 363:1 364:1 365:1 
-1 8:1 15:1 36:1 75:1 259:1 260:1 354:1 355:1 917:1 1143:1 1144:1 1145:1 1146:1 
-1 22:1 24:1 29:1 154:1 191:1 193:1 439:1 555:1 560:1 941:1 943:1 1094:1 
-1 22:1 24:1 43:1 140:1 164:1 581:1 778:1 925:1 1222:1 1440:1 
-1 1:1 8:1 35:1 47:1 175:1 222:1 1173:2 1314:1 1316:1 1317:1 1441:1 
-1 0:1 22:1 23:1 30:1 36:1 142:1 275:1 285:1 287:1 984:1 1297:1 1428:1 
-1 1:1 37:1 175:1 213:1 745:1 1169:1 1302:1 1308:1 1309:1 1443:1 
-1 1:1 8:1 257:1 259:1 260:1 397:1 886:1 917:1 1145:1 1253:1 1254:1 1362:1 
-1 1:2 2:1 4:1 8:1 11:1 37:1 75:1 90:1 146:1 148:1 231:2 381:1 383:1 
-1 1:1 3:1 14:1 15:1 35:1 36:1 75:1 104:1 1236:1 1240:1 1242:1 
-1 1:1 8:1 35:1 222:1 238:1 376:1 1078:1 1168:1 1169:1 1171:1 1172:1 1173:1 
-1 1:1 22:1 24:1 36:1 90:1 204:1 488:2 626:1 777:1 799:1 802:1 803:1 804:1 862:1 864:1 865:1 
-1 14:1 15:1 35:3 37:1 39:1 46:1 48:1 258:1 283:1 388:1 535:1 1201:1 1202:2 1450:1 
-1 1:2 3:2 7:1 8:1 14:1 22:1 24:1 48:1 204:2 256:1 325:3 375:1 438:1 488:1 864:1 866:1 1175:1 1176:1 1177:1 1329:1 
-1 14:1 33:1 34:1 37:1 257:1 266:1 321:1 323:1 927:1 
-1 1:1 11:4 15:1 22:1 26:1 31:1 32:1 96:1 125:1 130:1 140:1 164:3 165:1 166:1 167:1 168:1 169:1 172:1 
-1 22:1 24:1 37:1 43:1 56:2 57:1 61:1 65:1 279:1 280:1 281:1 1451:1 
-0.1659269743605951 3:1 15:3 17:1 22:1 24:1 35:1 123:1 128:1 140:2 222:1 227:1 312:1 313:1 333:1 343:1 410:1 411:1 412:1 413:1 439:1 716:1 717:1 
-1 22:1 24:1 44:1 56:1 64:1 65:1 336:1 1451:1 
-1 1:1 8:1 22:1 24:1 54:1 56:1 64:1 65:1 66:1 332:1 658:1 778:1 1055:1 1224:2 1225:1 1226:1 
-1 0:1 3:1 4:1 7:1 13:1 15:2 71:1 127:1 147:1 212:1 264:1 325:1 326:1 328:1 369:1 382:1 
-1 15:1 46:1 56:1 203:2 620:1 624:1 625:1 860:1 861:1 1109:2 1339:1 1452:1 
-1 15:1 17:1 47:1 80:1 81:1 86:1 153:1 782:1 807:1 1027:1 
-1 17:1 30:1 75:1 123:1 433:1 1163:1 1349:1 
-1 15:1 16:1 37:1 81:1 110:1 321:1 323:1 1351:1 1352:1 
-1 70:2 104:1 147:1 220:1 586:1 815:1 902:1 1102:1 1462:1 1463:1 1464:1 
-1 3:1 73:1 90:1 116:1 175:1 285:1 287:1 288:1 372:1 1089:1 1284:1 1285:1 1286:1 1287:1 
-1 0:1 1:1 4:1 35:1 43:1 123:1 314:2 332:1 335:1 481:1 
-1 4:1 11:1 32:1 36:1 42:1 43:1 46:1 48:1 152:1 222:2 225:2 272:1 313:1 314:1 343:1 409:1 
-1 1:2 3:1 11:1 14:1 29:1 32:1 37:1 71:1 90:2 96:1 127:1 147:1 188:1 209:1 211:1 216:1 429:1 1250:1 
-0.8458415327332661 4:1 35:1 38:1 40:1 43:1 44:1 123:1 332:1 334:1 335:1 854:1 
-1 1:1 175:1 203:1 284:1 394:1 1109:1 1339:1 1473:1 
-1 14:1 15:1 16:1 36:1 37:2 71:1 89:1 90:1 92:1 94:1 95:1 127:1 147:1 250:1 387:1 388:1 
-0.5173712199460618 1:1 3:1 17:1 90:1 106:1 222:1 732:1 820:2 970:1 1102:1 1478:1 1479:1 1480:1 
-1 1:1 22:1 24:1 68:2 90:1 161:1 216:1 222:2 1043:1 1086:1 1088:1 1298:2 1356:1 
-1 1:1 8:1 15:1 90:1 155:1 200:1 261:1 429:2 653:1 717:1 722:1 723:1 925:1 1020:2 1021:1 1022:1 
-1 29:1 30:1 36:2 46:2 48:2 59:1 62:1 152:2 187:1 322:1 465:1 
-1 1:1 3:1 4:1 17:1 55:1 90:1 190:1 793:1 1492:1 1493:1 
-1 3:1 8:1 15:1 19:1 33:1 37:1 70:3 91:1 203:1 725:1 876:1 1053:1 1311:1 1494:1 1495:1 1496:1 
-1 0:1 7:4 22:1 24:1 46:1 126:1 592:1 677:1 824:1 1238:1 1498:1 1499:1 
-1 8:1 11:2 15:1 17:2 22:1 28:2 32:1 47:1 80:1 84:1 86:1 91:1 317:1 522:1 604:1 677:1 993:1 
-1 35:1 37:1 43:1 123:1 139:1 140:2 410:1 581:1 717:1 1257:1 1319:1 1500:1 1501:1 
-1 1:2 8:1 22:1 24:2 46:1 56:1 64:1 65:1 66:3 75:2 88:1 126:1 140:1 223:1 308:1 778:2 859:1 1055:1 1224:2 1225:1 1226:1 1257:1 
-1 1:1 33:1 34:1 35:1 36:1 45:1 222:1 225:1 314:1 677:1 847:1 1275:2 1276:2 
-1 4:1 8:1 22:1 35:1 39:1 43:1 274:1 581:1 1503:2 1504:1 1505:1 1506:1 
-1 3:2 15:1 35:1 38:1 40:1 44:1 96:1 104:1 139:1 850:1 1122:1 1271:1 1340:1 1508:1 1509:1 
-1 0:1 22:1 23:1 30:1 36:1 142:1 275:1 285:1 287:1 984:1 1428:1 1429:1 
-1 3:1 15:1 16:1 37:1 38:1 40:1 43:3 44:1 47:2 81:1 296:2 334:1 335:1 417:1 467:1 493:2 555:1 772:1 1125:1 1136:2 1137:1 1138:1 1140:1 1141:1 1142:1 1510:1 
-1 1:1 3:2 14:1 15:1 35:1 36:1 75:1 1236:1 1240:1 1511:1 
-1 1:1 22:1 24:1 36:1 90:1 149:1 204:1 488:2 626:1 799:1 803:1 804:1 862:1 864:1 865:1 1245:1 
-1 1:1 8:1 257:1 259:1 260:1 397:1 886:1 917:1 1145:1 1252:1 1253:1 1363:1 
-1 1:1 8:1 36:1 37:1 66:1 123:1 216:1 324:1 854:1 1055:1 1224:2 1226:1 
-1 14:1 33:1 34:1 37:1 321:1 323:1 917:1 927:1 
-1 0:1 1:1 4:1 11:1 56:1 75:1 343:1 388:1 490:1 502:1 1288:1 1512:1 1513:1 
-1 1:1 8:1 35:1 222:1 774:1 1078:1 1168:1 1169:1 1170:1 1171:1 1172:1 1173:1 
-1 1:1 11:1 15:1 22:1 26:1 28:1 32:1 36:1 37:1 75:1 76:2 90:1 216:1 258:1 359:1 381:1 415:1 431:1 909:1 1514:1 1515:1 
-1 2:1 8:1 14:1 15:2 17:1 37:1 85:1 89:1 90:1 92:1 95:1 111:1 134:1 176:1 231:1 258:1 388:1 425:1 444:1 1396:1 
-1 1:3 3:1 11:1 14:1 22:1 29:1 32:1 85:1 90:1 91:1 96:1 188:1 209:1 211:1 216:1 429:1 1250:1 
-1 1:1 3:2 5:1 6:1 11:2 15:2 75:1 85:1 90:1 94:1 187:1 188:1 378:1 546:1 1517:1 1518:1 
-0.5870451596789522 6:1 7:3 15:1 17:1 100:1 203:1 275:1 427:1 453:1 1115:1 1199:1 1238:2 1306:2 1482:1 
-1 15:1 30:2 36:1 37:1 55:1 75:1 250:1 677:1 805:1 1275:1 1276:2 
-1 17:1 43:1 45:1 269:1 439:1 440:1 580:1 593:1 596:2 664:1 665:2 968:1 1465:1 
-1 3:1 8:1 15:1 16:1 22:1 24:1 30:1 33:1 37:1 38:1 40:1 44:1 60:1 76:1 128:1 250:1 578:1 
-1 1:2 8:1 22:1 24:2 46:1 56:1 64:1 65:1 66:3 75:2 88:1 126:1 140:1 223:1 778:2 859:1 976:1 1055:1 1224:2 1225:2 1226:1 
-1 1:1 33:1 34:1 35:1 36:1 43:1 45:1 334:1 335:1 677:1 847:1 1275:2 1276:2 
-1 3:2 5:1 10:1 15:2 22:1 43:1 47:1 211:1 269:1 394:1 425:1 585:1 630:1 686:1 825:1 
-0.7682800207139936 1:1 8:1 22:1 24:1 54:1 56:1 64:1 65:1 66:1 332:1 778:1 976:1 1055:1 1224:2 1225:1 1226:1 
-1 22:1 24:1 43:1 56:1 319:1 394:1 588:1 686:1 773:1 1001:1 1002:1 1009:1 1010:1 
-1 0:1 2:1 4:1 7:1 264:1 325:1 326:1 327:1 328:1 382:1 1263:1 
-1 3:3 11:1 15:1 36:1 75:1 96:1 114:1 139:1 204:1 211:1 343:1 382:1 415:1 479:1 502:1 554:1 661:1 728:2 773:1 1010:1 1124:1 1323:1 1421:1 1528:1 1529:1 1530:1 
-1 0:1 1:1 37:1 43:1 123:1 139:1 333:1 334:1 335:1 1275:1 1276:1 
-1 5:1 33:1 34:1 36:1 321:1 323:1 1221:1 
-1 1:1 3:1 5:1 15:2 35:2 47:1 90:1 96:1 166:1 332:1 404:1 453:1 1395:1 1533:1 1534:1 1535:1 1536:1 1537:1 1538:1 1539:1 1540:1 1541:1 
-1 3:1 73:1 90:1 116:1 175:1 285:1 287:1 288:1 372:1 1089:1 1284:1 1285:1 1286:1 1287:1 
-1 8:1 38:1 40:1 44:1 46:1 126:1 303:1 323:1 734:1 1043:1 1093:1 1546:1 1547:1 
-1 7:1 8:1 15:1 36:1 37:1 38:1 40:1 44:1 46:1 48:1 76:1 250:1 592:1 677:1 1115:1 1548:1 
-1 0:1 1:1 4:1 35:1 38:1 40:1 43:1 44:1 123:1 332:1 334:1 335:1 854:1 
-1 0:2 3:2 23:1 90:1 104:1 139:1 156:1 222:1 240:1 373:1 490:1 567:1 738:1 1249:1 1323:1 1378:1 1554:1 1555:1 1556:1 1557:1 
-1 4:1 68:1 459:1 460:2 1356:1 1402:2 1403:1 1404:1 1405:1 
-0.6379001335329879 0:1 4:1 42:1 43:2 46:1 138:1 191:1 223:1 314:1 417:2 473:1 474:1 596:1 665:1 772:1 968:1 1101:1 1564:1 
-1 1:2 90:1 130:1 177:1 190:1 378:1 381:1 415:2 432:1 442:1 443:1 909:2 
-1 3:1 10:2 15:1 22:1 24:1 27:1 90:1 394:1 790:1 1407:1 1408:1 1565:1 
-1 0:1 22:1 24:1 56:1 85:1 879:1 1337:1 1566:1 
-1 1:1 22:1 24:1 68:2 90:1 161:1 216:1 1086:1 1088:1 1090:1 1162:2 1356:1 
-1 1:1 15:1 16:1 24:1 35:1 37:1 45:1 47:1 96:1 250:1 417:1 1121:2 1122:1 1125:1 1567:2 1568:1 1569:1 
-1 0:1 11:1 23:1 30:1 36:1 37:1 43:2 139:1 142:1 314:2 335:1 580:1 
-1 1:2 8:1 11:1 37:1 45:1 71:2 127:1 146:1 147:1 148:1 216:1 264:1 330:1 331:2 382:1 1570:1 
-1 1:1 3:1 16:1 33:1 35:1 37:1 90:1 164:1 250:1 343:1 436:1 437:1 680:1 847:1 848:1 849:1 1023:1 1417:1 1572:1 
-0.3785355338062454 1:1 3:1 17:1 90:1 96:1 153:1 256:1 268:1 429:1 431:1 434:1 874:1 1423:1 
-1 233:1 820:1 1026:1 1087:1 1427:1 
-1 29:1 36:1 46:1 48:1 55:1 152:1 187:1 188:1 191:1 193:1 437:1 579:1 
-1 11:1 15:1 17:1 32:1 37:1 44:1 75:1 253:1 1164:1 1289:2 
-1 1:1 33:1 34:1 35:1 36:1 42:1 45:1 222:1 225:1 677:1 847:1 1275:2 1276:2 
-1 0:1 1:1 4:1 35:1 43:1 123:1 314:1 332:1 335:1 481:1 581:1 
-1 22:1 24:2 56:1 68:1 71:1 88:1 110:1 111:1 387:1 388:1 1575:1 
-1 24:1 37:1 83:1 820:1 1144:1 1154:1 1178:1 1576:1 1577:1 
-1 22:1 24:1 43:1 140:1 164:1 581:1 778:1 925:1 1222:1 1578:1 
-1 15:1 37:1 164:1 250:1 302:1 382:1 786:1 1384:1 1385:1 1387:1 1579:1 1580:1 1581:1 
-1 0:1 22:1 23:1 30:1 36:1 142:1 275:1 285:1 287:1 1297:1 
-1 0:1 1:1 4:1 11:1 43:1 394:1 686:1 784:1 
-1 0:1 1:1 4:1 8:1 15:1 36:1 85:1 148:2 231:1 574:1 606:1 1433:1 
-1 14:1 15:1 16:1 36:1 37:2 85:1 89:1 90:1 92:1 94:1 95:1 250:1 387:1 388:1 
-1 0:1 1:1 14:1 24:1 32:1 37:1 75:1 88:1 90:1 93:1 100:1 177:1 216:1 442:1 447:1 601:1 1481:1 
