svm_type c_svc
kernel_type rbf
gamma 0.03125
nr_class 2
total_sv 1210
rho 0.985614
label 1 -1
nr_sv 605 605
SV
0.5 21:1 22:1 40:2 525:1 655:1 656:1 
0.5 2:1 16:2 35:2 55:1 197:1 375:1 655:1 667:1 
0.5 2:2 21:1 92:1 165:1 263:2 264:1 359:1 613:2 844:1 
0.5 1:1 10:1 14:2 34:1 81:2 85:1 86:1 91:1 92:1 153:2 383:2 404:1 405:1 654:1 
0.3469171621954945 0:1 21:1 28:1 34:1 128:1 245:1 
0.5 1:1 14:1 15:1 30:2 35:2 56:1 73:2 78:1 81:2 86:1 223:2 
0.5 1:1 31:1 32:1 33:2 34:1 39:1 40:1 42:1 526:1 1161:1 1162:1 
0.5 4:1 14:1 34:1 43:2 45:1 52:1 136:1 152:1 478:1 
0.5 1:1 14:1 15:1 30:1 35:2 68:1 78:1 86:1 90:1 92:1 116:2 167:1 184:1 234:1 349:1 715:1 
0.5 0:1 1:1 2:1 14:1 22:1 33:2 35:2 44:1 78:1 373:2 613:2 795:1 
0.5 21:1 22:1 137:1 535:2 537:1 538:1 
0.5 0:1 21:1 22:1 40:1 117:1 197:1 198:1 199:1 279:1 333:2 538:1 
0.5 5:1 21:1 22:1 30:1 44:1 72:1 240:1 401:1 602:1 
0.5 1:1 5:2 7:1 35:2 40:1 68:3 294:1 392:1 
0.5 0:1 1:1 3:2 10:1 24:1 30:2 34:1 146:1 223:2 253:2 408:1 474:1 477:1 
0.5 3:2 5:1 7:1 28:1 31:1 34:1 35:2 37:1 40:1 41:1 73:2 126:1 141:1 170:1 243:2 
0.1819957426414714 0:1 2:1 21:2 22:2 30:1 59:1 128:1 136:1 141:1 375:1 421:1 
0.5 1:1 7:1 21:1 37:1 39:1 41:1 53:2 61:1 63:2 64:1 72:1 169:1 194:1 197:1 198:1 199:1 
0.5 21:1 22:1 27:1 138:1 535:2 
0.5 2:1 6:2 21:1 22:1 226:1 375:1 526:1 647:1 1126:1 
0.5 31:1 32:1 34:1 43:2 86:1 92:1 115:2 229:1 230:1 251:1 270:1 
0.5 1:1 21:1 22:1 65:2 86:1 142:1 189:1 197:2 990:1 992:1 1182:2 
0.5 21:1 22:1 30:1 40:1 53:2 54:1 61:1 279:1 304:1 531:1 1476:1 
0.5 0:1 1:1 6:1 35:2 73:2 126:1 246:1 290:1 480:1 
0.5 21:1 41:1 53:2 61:1 63:2 275:1 
0.4249395022802703 1:1 5:1 14:1 35:2 44:1 81:2 130:1 141:1 158:1 397:1 
0.5 2:1 14:3 16:2 21:1 22:1 33:2 36:1 114:1 117:1 197:1 278:1 297:1 307:1 370:1 371:1 
0.5 7:1 20:1 34:1 53:2 65:1 68:1 104:1 165:1 178:1 329:1 
0.5 1:1 4:2 21:1 35:2 56:1 59:2 68:2 86:1 128:1 136:1 141:1 161:1 176:1 220:1 245:1 345:1 400:1 477:1 
0.5 0:1 3:2 10:1 28:1 34:1 39:1 41:1 128:1 140:1 141:1 172:1 175:1 
0.5 1:1 21:1 22:1 34:1 86:1 179:1 442:2 565:1 727:1 732:1 790:1 791:1 
0.5 7:1 14:1 15:1 21:1 35:2 68:1 95:1 116:2 162:1 220:1 245:1 638:1 
0.5 1:1 14:1 15:1 35:2 68:1 78:1 81:2 86:1 157:1 
0.5 7:1 28:1 34:1 40:2 72:1 128:1 129:1 141:1 279:1 375:1 526:1 778:2 
0.5 0:1 9:1 21:1 22:1 24:1 30:1 72:1 87:1 90:1 95:1 135:2 178:1 764:1 795:1 903:2 
0.5 2:1 16:2 40:1 43:2 86:1 92:1 159:1 281:2 284:1 548:2 
0.5 0:1 1:1 3:2 36:1 197:1 199:1 279:1 297:1 1161:1 1162:1 
0.5 21:1 22:1 383:2 535:2 537:1 
0.5 21:1 22:1 43:2 68:2 92:2 117:1 187:1 197:1 264:1 284:1 342:1 375:1 
0.5 0:1 10:1 28:1 34:1 35:2 72:2 126:1 128:1 538:1 709:1 
0.5 21:1 22:1 35:2 40:1 47:1 67:1 86:1 100:1 110:2 
0.5 2:1 9:1 14:1 16:2 53:2 67:1 72:1 86:1 98:1 155:1 204:1 209:1 327:1 665:1 932:1 
0.5 1:1 14:1 35:2 72:1 86:1 108:1 137:1 209:1 220:1 381:2 382:1 383:2 
0.5 0:1 1:1 2:1 6:2 8:1 14:2 21:1 22:1 96:2 245:2 342:1 343:2 1017:2 1094:2 1126:1 1189:1 
0.5 21:1 24:1 30:1 35:2 331:1 
0.5 21:1 27:1 28:2 34:1 128:1 129:1 141:1 154:1 226:2 588:1 
0.5 0:1 1:1 7:1 10:1 13:2 14:1 16:2 35:2 44:1 90:1 166:2 167:1 228:1 349:1 
0.5 14:2 15:1 21:1 33:2 34:1 35:2 37:1 40:1 41:2 68:1 72:1 78:1 86:1 116:2 160:1 166:2 167:1 170:1 202:1 245:1 276:1 342:1 879:1 
0.5 2:1 14:1 16:2 43:2 67:1 69:1 178:1 281:2 400:1 796:1 
0.5 31:1 32:1 34:1 42:1 43:2 72:1 229:1 230:1 235:2 251:1 284:1 490:1 655:1 
0.5 1:1 14:1 86:1 157:1 162:1 226:1 234:1 343:2 417:1 798:1 
0.5 1:1 5:2 14:2 30:1 33:2 40:1 72:1 81:2 239:1 321:1 323:2 325:1 397:1 636:1 
0.5 10:2 14:1 15:1 30:2 35:2 37:1 40:1 41:1 78:1 146:1 239:1 323:2 
0.5 0:1 30:1 53:2 67:1 86:1 103:2 
0.5 6:1 7:1 43:2 115:1 130:1 401:1 442:2 565:2 
0.5 7:1 34:1 72:1 87:1 108:1 110:1 112:2 176:1 381:2 382:1 527:1 
0.5 15:1 21:1 33:2 35:2 72:1 78:1 86:1 100:1 1024:1 
0.5 0:1 1:1 10:1 14:1 22:1 34:1 35:2 40:1 64:1 72:1 126:1 264:1 355:1 618:1 963:2 
0.5 34:1 43:2 44:2 45:1 52:1 72:1 77:2 79:2 80:1 82:2 83:2 136:1 
0.5 1:1 5:1 10:1 13:2 30:1 35:2 45:1 49:1 72:1 78:1 86:1 158:1 312:1 397:1 406:1 601:1 602:1 
0.5 204:1 748:1 932:1 
0.5 2:1 14:1 15:1 18:1 35:2 43:2 72:2 78:1 86:1 87:1 131:2 228:1 289:1 408:1 413:2 
0.5 1:1 7:1 14:1 34:1 68:2 170:1 179:2 392:1 394:1 442:2 565:1 729:2 
0.5 7:1 21:2 72:1 95:2 98:1 638:2 945:1 
0.5 5:1 7:1 13:2 21:1 22:1 35:2 45:1 49:1 72:1 93:2 312:1 601:1 602:1 
0.5 2:1 3:2 7:1 10:1 14:2 15:1 34:1 35:2 68:1 78:1 81:2 116:2 234:1 386:2 
0.5 35:2 45:1 480:1 504:1 
0.5 10:1 14:1 34:1 35:2 40:1 78:1 86:1 158:1 325:1 373:2 703:2 827:1 917:1 
0.5 0:1 1:1 3:2 7:1 10:2 14:1 35:2 47:1 72:1 78:1 92:1 330:1 354:1 551:1 
0.5 0:1 21:1 22:1 44:1 65:2 68:1 234:1 725:1 
0.5 14:1 86:1 108:1 281:2 333:2 381:2 382:1 392:1 896:1 
0.5 1:1 21:1 42:1 43:2 137:2 284:1 539:1 647:1 876:2 877:2 
0.4712736111767351 1:1 6:1 130:1 401:1 442:1 565:1 
0.5 14:1 15:1 27:2 30:1 35:2 40:2 78:1 172:1 197:1 392:1 481:2 701:1 873:2 
0.5 2:1 21:1 22:1 28:1 30:1 136:1 141:1 146:1 375:1 715:1 1459:1 
0.5 7:1 10:3 14:1 21:1 22:1 30:1 35:2 52:1 78:1 146:3 551:1 
0.5 1:1 16:2 33:2 72:1 86:1 189:1 229:2 349:1 
0.5 2:1 72:1 86:1 143:2 413:2 431:1 442:1 
0.5 1:1 9:1 21:1 53:2 65:1 68:1 104:1 178:1 189:1 296:1 329:1 665:1 
0.5 0:1 1:1 2:1 7:1 14:1 33:2 86:1 197:1 
0.5 0:1 1:1 7:1 14:1 21:1 22:1 33:2 47:1 55:1 178:1 227:2 231:2 236:1 251:1 581:2 588:1 853:2 1901:2 
0.5 0:1 1:1 3:2 14:1 33:2 36:1 40:1 279:1 296:1 297:1 298:1 299:2 
0.5 1:1 21:1 22:1 92:1 333:2 354:1 375:1 
0.5 1:1 7:1 10:2 14:1 16:2 22:1 26:1 30:2 35:2 44:1 78:1 158:1 169:1 179:1 239:1 240:1 356:1 474:1 
0.5 86:1 613:2 655:1 656:1 
0.5 15:1 35:2 78:1 165:1 179:1 264:1 
0.5 7:1 10:1 15:1 26:1 30:2 35:2 40:1 78:1 86:1 93:2 146:1 162:1 178:1 223:2 239:1 304:1 325:1 
0.5 2:1 86:1 155:1 253:2 255:1 334:1 
0.5 6:1 7:1 21:1 22:1 25:1 34:1 43:2 45:1 73:2 421:1 534:1 609:1 1017:1 
0.5 6:1 14:2 16:2 21:1 34:1 35:2 68:1 86:1 116:2 128:1 130:1 131:1 202:1 1017:1 
0.5 14:1 36:1 115:1 178:1 179:1 269:1 450:1 463:2 613:2 1298:2 1872:2 
0.5 14:1 15:1 21:1 27:1 28:1 35:2 78:1 81:2 104:1 121:1 
0.5 1:1 5:1 7:1 21:1 40:1 41:1 68:3 87:1 145:1 166:2 167:1 294:1 392:1 
0.5 0:1 1:1 3:2 5:1 6:1 14:1 34:1 72:1 73:2 130:1 292:1 397:1 408:1 
0.5 2:1 7:1 9:1 13:2 14:1 22:1 28:1 31:1 35:2 51:1 53:2 54:1 57:1 63:2 179:1 220:1 249:1 275:1 
0.5 1:2 9:1 86:1 197:1 202:1 
0.5 0:1 1:2 86:1 108:1 251:1 286:1 381:2 382:1 
0.5 14:1 34:1 35:2 41:1 52:2 72:2 78:1 86:1 117:1 342:1 373:2 452:1 
0.5 2:1 21:1 22:1 28:1 30:1 223:2 375:1 1459:1 
0.5 2:1 5:3 7:1 14:1 15:1 30:1 35:2 40:1 43:2 68:1 78:1 116:2 146:1 239:1 304:1 321:1 323:2 325:1 326:1 
0.5 7:3 95:2 178:1 336:1 1011:1 1012:2 
0.5 1:1 16:2 86:1 119:1 189:1 251:1 390:1 518:1 
0.5 34:1 65:1 69:1 86:1 178:1 329:1 537:1 598:1 671:1 
0.5 1:2 7:1 18:2 21:1 22:1 43:2 53:2 61:1 63:2 64:3 72:2 84:1 114:1 115:1 172:1 396:1 709:2 722:1 963:2 1115:1 
0.5 14:1 66:1 197:2 329:1 749:1 755:1 
0.5 0:2 1:2 2:1 3:2 7:1 10:1 13:2 35:2 44:1 86:1 90:1 166:2 167:1 326:1 
0.5 3:2 7:1 15:1 35:2 44:1 52:1 72:1 115:1 162:1 215:1 220:1 254:1 
0.5 1:1 10:1 14:2 21:1 22:1 28:1 58:1 74:2 136:1 179:1 375:1 446:1 526:2 
0.5 28:1 34:1 41:1 145:1 166:1 1459:1 
0.5 1:1 14:2 15:1 16:2 21:1 22:1 27:1 29:1 35:2 52:1 78:1 86:1 157:1 226:1 234:1 343:2 798:1 
0.5 0:1 14:1 33:2 35:2 36:1 178:1 179:2 264:1 268:1 269:1 1135:2 
0.5 1:1 14:1 35:2 68:1 116:2 130:1 131:2 170:1 234:1 343:2 
0.5 1:2 21:1 22:1 43:2 53:2 54:1 64:3 72:1 86:1 92:2 115:1 279:1 581:2 1476:1 1509:2 
0.5 1:1 13:2 20:1 65:1 69:1 178:1 327:1 329:1 
0.3520007801790302 0:1 21:1 22:1 28:1 34:1 35:2 72:1 78:1 87:1 104:1 119:1 120:1 121:1 122:1 128:1 141:1 539:2 
0.5 2:1 14:1 16:2 22:1 33:2 44:1 47:1 172:1 209:1 307:1 394:1 
0.5 0:1 1:1 2:1 3:2 7:1 13:2 14:4 33:2 36:2 39:1 87:1 117:2 278:1 279:1 297:2 369:1 370:2 394:2 
0.5 0:2 1:1 3:2 21:1 22:2 53:2 55:1 63:2 65:1 68:1 72:1 81:2 394:1 395:1 396:1 397:1 
0.5 5:1 10:1 14:1 34:1 35:2 72:1 86:1 90:1 158:1 166:2 167:1 220:1 950:1 
0.5 21:1 22:1 40:2 257:1 525:1 532:1 
0.5 2:1 14:1 28:1 34:1 52:1 72:1 95:1 100:1 245:1 321:1 331:1 390:1 613:2 1298:1 
0.5 1:1 2:1 7:1 35:2 72:1 157:1 158:1 166:1 169:1 286:1 397:2 421:1 797:1 
0.5 2:1 35:2 40:1 42:1 51:1 220:1 240:2 524:1 537:2 598:1 599:2 
0.5 1:1 4:2 21:1 35:2 59:1 68:1 72:1 104:1 121:1 129:1 136:1 141:1 176:1 220:1 287:1 345:1 383:2 477:1 
0.5 0:1 14:1 21:1 22:1 36:1 297:1 394:1 613:2 1298:1 
0.5 40:1 43:2 115:1 270:1 284:1 285:1 286:1 287:1 288:1 289:1 
0.5 33:4 36:4 43:2 114:1 115:1 116:2 117:1 
0.5 21:1 22:1 28:2 146:1 
0.5 0:2 1:1 3:2 7:1 10:3 13:2 14:1 28:1 35:2 40:1 44:1 84:1 104:1 121:1 140:1 330:2 
0.5 1:1 21:1 37:1 39:1 41:1 53:2 61:1 63:2 64:1 72:1 86:1 169:1 194:1 197:1 199:1 
0.5 33:2 36:1 49:1 115:1 
0.5 0:1 1:1 2:1 10:1 35:2 45:1 126:1 145:1 172:1 185:1 475:1 480:1 
0.5 1:1 10:1 21:1 53:2 72:1 92:1 189:1 307:1 456:1 896:1 
0.5 59:3 172:1 175:1 446:1 
0.5 21:1 40:1 53:2 62:1 63:2 221:1 355:1 618:1 703:2 917:1 
0.5 15:1 35:2 41:2 44:1 78:1 85:1 86:1 90:2 91:1 147:1 234:1 692:1 705:1 
0.2198144035352423 0:1 1:1 14:1 15:1 35:2 68:1 72:2 78:1 85:1 86:1 91:1 142:1 359:1 386:1 
0.16788764992826 35:2 52:1 86:1 115:1 220:1 1071:1 
0.5 34:1 43:2 44:1 45:1 77:1 82:1 136:1 137:1 349:1 713:2 
0.5 1:2 7:1 14:1 21:1 22:1 35:2 68:1 72:1 86:1 116:2 130:1 131:1 189:1 202:2 234:1 342:1 343:2 
0.5 31:1 32:1 34:1 227:1 236:1 285:1 288:1 844:1 
0.5 2:1 14:1 33:2 35:2 36:2 78:1 1031:1 
0.5 0:1 3:2 6:1 14:1 90:1 142:1 169:1 179:1 290:1 291:1 292:1 293:2 
0.5 0:1 1:1 3:2 14:1 33:2 36:1 39:1 40:2 296:1 297:1 298:1 299:1 
0.5 10:3 14:1 26:1 30:1 52:1 72:1 92:1 145:2 146:2 147:1 152:1 172:1 239:1 896:1 
0.5 0:1 2:1 7:1 21:1 179:1 263:3 264:1 265:1 268:1 269:1 613:2 
0.5 0:1 13:2 14:1 16:2 22:1 35:2 81:2 84:1 85:1 86:1 87:1 88:1 90:1 91:1 
0.09359832993388316 10:1 14:1 15:1 30:1 35:2 72:1 78:1 239:1 
0.5 0:2 3:2 35:2 37:1 40:1 41:1 44:1 77:1 80:1 82:1 126:1 451:2 
0.5 0:1 1:1 3:2 14:1 28:1 30:1 73:2 136:1 146:1 166:2 239:1 400:1 
0.5 0:1 2:2 4:1 5:1 14:2 15:1 35:2 40:1 68:1 78:1 86:1 321:1 325:1 403:2 636:1 
0.5 1:1 14:1 15:1 35:2 78:1 86:1 157:1 162:2 253:2 254:1 372:1 373:2 417:1 827:1 
0.5 16:2 37:1 41:1 257:1 275:1 403:2 537:1 581:2 598:1 
0.5 14:1 157:1 162:1 226:1 334:1 399:1 417:1 798:1 
0.5 16:2 22:1 86:1 104:1 327:1 499:1 
0.1007450604491214 21:1 22:1 138:1 394:1 
0.5 1:1 2:1 16:2 20:1 33:2 287:1 329:1 725:1 961:2 
0.5 5:1 10:1 14:1 15:1 21:1 35:2 37:1 41:1 73:2 78:1 114:1 117:1 145:1 146:1 523:2 
0.5 0:2 1:2 2:1 3:2 7:1 13:2 35:2 44:1 86:1 166:2 167:1 326:1 386:1 397:1 
0.5 204:1 355:1 748:1 
0.06595259084021714 0:1 7:1 14:1 21:1 22:1 35:3 45:1 68:1 103:2 126:1 159:1 234:1 
0.5 1:1 2:1 7:1 14:2 18:1 21:1 27:1 44:1 72:1 137:1 234:1 307:1 590:1 
0.1771448168802417 0:1 14:2 15:1 21:1 22:1 27:1 29:2 35:2 78:1 136:1 191:1 343:2 
0.5 1:1 16:2 33:2 35:2 86:1 135:2 390:1 
0.5 2:1 21:1 22:1 33:2 36:2 447:1 
0.5 2:1 14:1 16:2 35:2 42:1 67:1 72:1 86:1 155:1 251:1 254:2 255:1 
0.5 0:1 14:1 26:1 28:1 30:1 34:1 136:1 451:1 474:1 477:1 
0.5 0:1 1:1 3:2 7:1 34:1 43:2 45:1 68:1 116:2 136:1 307:1 543:2 551:1 
0.5 1:1 2:1 9:1 14:1 16:2 86:1 202:1 204:1 932:1 1154:1 
0.5 0:1 2:1 13:2 21:1 22:2 28:1 30:1 31:1 35:2 43:2 45:1 53:3 54:2 55:1 56:1 57:1 58:1 59:1 61:1 
0.5 9:1 21:1 22:1 39:1 40:1 62:1 63:2 65:1 68:1 
0.5 21:1 22:1 27:1 40:1 114:1 138:1 242:1 
0.5 5:2 21:1 22:1 35:2 68:2 86:1 130:1 294:1 392:1 
0.5 1:1 7:1 10:1 14:2 15:1 35:2 42:1 68:2 116:2 130:1 131:2 220:1 234:1 294:1 295:2 343:2 
0.5 10:3 14:2 21:1 30:1 34:1 35:2 145:1 146:2 162:1 220:1 417:1 
0.5 1:1 9:1 10:1 14:1 53:2 86:1 187:1 197:1 296:1 786:1 787:1 
0.5 7:1 10:1 14:2 18:1 34:1 35:2 40:1 64:1 220:1 355:1 618:1 
0.5 6:1 14:1 16:2 21:1 22:1 35:2 68:1 84:1 116:2 130:1 131:1 202:1 234:1 246:1 343:2 
0.5 21:1 39:1 40:1 53:2 61:1 63:2 524:1 531:1 
0.5 2:1 7:1 14:2 35:2 87:1 179:1 220:1 264:1 442:1 
0.5 10:1 14:1 15:1 21:1 30:1 35:2 72:1 78:1 254:1 331:2 477:1 
0.5 2:1 14:1 35:2 36:1 39:1 117:1 220:1 369:1 371:1 435:2 463:2 
0.5 1:2 7:1 9:3 16:2 178:1 515:2 518:1 
0.5 21:1 22:1 40:1 146:1 525:1 535:2 709:1 911:1 
0.2821344123913788 1:2 7:1 33:2 67:1 108:1 110:1 227:1 677:1 
0.5 14:1 15:1 30:1 35:2 81:2 144:1 220:1 545:1 547:1 
0.5 0:2 1:1 14:1 21:1 22:1 34:1 35:2 41:1 86:1 139:2 187:1 189:1 197:1 226:1 373:2 413:2 477:1 613:2 764:1 795:1 798:1 827:1 
0.5 0:2 1:1 3:2 7:1 10:2 28:1 34:1 39:1 41:1 45:1 59:1 167:1 
0.5 2:1 5:2 14:1 30:1 40:1 68:1 86:1 116:2 162:1 239:1 321:1 325:1 326:1 945:1 
0.5 1:2 7:1 14:1 34:1 68:4 117:1 187:1 197:1 349:1 705:1 
0.5 34:1 65:1 69:1 86:1 178:1 329:1 537:1 598:1 671:1 
0.5 0:1 1:1 3:2 10:1 14:1 21:1 22:1 28:1 30:1 72:1 84:1 90:1 142:1 769:1 
0.5 0:2 1:3 3:2 7:2 10:2 14:1 22:1 30:1 35:2 72:1 73:2 126:1 152:1 330:1 356:1 551:1 
0.5 0:1 3:2 35:2 50:1 227:1 296:1 435:2 537:1 595:1 599:1 
0.5 16:2 114:1 157:1 162:2 417:1 499:1 
0.5 3:2 33:2 36:1 40:1 84:1 172:1 525:1 
0.5 7:1 79:1 80:1 204:1 209:1 
0.5 7:1 22:1 35:2 43:2 115:2 270:1 285:1 288:2 
0.5 6:1 21:1 22:1 28:1 68:1 116:2 291:1 790:2 
0.5 1:1 5:1 7:1 21:1 40:1 68:4 294:1 392:1 
0.5 0:1 14:1 15:1 21:1 34:1 35:2 68:1 72:2 78:1 85:1 86:1 91:1 142:1 160:1 359:1 
0.3481758536291336 1:1 14:1 21:1 33:2 35:2 179:1 234:1 269:1 527:1 613:2 
0.5 1:1 10:2 14:1 30:1 34:1 43:2 45:1 72:1 92:1 104:1 121:1 136:1 152:1 330:1 477:1 
0.5 2:1 21:1 22:1 43:2 86:1 227:2 228:1 229:1 230:1 231:1 234:1 235:2 236:1 
0.5 14:1 21:1 22:1 29:1 34:1 39:1 40:1 72:2 86:1 117:1 269:1 342:1 373:2 450:1 451:1 452:1 
0.5 2:1 10:1 14:1 41:1 136:1 145:1 185:1 543:2 
0.5 16:2 67:1 100:1 103:2 110:2 187:1 227:1 287:1 675:1 677:1 
0.5 2:1 16:2 40:1 86:1 170:1 359:1 1122:1 1237:1 
0.5 1:1 2:1 21:1 22:1 86:1 157:1 275:1 373:2 378:1 421:2 827:1 
0.5 0:1 1:1 3:2 10:1 90:1 167:1 178:1 197:1 333:2 334:1 
0.5 7:1 14:1 26:1 30:1 35:2 45:1 72:1 137:1 152:1 215:1 220:1 
0.5 2:1 14:2 15:1 34:1 35:2 68:2 78:1 86:1 92:1 153:2 386:1 403:2 404:1 405:1 654:1 
0.5 15:1 21:1 28:1 35:2 78:1 79:1 83:2 86:1 91:1 119:1 120:1 122:1 539:2 547:1 633:2 
0.5 34:1 41:1 59:1 128:1 145:1 166:1 
0.5 0:1 1:1 3:2 14:1 33:2 36:1 37:1 41:1 279:1 296:1 297:1 299:1 
0.5 35:2 276:1 406:1 408:1 527:1 595:2 764:1 
0.5 7:1 14:1 33:2 35:2 36:1 78:1 389:1 637:2 
0.5 1:1 2:2 6:1 7:1 13:2 21:1 22:1 45:1 179:1 226:1 290:3 336:1 397:1 442:1 790:1 1071:1 1072:1 
0.5 21:1 22:1 27:1 30:1 136:1 535:2 543:2 545:1 
0.5 10:1 14:1 30:1 35:2 40:1 78:1 117:1 145:1 167:1 185:1 324:1 375:1 477:1 701:1 
0.5 21:1 30:1 40:1 53:2 54:1 63:2 279:1 299:1 304:1 531:1 
0.5 14:1 67:3 197:1 255:1 283:2 
0.5 0:1 1:1 2:1 3:2 6:1 14:1 68:1 72:1 104:1 116:2 121:1 234:1 291:1 292:1 343:2 397:1 
0.5 1:1 14:1 68:1 81:2 85:1 86:1 91:1 153:2 234:1 343:2 404:1 
0.1984201197845887 1:1 14:1 35:2 72:1 92:1 537:1 720:1 
0.5 0:1 1:1 10:1 30:1 35:2 39:1 40:1 126:1 194:1 197:1 198:1 199:1 242:1 396:1 
0.5 6:1 7:1 14:1 34:1 161:1 279:1 342:1 397:1 725:1 1059:1 
0.5 0:1 28:1 34:1 128:1 178:1 245:1 312:1 
0.5 1:1 2:1 7:1 14:1 16:2 27:1 30:1 40:1 145:1 166:1 167:1 185:1 
0.5 2:1 7:1 14:2 15:1 35:2 36:1 45:1 78:1 
0.5 0:1 1:1 3:2 10:1 26:1 27:1 30:1 223:2 474:1 
0.5 7:1 33:2 36:2 55:1 68:2 114:1 178:1 487:2 490:1 
0.5 27:1 29:1 34:1 43:2 45:1 131:1 136:1 170:1 275:1 
0.5 14:1 22:1 33:2 35:2 72:1 78:1 87:1 169:1 178:1 179:1 264:1 281:2 795:1 796:1 
0.5 21:1 22:1 34:1 72:1 86:1 157:1 286:1 393:2 732:2 797:1 
0.5 5:2 14:1 35:2 39:2 41:2 51:1 59:2 128:1 136:1 220:1 400:1 715:2 
0.5 1:1 14:1 15:1 24:1 30:2 35:2 56:1 72:1 73:2 78:1 81:2 86:1 92:1 276:1 
0.5 0:1 13:2 65:1 75:1 104:1 178:1 329:1 
0.5 1:1 5:1 14:1 15:1 35:2 78:1 81:2 86:1 130:1 339:1 349:1 
0.5 9:1 53:2 172:1 178:2 545:1 587:1 786:1 787:1 
0.5 7:1 14:1 34:1 35:2 37:1 41:1 52:2 72:2 78:1 117:1 342:1 373:2 452:1 
0.5 1:1 21:1 22:1 73:2 86:2 157:2 421:1 
0.5 2:1 14:1 34:1 35:2 220:1 251:1 264:1 435:2 667:1 
0.5 0:1 1:1 3:2 5:1 21:1 28:1 37:1 40:1 41:1 73:2 74:1 
0.5 31:1 32:1 34:1 285:1 288:1 835:2 844:1 
0.5 2:2 30:1 95:1 98:1 146:1 321:1 323:2 324:1 325:1 326:1 
0.5 1:1 14:1 34:1 86:1 130:1 179:2 401:1 565:2 
0.5 21:2 22:2 30:1 39:2 40:2 53:2 54:2 304:1 524:1 1476:2 
0.5 1:1 33:2 35:2 72:1 78:1 86:1 162:1 552:1 
0.5 7:1 14:1 34:1 72:1 227:1 229:1 230:1 236:1 
0.5 2:3 13:2 14:3 81:2 85:1 153:2 202:1 383:2 404:1 405:1 929:2 1204:1 
0.5 0:1 6:4 21:1 22:1 43:2 115:1 534:1 609:1 1126:1 
0.5 7:1 9:1 14:1 28:1 34:1 35:2 47:1 72:1 78:1 92:1 240:1 390:1 551:1 613:2 
0.5 1:1 7:1 15:1 33:2 35:2 36:1 72:1 78:1 389:1 390:1 393:2 637:1 774:1 
0.5 0:1 1:1 3:2 36:1 40:1 297:1 298:1 299:1 1161:1 1162:1 
0.5 21:1 28:1 30:1 34:1 43:2 44:1 45:1 136:1 166:1 421:1 
0.5 10:1 21:1 27:1 28:1 35:2 37:1 41:1 72:1 126:1 223:2 
0.5 28:1 34:1 117:1 128:1 179:1 226:1 
0.5 1:1 7:1 14:2 114:1 133:2 172:1 231:1 655:1 656:1 927:2 929:1 
0.5 1:1 13:2 14:1 33:2 34:1 35:2 72:1 220:1 386:1 1124:1 
0.5 21:1 22:1 33:2 36:1 394:1 447:1 463:2 
0.5 21:1 40:1 53:2 61:1 63:2 199:1 279:1 299:1 355:1 618:1 723:2 
0.5 0:1 2:1 7:1 21:1 22:1 179:2 263:2 264:1 265:1 268:1 269:1 
0.3417578307159536 1:1 5:1 7:1 10:1 12:1 14:1 22:1 31:1 34:1 35:2 92:1 162:1 165:1 170:1 220:1 226:1 339:1 397:1 417:1 
0.5 20:1 21:1 22:1 34:1 47:1 86:1 
0.3804607011900041 0:1 1:1 10:1 35:2 39:1 126:1 194:1 197:1 198:1 199:1 307:1 
0.185073298045962 0:1 21:1 22:1 24:1 28:1 30:1 34:1 128:1 331:1 
0.5 1:1 53:2 56:1 65:1 67:1 68:1 72:1 103:2 104:1 280:1 327:1 
0.5 9:1 65:1 69:1 178:1 329:1 537:1 598:1 671:1 
0.5 28:1 34:1 41:1 128:1 145:1 166:1 
0.5 14:2 16:2 33:2 35:2 78:1 1024:1 1122:1 
0.3540576829201911 1:2 21:1 47:1 108:1 142:1 333:2 
0.5 0:1 27:1 34:2 37:1 41:1 43:2 45:2 52:1 136:2 451:1 
0.5 14:1 15:1 35:2 43:2 78:1 86:2 227:2 231:2 236:1 284:1 285:1 288:2 386:2 657:2 1189:1 
0.5 2:2 47:1 92:2 119:1 321:1 354:1 637:1 929:1 1019:1 
0.5 13:2 31:1 32:1 34:1 72:1 87:1 285:1 288:1 320:2 
0.5 1:1 21:1 22:1 33:2 36:1 40:1 92:1 189:1 279:2 299:2 
0.22978601955349 0:1 10:1 35:2 72:1 126:1 146:1 169:1 451:1 478:1 
0.5 15:1 35:2 78:1 86:1 92:1 153:2 291:1 383:2 390:1 404:1 405:1 609:1 610:1 654:1 
0.5 0:1 2:1 10:1 28:1 34:1 35:2 43:2 45:1 72:1 126:1 128:1 129:1 141:1 240:1 538:1 609:1 
0.5 10:1 14:1 16:2 21:1 22:1 30:1 34:1 45:1 55:1 72:1 167:2 324:1 475:1 703:2 705:1 
0.5 5:1 14:1 15:1 21:1 28:1 35:2 68:4 78:1 86:2 116:2 146:1 294:2 
0.5 0:1 1:2 3:2 7:1 10:2 39:1 41:1 44:1 92:1 167:1 189:1 234:1 
0.5 0:1 1:1 10:1 30:1 35:2 40:1 126:1 145:1 167:1 185:1 197:1 199:1 590:1 701:1 
0.5 1:1 16:2 80:1 92:1 204:2 284:1 748:1 932:1 
0.5 14:1 29:1 34:1 35:2 40:1 52:1 78:1 86:1 117:1 342:1 373:2 452:1 480:1 
0.5 10:1 21:1 27:1 28:1 35:2 37:1 41:1 126:1 
0.5 4:1 7:1 40:1 145:2 185:2 240:1 324:1 349:1 703:2 
0.06601144697614368 21:1 22:1 59:1 129:1 136:1 141:1 421:1 
0.5 21:1 28:8 55:1 175:1 311:1 446:1 586:2 587:1 588:1 
0.5 0:1 1:1 3:2 14:1 33:2 36:1 39:1 40:1 117:1 296:1 297:1 298:1 299:1 
0.5 7:1 10:1 12:2 14:1 34:1 35:2 45:1 145:1 146:1 220:1 417:1 453:2 456:1 
0.5 14:1 30:1 35:2 52:1 220:1 545:1 547:1 743:2 
0.5 0:1 28:1 30:1 34:2 253:2 408:1 786:1 
0.5 10:1 21:1 27:1 28:1 35:2 40:1 126:1 524:1 525:1 526:1 
0.5 2:1 9:1 14:1 30:1 31:1 34:1 35:2 39:1 41:3 43:2 45:1 87:1 98:2 167:1 220:1 243:2 
0.5 21:1 22:1 28:1 55:1 141:1 311:1 
0.5 1:1 31:1 32:1 33:2 34:1 39:1 40:1 42:1 609:1 774:1 1161:2 1162:2 
0.5 14:1 34:1 35:2 37:1 41:1 52:2 72:1 78:1 86:1 117:1 373:2 452:1 
0.5 1:2 10:1 14:1 16:2 21:1 53:2 86:2 276:1 478:2 592:1 665:1 
0.5 0:1 7:1 13:2 14:1 15:1 35:2 68:1 78:1 90:1 92:1 116:2 167:1 184:1 592:1 
0.5 0:2 1:1 7:1 10:3 13:2 14:1 15:1 28:1 35:2 40:1 44:1 104:1 121:1 126:1 140:1 330:2 
0.02673061479418168 14:1 15:1 22:1 33:2 34:1 35:2 36:1 78:1 117:1 287:1 431:1 507:1 
0.5 0:2 1:1 2:1 3:2 7:2 14:1 26:1 27:1 30:1 33:2 35:2 72:2 126:1 137:2 215:1 537:1 613:2 
0.5 34:1 43:2 45:1 136:1 143:2 657:1 835:2 
0.5 35:2 40:1 45:1 104:1 121:1 504:1 
0.5 21:1 22:2 84:1 137:1 383:2 535:2 537:1 538:1 
0.5 1:1 21:1 53:2 61:1 63:2 64:1 72:1 86:1 114:1 146:2 264:1 709:2 722:1 
0.5 1:1 7:1 33:2 44:1 155:1 197:1 1069:2 
0.5 14:1 15:1 34:1 35:2 142:1 197:1 220:1 279:2 338:1 477:1 657:1 745:1 764:1 1011:1 
0.5 1:2 2:2 6:1 7:1 13:2 21:1 22:1 45:1 179:2 226:1 290:3 336:1 397:1 442:1 708:1 790:1 1071:1 1072:1 
0.5 1:1 14:2 15:1 16:2 21:1 22:1 33:2 35:2 36:1 38:1 40:2 44:1 72:1 78:1 86:1 263:2 873:2 896:1 1041:1 1042:1 
0.5 1:1 21:1 22:1 103:2 327:2 627:1 863:2 
0.5 0:1 3:2 9:1 14:1 35:2 40:1 86:1 92:1 100:1 189:1 220:1 227:1 231:1 386:1 524:1 537:2 595:1 598:1 599:1 
0.5 0:1 13:2 14:1 22:1 35:2 41:3 52:1 145:2 165:1 166:3 220:1 
0.5 34:1 65:1 68:1 178:1 327:1 329:1 
0.5 14:1 21:1 28:1 30:1 35:2 78:1 92:1 166:1 253:2 592:1 769:1 
0.5 21:1 40:2 53:2 61:1 63:2 279:1 355:1 524:1 618:1 723:2 
0.5 1:1 14:1 34:1 86:1 
0.5 0:2 2:1 13:2 21:1 22:1 28:1 30:1 31:1 35:2 43:2 45:1 53:3 54:2 56:1 57:1 58:1 59:1 61:1 
0.5 1:1 10:4 14:1 21:1 29:1 30:1 92:1 114:1 145:3 146:3 147:1 152:1 
0.5 0:1 1:1 3:2 7:1 26:1 29:1 30:2 331:1 474:1 475:1 477:1 
0.5 1:1 21:1 22:1 27:1 35:2 81:2 90:1 142:1 189:1 
0.5 1:1 13:2 14:1 33:2 34:1 35:2 65:1 75:1 86:2 178:1 329:1 647:1 752:2 754:1 755:1 
0.5 14:1 15:1 35:2 44:1 77:1 78:1 80:1 81:2 82:1 
0.5 14:2 30:1 34:1 35:2 72:1 137:2 220:1 1189:1 
0.5 1:1 7:1 9:1 307:1 327:1 863:2 
0.5 1:2 5:1 73:2 86:1 141:1 397:1 
0.5 0:1 2:1 7:1 21:1 22:1 36:1 68:1 179:2 263:2 264:1 268:1 269:1 1135:2 
0.5 2:1 14:1 15:1 34:1 35:2 78:1 82:1 86:1 96:1 153:2 154:2 155:1 156:1 157:1 158:1 159:1 160:1 161:1 162:1 
0.5 1:1 35:2 108:1 189:1 675:1 853:2 
0.5 34:1 65:1 69:1 86:1 104:1 178:1 329:1 
0.5 0:1 5:1 10:1 21:1 22:1 25:1 27:1 30:1 37:1 40:1 41:1 165:1 170:1 275:1 401:1 451:1 
0.5 0:1 1:1 10:1 35:2 40:2 126:1 298:1 299:1 355:1 618:1 
0.5 1:1 21:1 22:1 34:1 86:1 132:1 179:1 442:2 565:1 727:1 732:1 790:1 791:1 
0.5 1:1 276:1 595:2 
0.5 0:1 2:1 7:1 21:1 22:1 179:2 263:2 264:1 268:1 269:1 1041:1 1042:1 
0.5 0:2 1:1 21:1 22:1 72:1 86:1 91:1 255:2 283:2 336:1 337:1 338:1 339:1 
0.5 21:1 65:2 69:1 75:1 103:2 104:2 
0.5 14:1 15:1 35:2 44:1 77:1 78:1 80:1 81:2 82:1 
0.5 21:1 35:2 40:1 53:2 54:1 58:1 63:2 249:1 531:1 
0.5 2:1 7:1 26:1 30:1 40:1 86:1 158:1 162:1 178:1 223:2 239:1 321:1 323:2 325:1 326:1 945:1 
0.5 1:1 14:1 33:3 36:3 40:1 43:2 115:1 178:1 342:1 
0.5 0:1 21:1 22:1 28:1 34:1 40:1 53:2 54:1 1476:1 
0.5 115:1 480:1 504:1 
0.5 2:1 7:1 21:1 22:1 44:1 65:1 67:1 68:1 121:1 280:1 610:1 
0.07791769203682683 14:1 33:2 35:2 44:1 47:1 72:1 169:1 220:1 281:2 529:1 796:1 
0.5 4:1 35:2 62:1 78:1 86:1 87:1 245:1 290:1 390:1 478:1 764:1 
0.5 0:1 1:2 21:1 22:1 72:1 86:1 373:2 786:2 787:1 
0.5 1:1 21:1 37:1 39:1 41:1 53:2 61:1 63:2 64:1 72:1 86:1 169:1 194:1 197:1 199:1 
0.5 13:2 14:1 15:1 22:1 28:1 30:1 33:2 35:2 43:2 45:1 53:2 54:1 58:1 61:1 220:1 
0.5 14:1 15:1 34:1 35:2 72:1 78:1 81:2 85:1 86:1 88:1 90:1 91:1 
0.5 1:1 13:2 21:1 33:2 35:2 72:2 220:1 386:1 1024:1 1056:1 
0.5 0:1 21:1 28:1 34:1 128:1 131:1 245:1 
0.5 5:2 7:1 14:1 15:1 21:1 28:1 35:2 68:2 78:1 116:2 294:1 
0.5 13:2 21:1 28:1 30:1 31:1 35:2 40:1 53:2 54:2 57:1 59:1 63:2 242:1 531:1 
0.5 0:1 2:1 14:1 21:1 22:1 72:1 146:1 257:1 532:1 655:1 656:1 709:4 
0.5 0:1 1:1 3:2 10:2 22:1 39:1 40:1 58:1 84:1 145:1 153:2 154:1 242:1 647:1 
0.5 1:1 21:1 22:2 47:1 72:1 86:1 210:3 769:1 
0.5 1:1 21:1 67:1 137:1 189:1 281:2 287:1 
0.5 0:1 2:1 21:1 22:1 65:4 68:1 69:1 75:1 
0.5 3:2 7:1 21:1 33:2 36:1 134:2 146:1 257:1 525:3 532:1 535:2 709:1 1391:2 
0.5 7:1 43:2 115:1 153:2 229:1 230:1 231:1 235:2 251:1 270:1 507:1 
0.5 3:2 65:1 416:2 1284:2 
0.5 0:1 1:1 7:1 31:1 32:1 34:1 43:2 72:1 137:1 264:1 284:1 291:1 307:1 609:1 610:1 
0.5 0:1 5:1 21:1 28:1 34:1 128:1 245:1 
0.5 14:1 15:1 21:1 28:1 35:2 44:1 68:2 78:1 116:2 234:1 294:1 595:1 
0.5 1:1 18:1 72:1 86:1 131:2 251:1 289:1 413:2 581:2 
0.5 1:1 2:1 13:2 14:1 15:1 34:1 35:2 68:1 78:1 86:1 96:1 153:2 154:1 156:1 160:1 403:2 
0.5 1:1 7:1 18:2 21:1 51:1 53:2 61:1 63:2 64:1 172:1 275:1 296:1 709:1 963:2 1115:1 
0.5 0:1 1:1 7:1 13:2 14:2 33:2 35:2 36:1 117:1 126:1 278:1 297:1 369:1 370:1 371:1 394:1 
0.5 16:2 249:2 725:1 1939:2 
0.5 0:1 4:1 5:1 10:1 21:1 22:1 28:1 30:3 145:1 146:1 331:1 401:1 
0.5 0:1 21:1 28:1 34:1 128:1 245:1 253:2 254:1 
0.5 2:1 14:1 16:2 66:1 67:1 197:1 251:1 255:1 748:1 749:1 
0.5 2:1 14:2 15:1 34:1 35:2 68:1 72:1 78:1 81:2 86:1 115:1 116:2 234:1 386:1 475:1 781:2 
0.5 2:1 14:1 27:1 52:1 88:1 239:1 393:2 395:1 
0.5 21:1 22:1 40:1 525:1 655:1 656:1 911:1 
0.5 0:1 3:2 37:1 41:1 240:1 257:1 581:2 720:1 
0.5 15:1 35:2 39:1 40:1 78:1 394:1 435:2 627:1 
0.5 21:1 28:3 394:1 587:1 588:1 
0.5 0:1 1:1 3:2 10:1 29:1 84:1 145:1 146:1 478:1 
0.5 7:1 21:2 72:1 86:1 97:1 98:1 144:1 945:1 946:2 
0.5 14:2 33:2 34:1 35:2 78:1 146:1 240:1 774:1 879:1 
0.5 0:1 1:1 2:1 3:2 4:1 5:1 6:1 7:1 8:1 9:1 10:1 12:1 
0.5 1:1 2:2 5:1 13:2 14:1 22:1 35:2 44:1 45:1 49:1 68:1 104:2 121:2 202:1 321:1 326:1 401:1 601:1 
0.5 9:1 21:1 53:2 103:2 112:1 178:1 189:1 327:1 355:1 
0.5 9:1 24:1 30:1 95:1 112:2 135:2 161:1 178:1 527:1 764:1 
0.5 12:1 21:1 22:1 40:1 143:2 431:1 
0.1931089407320576 2:1 15:1 33:2 35:2 36:1 43:2 45:1 78:1 486:1 
0.5 14:1 35:2 44:1 78:1 178:1 179:1 264:1 417:1 450:1 456:1 796:1 
0.5 7:1 14:2 15:1 21:1 34:1 35:2 68:1 78:1 81:2 85:1 86:1 88:1 91:1 104:1 121:1 156:1 
0.5 1:1 86:1 95:1 97:1 135:2 
0.5 15:1 35:2 39:1 40:1 78:1 172:1 435:2 
0.5 0:1 14:1 34:2 59:1 88:1 128:1 636:1 637:1 638:1 
0.5 10:2 14:1 15:1 30:2 35:2 146:1 220:1 323:2 324:1 480:1 
0.5 0:1 1:2 3:2 7:1 16:2 33:2 34:1 36:3 40:1 349:1 386:1 389:1 637:1 781:2 
0.5 1:1 2:1 14:3 35:2 44:1 47:1 86:1 307:1 317:1 537:2 610:1 613:2 
0.5 1:1 21:1 22:1 33:2 36:2 40:1 42:1 44:1 117:1 153:2 189:1 507:1 
0.5 7:1 10:2 14:1 15:1 21:1 22:2 30:1 35:2 37:1 40:1 41:1 73:2 78:1 145:1 239:1 298:1 299:1 356:1 480:1 551:1 
0.5 0:1 1:1 3:2 6:1 10:1 14:1 21:1 27:1 28:1 139:2 140:1 142:1 169:1 1126:1 
0.5 1:2 9:1 16:2 67:1 80:1 86:1 108:1 251:1 748:1 
0.04566083934525534 0:1 1:1 34:1 43:2 45:1 92:1 119:1 136:1 251:1 
0.5 0:2 2:1 3:2 14:1 21:1 22:1 33:2 36:1 72:1 87:1 178:1 189:1 263:2 265:1 408:1 896:1 
0.5 14:1 15:1 35:2 44:1 77:1 78:1 79:1 80:1 81:2 82:1 83:2 
0.5 2:1 86:1 87:1 165:1 179:1 264:1 
0.5 27:1 30:1 34:1 43:2 45:1 136:1 535:2 543:2 545:1 
0.346845504446321 0:1 21:1 22:1 44:1 77:2 82:1 395:1 490:1 713:2 
0.5 0:1 1:1 3:2 33:2 36:1 37:1 40:1 41:1 298:1 299:1 
0.5 7:1 10:1 14:1 15:1 21:1 30:1 35:2 72:1 78:1 145:1 167:1 185:1 703:2 
0.5 1:2 7:1 21:1 27:1 68:4 117:1 187:2 197:2 
0.5 2:2 7:1 15:1 33:2 35:2 36:1 43:2 45:1 78:1 165:1 417:1 481:2 486:1 
0.5 14:1 16:2 67:3 197:1 255:1 280:1 281:2 283:2 
0.5 5:1 15:1 21:1 22:1 30:1 35:4 78:1 79:1 83:2 119:1 120:1 122:1 539:1 547:3 633:3 
0.5 14:1 27:1 29:1 35:2 41:1 72:1 78:1 145:1 166:2 167:1 169:1 170:1 275:1 
0.3853326541732356 34:1 43:2 44:1 45:1 52:1 77:1 80:1 82:1 136:1 
0.5 14:1 35:2 153:2 154:1 156:1 165:1 220:1 307:1 543:2 647:1 
0.03209670688088323 0:1 1:1 21:1 22:1 72:1 86:1 162:1 234:1 339:1 417:1 421:1 
0.4888835220608377 14:1 35:2 197:1 220:1 251:1 356:1 667:2 
0.5 0:1 1:1 33:2 35:2 36:1 37:1 40:1 41:1 126:1 298:1 299:1 
0.5 0:1 1:1 10:1 35:2 40:1 126:1 355:1 618:1 
0.5 1:1 4:1 21:1 30:1 72:1 86:1 145:2 185:2 240:1 324:1 349:1 543:2 
0.3350000568173258 1:1 155:1 178:1 355:1 
0.3092852604193419 2:1 21:1 22:1 28:1 43:2 45:1 129:1 141:1 307:1 317:1 610:1 
0.5 0:1 1:1 3:2 7:1 10:1 14:1 27:1 30:1 35:2 126:1 136:1 162:2 356:1 417:2 
0.5 1:1 6:2 21:1 22:1 34:1 86:1 179:1 290:1 292:1 442:2 601:1 727:1 732:1 790:1 791:1 1119:1 1133:2 
0.5 37:1 41:1 92:1 139:2 279:1 338:1 
0.3181596222959719 12:1 21:1 22:1 143:2 396:1 431:1 
0.5 1:1 2:1 7:1 14:1 18:1 21:1 22:1 39:2 40:2 53:2 54:1 64:1 146:1 709:1 1476:1 
0.5 5:1 15:1 35:2 78:1 86:1 91:1 119:1 120:1 122:1 539:2 547:1 633:2 
0.5 0:1 9:1 20:1 21:1 22:2 67:1 87:1 112:2 155:1 178:1 327:1 355:1 
0.5 0:1 1:1 27:1 34:1 35:2 43:2 45:1 133:2 135:2 136:1 137:1 138:1 
0.5 1:1 33:2 86:1 135:2 638:1 
0.5 2:1 7:1 9:1 21:1 63:2 65:1 75:1 104:1 159:1 722:1 911:1 
0.5 1:1 2:1 14:1 53:2 72:1 86:1 172:1 
0.5 21:1 53:2 62:1 63:2 197:1 199:1 221:1 279:1 307:1 703:2 917:1 
0.4902589590563289 1:2 9:1 21:1 22:1 47:1 108:1 137:1 251:2 375:1 
0.5 0:1 1:2 3:2 7:1 10:2 14:1 35:2 37:1 40:1 41:2 78:1 92:1 98:1 145:1 167:1 184:1 185:1 
0.5 1:1 2:1 7:1 30:1 72:2 103:2 228:1 239:1 333:2 334:1 349:1 359:1 
0.5 53:2 86:1 170:1 197:1 665:1 786:2 802:2 
0.5 2:1 7:1 10:3 15:1 35:2 78:1 145:1 153:2 154:1 321:1 326:1 401:1 402:1 403:2 404:1 405:1 
0.5 1:1 15:1 35:2 78:1 86:1 157:2 339:1 388:1 
0.5 0:1 14:1 35:2 52:1 126:1 166:1 167:1 170:1 275:1 499:1 553:2 
0.5 7:1 28:1 34:1 40:3 128:1 129:1 141:1 146:1 279:2 299:1 524:2 525:1 526:1 
0.5 10:3 14:1 31:1 35:2 87:1 145:1 153:2 154:1 178:1 179:1 220:1 345:1 401:1 402:1 
0.5 0:1 1:1 3:2 9:1 30:1 53:2 54:2 62:2 63:2 197:1 199:1 249:1 
0.5 7:1 13:2 14:1 34:1 35:2 45:1 64:1 72:1 90:1 169:1 197:1 333:2 375:1 1119:1 
0.4086595102123265 1:1 21:1 35:2 53:2 142:1 478:1 992:1 
0.5 1:1 14:1 21:1 22:2 30:1 47:1 92:1 179:2 234:1 354:1 375:1 
0.2297470203988001 0:1 1:1 10:1 30:1 35:2 40:1 126:1 242:1 
0.5 0:1 1:2 10:1 14:1 21:2 27:1 72:1 86:1 397:1 401:1 638:2 1154:1 
0.5 1:1 13:2 21:1 30:1 72:1 86:1 87:1 96:1 157:1 189:1 253:2 399:1 403:2 542:1 
0.5 0:1 1:1 7:1 10:1 28:1 35:2 37:1 41:1 90:1 126:1 141:1 333:2 334:1 
0.5 0:1 14:1 15:1 28:1 34:1 35:2 37:1 41:1 73:2 78:1 117:1 128:1 141:1 523:2 
0.5 0:1 1:1 3:2 36:1 37:1 41:1 297:1 1161:1 1162:1 
0.5 0:1 1:1 3:2 10:1 30:1 35:2 145:1 167:1 185:1 197:1 199:1 590:1 
0.5 1:1 7:1 18:1 21:1 64:1 189:1 963:2 1115:1 
0.5 0:1 1:2 3:2 7:1 10:1 13:2 14:1 35:2 68:2 81:2 86:1 104:2 115:1 116:2 121:2 228:1 349:1 386:1 654:1 692:1 
0.5 0:1 9:1 65:1 178:1 478:1 725:1 754:1 
0.5 1:1 2:1 15:1 28:1 31:1 33:2 35:2 36:2 57:1 72:1 78:1 86:1 389:2 390:1 392:1 393:2 
0.5 1:1 21:1 22:1 28:1 65:1 128:1 179:1 373:2 375:1 378:1 
0.5 14:1 66:1 197:2 749:1 755:1 922:1 
0.5 10:1 16:2 22:1 44:1 78:1 126:1 130:1 234:1 246:1 290:1 527:1 790:1 
0.5 14:1 68:1 72:2 86:1 97:1 98:1 116:2 312:1 945:1 
0.5 6:1 7:1 14:1 15:1 21:1 27:1 34:1 35:2 37:1 41:1 43:2 45:1 73:3 114:1 117:1 126:1 220:1 349:1 523:2 534:1 609:1 1017:1 
0.5 0:1 21:1 28:1 34:1 55:1 128:1 130:2 141:1 245:1 
0.5 1:2 2:1 3:2 9:1 10:1 72:1 86:1 169:1 
0.5 1:1 7:1 33:2 36:1 117:1 153:2 349:1 507:1 
0.5 21:1 22:1 40:2 525:1 655:1 656:1 911:1 
0.5 0:1 21:1 22:1 30:1 40:2 242:1 307:1 355:1 618:1 
0.5 1:1 2:1 14:2 15:1 21:1 35:2 131:1 142:1 202:1 220:1 345:1 575:2 636:1 
0.5 35:2 43:2 45:1 53:2 221:1 307:1 456:1 
0.5 1:1 12:1 16:2 34:1 44:1 85:1 86:1 91:1 119:1 142:1 202:1 386:1 475:1 781:2 1019:1 
0.5 2:2 21:1 22:1 86:1 197:1 289:1 
0.5 0:1 21:1 22:1 30:1 40:2 242:1 307:1 355:1 618:1 
0.4856014579283204 0:1 1:1 2:1 10:1 21:1 22:1 30:1 33:2 86:1 781:2 
0.5 21:1 22:1 27:1 88:1 136:1 239:1 393:2 395:1 543:2 
0.5 7:1 72:1 79:1 80:1 92:1 93:2 95:1 96:1 97:1 98:1 
0.5 21:1 22:1 37:1 41:1 257:1 275:1 532:1 
0.5 2:1 21:1 22:1 33:2 36:2 447:1 463:2 
0.5 14:1 30:1 35:2 36:1 116:2 117:1 220:1 278:1 297:1 304:1 369:1 386:1 
0.5 0:1 1:1 3:2 10:1 14:2 30:1 50:1 81:2 90:2 142:1 242:1 296:1 435:2 
0.5 157:1 170:1 275:1 339:1 378:1 421:1 499:1 
0.5 0:1 1:1 3:2 10:1 24:1 26:1 30:2 223:2 
0.5 14:1 15:1 35:2 40:1 78:1 114:1 153:2 507:1 627:1 
0.5 0:1 1:1 3:2 33:2 36:1 37:1 39:1 40:1 41:1 298:1 299:1 
0.5 14:1 35:2 78:1 281:2 613:2 796:1 
0.5 1:1 2:1 9:1 14:1 86:1 307:1 317:1 610:1 721:2 
0.5 34:1 40:1 43:2 45:1 115:1 289:1 486:1 504:1 655:1 656:1 
0.5 7:1 10:2 14:1 15:1 16:2 21:1 26:2 30:1 35:2 44:1 77:1 78:1 82:1 474:2 545:1 609:1 
0.5 1:1 7:2 13:2 14:1 15:1 35:2 40:1 73:2 78:1 96:1 157:1 234:1 239:1 343:2 373:2 383:2 542:1 703:2 827:1 
0.5 14:1 34:1 43:2 44:1 45:1 77:1 82:1 136:1 137:1 713:2 
0.5 21:1 22:1 27:1 131:1 136:1 393:2 395:1 542:1 543:2 
0.5 2:2 14:1 27:1 33:2 44:1 234:1 408:1 1237:1 
0.5 13:2 27:1 34:1 35:2 37:1 40:1 41:2 43:2 45:2 52:1 136:2 166:2 167:1 170:1 275:1 553:2 
0.5 0:1 14:1 15:1 22:1 28:1 30:2 34:1 35:2 55:1 72:1 78:1 81:2 104:1 121:1 128:1 245:1 401:1 
0.5 0:1 3:2 28:1 34:1 35:2 126:1 128:1 339:1 372:1 
0.5 1:1 7:1 33:2 36:1 55:1 114:1 133:2 178:1 394:1 447:3 463:3 464:2 
0.5 0:1 2:1 31:1 35:2 53:2 54:1 57:1 86:1 451:1 538:1 
0.5 0:1 1:1 3:2 21:1 22:1 33:2 68:2 72:1 87:1 103:2 383:2 
0.5 2:1 3:2 5:2 6:1 7:1 8:1 12:1 14:1 35:2 68:1 78:1 86:1 234:1 245:1 715:1 
0.5 0:1 1:1 14:1 34:1 35:2 37:1 41:1 86:1 126:1 130:1 139:2 245:1 246:1 534:1 609:1 
0.5 21:1 22:1 40:1 257:1 298:1 299:1 532:1 
0.5 15:1 21:1 27:1 28:3 35:2 72:1 78:1 104:1 119:1 120:1 121:1 122:1 
0.5 2:1 10:1 14:1 41:1 90:1 145:1 185:1 242:1 
0.5 0:1 1:1 3:2 22:1 33:2 36:1 84:1 116:2 507:1 
0.5 14:1 16:2 29:1 44:1 77:1 79:1 82:1 
0.5 1:1 16:2 86:1 131:1 202:1 932:1 
0.5 1:1 3:2 30:1 37:1 41:1 73:2 86:1 117:1 324:1 523:2 
0.5 13:2 14:1 15:1 34:1 35:2 78:1 81:2 85:1 86:1 87:1 88:1 90:1 91:1 349:1 
0.5 10:1 21:1 27:1 28:1 35:2 41:1 72:1 126:1 223:2 
0.5 1:1 5:1 7:1 21:1 41:1 68:2 87:1 130:1 131:1 145:1 166:2 167:1 294:1 392:1 
0.5 15:1 35:2 40:3 44:1 72:1 78:1 436:3 447:1 
0.5 0:1 1:2 10:1 34:1 130:2 245:1 375:1 408:1 609:1 790:1 864:2 1133:2 
0.5 2:1 14:1 16:2 42:1 67:3 104:2 197:1 255:1 281:2 283:2 287:1 
0.5 47:1 65:2 66:1 67:2 75:1 527:1 529:1 
0.5 0:1 6:1 12:1 22:1 35:2 72:1 104:1 121:1 126:1 226:2 293:2 534:3 
0.5 0:1 1:1 21:1 22:1 65:2 66:1 67:1 68:1 69:1 72:1 
0.5 14:1 15:1 34:1 35:2 72:1 78:1 81:2 85:1 86:1 88:1 90:1 91:1 
0.5 14:1 34:1 65:1 75:1 86:1 178:1 329:1 613:2 
0.5 14:1 34:1 43:2 45:1 136:1 152:1 307:1 543:2 
0.5 0:1 1:1 3:2 10:1 21:1 28:1 39:1 40:1 44:1 330:1 595:1 
0.5 1:1 2:1 5:1 10:1 14:1 15:1 24:1 28:1 30:1 33:2 34:1 35:2 40:1 43:2 45:2 56:1 58:2 73:2 78:1 81:2 86:2 337:1 342:1 595:1 
0.5 14:1 28:1 30:1 34:1 246:1 303:2 304:1 307:1 
0.5 1:1 2:1 16:2 33:2 34:1 36:2 42:1 72:1 114:1 296:1 386:2 389:1 435:2 
0.5 21:1 40:2 53:2 61:1 63:2 64:1 355:1 618:1 723:2 
0.5 0:1 1:1 3:2 34:1 43:2 44:1 45:1 53:2 68:1 72:1 81:2 395:1 397:1 1476:1 
0.5 21:1 65:1 187:1 197:1 755:1 990:1 992:1 
0.5 1:2 4:1 9:2 14:1 72:1 86:1 331:1 342:1 518:1 
0.4454388918013924 21:1 22:1 28:1 141:1 142:1 311:1 
0.5 0:1 21:1 22:1 72:2 162:1 245:1 276:1 342:1 349:1 397:1 552:1 553:2 
0.5 1:1 16:2 27:1 42:1 72:1 161:1 179:1 239:1 359:1 654:1 743:2 745:1 
0.03232109929017266 1:1 327:1 
0.1247956143082012 0:1 1:1 2:1 7:1 21:1 22:1 33:3 72:1 165:1 189:1 539:1 795:1 
0.5 1:1 10:2 14:1 30:1 35:2 40:1 86:1 145:1 167:1 185:1 220:1 474:1 590:1 
0.5 2:1 9:2 14:1 21:1 22:1 25:1 86:1 355:1 
0.3396909758904471 2:1 14:2 33:2 34:1 35:2 72:1 100:1 220:1 400:1 1024:1 
0.5 0:1 27:1 29:1 34:1 37:1 40:1 41:1 43:2 45:1 136:2 451:1 
0.5 28:1 34:1 88:1 128:1 
0.5 34:1 43:2 45:1 136:1 166:1 286:1 307:1 421:1 
0.5 21:1 22:1 40:1 114:1 257:1 525:1 532:1 
0.1673503751403474 0:1 30:1 35:2 37:1 41:1 52:1 78:1 136:1 165:1 269:1 451:1 
0.5 13:2 33:2 87:1 178:1 1024:1 1056:1 1122:1 1124:1 1148:1 
0.5 21:1 22:1 73:2 74:1 157:1 421:1 
0.5 1:1 21:1 22:1 33:2 36:3 40:1 189:1 257:1 279:1 525:2 532:1 587:1 
0.5 7:1 13:2 14:2 15:1 35:2 78:1 81:2 85:1 86:1 88:1 91:1 104:1 121:1 156:1 383:2 400:1 
0.5 1:1 21:1 22:1 33:2 36:1 40:1 86:1 189:1 257:1 525:1 532:1 587:1 
0.5 0:1 14:1 30:1 34:3 45:2 49:1 141:1 179:1 245:1 446:1 
0.5 2:1 5:2 14:1 15:1 35:2 78:1 81:2 141:1 170:1 
0.5 0:2 1:2 3:2 14:1 21:1 22:1 53:2 67:1 68:1 81:2 394:1 397:1 853:2 
0.5 28:1 34:1 166:1 167:1 
0.5 10:1 14:1 21:1 28:1 30:1 35:2 39:1 197:2 199:2 220:1 278:1 279:1 
0.4987629460650703 21:1 22:1 27:1 138:1 394:1 
0.5 1:2 14:1 35:2 86:1 285:1 288:2 
0.5 7:1 21:1 22:1 44:2 63:2 103:2 104:1 234:1 247:2 249:1 307:1 327:1 723:2 725:1 
0.5 2:2 5:1 13:2 14:1 35:2 45:1 49:1 81:2 228:1 349:1 372:1 547:1 601:1 633:2 720:1 
0.5 1:2 7:1 18:2 21:1 64:1 155:1 178:1 189:1 255:1 283:2 727:1 
0.5 1:2 27:1 86:1 157:1 275:1 339:1 373:2 378:1 388:1 499:1 827:2 
0.5 1:1 5:1 7:1 30:2 35:2 40:1 68:1 98:1 116:2 189:1 239:1 325:1 945:1 950:1 
0.5 16:2 67:1 86:1 100:1 103:2 104:1 349:1 
0.5 1:1 53:2 65:1 69:1 172:1 
0.2383647216491576 1:2 33:2 72:1 86:1 178:1 187:1 227:1 677:1 
0.5 2:1 86:1 157:1 162:1 417:1 
0.5 0:1 21:1 28:1 34:1 128:1 245:1 253:2 254:1 
0.5 2:1 7:1 13:2 14:1 33:3 36:1 43:2 45:1 178:1 179:1 228:1 251:1 269:1 349:1 486:1 1097:2 
0.5 0:1 2:1 21:1 22:1 28:1 30:1 31:1 34:1 90:2 92:1 128:1 141:1 242:1 243:2 
0.5 21:1 22:1 27:1 41:1 136:1 166:2 167:1 393:2 535:2 542:1 543:2 
0.5 7:1 14:1 16:2 26:2 28:1 29:2 30:1 35:2 78:1 87:1 92:1 95:1 136:1 158:1 239:1 240:1 474:2 477:2 490:1 547:1 609:1 743:2 
0.5 0:1 1:1 3:2 10:1 30:1 40:2 242:1 298:1 299:1 
0.5 21:1 22:1 167:1 703:2 705:1 
0.5 1:1 14:1 33:2 35:2 36:2 38:1 72:1 178:1 
0.5 1:1 14:1 15:1 27:2 29:1 35:2 72:1 78:1 86:1 136:1 342:1 343:2 451:1 
0.5 0:1 1:1 3:2 14:1 33:2 36:1 39:1 117:2 199:1 279:1 296:1 297:1 
0.5 1:1 13:2 21:1 33:2 35:2 40:1 86:1 92:1 158:1 178:1 220:1 
0.5 0:1 5:1 21:1 30:2 34:1 59:1 128:1 141:1 245:1 
0.5 2:1 10:1 14:1 21:1 27:1 28:1 40:1 117:1 279:1 
0.5 28:1 34:1 41:1 128:1 145:1 166:1 
0.5 9:1 14:1 28:1 34:1 35:2 45:1 53:3 129:1 141:1 220:1 221:1 
0.5 15:1 35:2 37:1 40:3 41:1 44:2 78:1 263:2 298:1 299:1 447:2 701:1 1037:2 1041:1 1042:1 
0.5 1:1 9:1 16:2 30:1 33:2 135:2 179:1 518:1 745:1 
0.5 35:2 92:1 383:2 386:1 647:1 654:1 
0.5 3:2 67:2 100:1 110:1 187:1 189:1 191:1 1069:1 
0.5 35:2 406:1 408:1 527:1 592:1 595:2 764:1 
0.5 1:1 16:2 35:2 67:1 86:1 92:1 197:1 281:2 675:1 748:1 
0.5 1:1 7:1 33:2 197:1 337:1 1069:1 
0.5 21:1 39:1 40:2 53:2 61:1 63:2 355:1 618:1 723:2 
0.5 1:1 2:1 16:2 33:2 86:1 172:1 394:1 
0.5 0:1 21:1 22:1 44:1 77:2 82:1 395:1 490:1 713:2 
0.5 34:1 37:1 41:1 43:2 45:1 136:1 278:1 369:1 
0.5 14:1 37:1 41:1 86:1 90:1 115:1 197:1 199:1 333:2 1237:1 
0.5 7:1 10:1 21:1 29:1 34:1 43:2 45:1 136:1 145:1 146:1 478:1 
0.5 21:1 114:1 229:1 230:1 235:2 1011:1 
0.5 13:2 34:1 35:2 43:2 44:2 45:2 52:2 77:2 79:1 80:1 82:2 136:2 
0.5 9:1 13:2 14:1 18:1 20:1 35:2 87:1 220:1 
0.5 13:2 14:1 21:1 27:1 28:2 29:1 30:1 31:1 35:2 44:1 52:1 78:1 136:1 141:1 165:1 239:1 477:1 588:1 
0.5 1:1 10:1 14:1 34:1 85:1 86:1 91:1 1019:1 
0.5 1:1 7:1 227:1 229:1 230:1 835:2 
0.5 1:1 14:1 16:2 33:2 38:1 87:1 317:1 342:1 613:2 896:1 
0.5 0:1 1:1 14:2 15:1 21:1 22:1 24:1 35:2 42:1 78:1 103:2 142:1 197:1 343:2 477:1 619:2 620:2 627:1 
0.5 34:1 43:2 45:1 136:1 330:1 543:2 
0.5 0:1 1:1 10:2 14:1 28:1 35:2 72:1 86:1 126:1 140:1 152:1 330:2 
0.5 2:1 16:2 21:1 67:1 86:1 187:1 382:1 
0.5 0:1 72:1 86:1 91:1 255:1 283:2 337:1 338:1 527:1 
0.45887386488267 1:1 155:1 178:1 187:1 677:1 1122:1 
0.5 1:1 2:1 14:1 33:2 47:1 116:2 
-0.5 21:1 65:1 187:1 197:1 755:1 950:1 990:1 992:1 
-0.5 21:1 22:1 40:1 146:1 525:1 709:1 911:1 
-0.5 0:1 10:1 28:1 34:1 35:2 126:1 128:1 480:1 
-0.5 6:1 14:1 15:1 35:2 68:1 78:1 90:1 116:2 290:1 291:1 292:1 
-0.5 16:2 22:1 86:1 104:1 327:1 499:1 
-0.5 14:1 34:1 41:1 52:1 72:2 86:1 117:1 178:1 342:1 373:2 451:1 452:1 
-0.5 14:1 15:1 35:2 44:1 77:1 78:1 79:1 81:2 82:1 
-0.5 1:1 31:1 32:1 33:2 34:1 39:1 42:1 197:1 199:1 609:1 774:1 1161:2 1162:2 
-0.5 0:1 3:2 40:1 86:1 92:1 100:1 189:1 231:1 386:1 524:1 537:2 598:1 599:1 
-0.5 1:1 16:2 33:2 72:1 86:1 189:1 229:2 349:1 
-0.5 1:1 21:1 22:1 34:2 45:1 86:1 157:1 179:1 226:1 290:2 442:1 565:1 708:1 1072:1 1119:1 
-0.5 0:1 1:1 3:2 7:1 10:1 27:1 30:1 166:1 167:1 170:1 275:1 401:1 451:1 
-0.5 1:1 15:1 18:1 35:2 64:1 78:1 86:1 390:1 392:1 535:2 963:2 
-0.5 0:1 2:1 10:2 21:1 22:1 28:1 35:2 37:1 40:1 41:1 43:2 45:1 58:1 72:2 126:1 129:1 141:1 242:1 298:1 299:1 480:1 
-0.5 7:3 95:2 178:1 336:1 1010:2 1011:1 
-0.5 3:2 27:1 35:2 88:1 126:1 137:1 239:1 383:2 393:2 395:1 
-0.5 0:1 2:1 7:1 21:1 22:1 179:2 263:2 264:1 265:1 268:1 269:1 1041:1 1042:1 
-0.5 1:1 10:1 14:1 15:1 34:1 35:2 72:1 78:1 86:2 95:1 97:1 135:2 169:1 189:1 518:1 
-0.5 1:1 2:1 6:1 12:1 14:1 34:1 68:1 116:2 142:1 169:1 179:1 287:1 291:1 397:1 791:1 
-0.5 0:1 10:1 28:1 34:1 35:2 72:1 126:1 128:1 
-0.5 2:3 5:2 13:2 14:1 22:1 35:2 58:1 72:1 176:1 312:1 397:1 401:1 602:1 
-0.5 2:1 14:1 33:2 35:2 36:2 78:1 447:1 463:2 
-0.5 21:1 22:1 27:1 131:1 136:1 275:1 393:2 542:1 543:2 
-0.5 14:1 67:3 197:1 255:1 283:2 
-0.5 0:1 1:1 3:2 4:1 10:1 34:1 43:2 45:1 72:1 136:1 145:1 176:1 185:1 480:1 543:2 1458:1 
-0.5 1:1 14:2 24:1 35:2 68:1 86:1 90:1 92:1 95:1 96:1 131:2 142:1 202:2 552:1 
-0.5 0:1 1:1 3:2 6:1 12:1 14:2 68:1 81:2 116:2 142:1 169:1 179:1 202:1 228:1 290:1 291:1 349:1 
-0.5 21:1 22:1 39:1 40:1 257:1 532:1 
-0.5 0:1 14:1 34:2 35:2 126:1 128:1 137:1 141:1 146:1 257:2 
-0.5 34:1 43:2 45:1 52:1 104:1 121:1 136:1 153:2 156:1 395:1 647:1 701:1 
-0.5 1:1 7:1 14:1 34:1 68:2 170:1 179:2 392:1 395:1 442:2 565:1 729:2 
-0.5 7:1 37:1 41:1 43:2 115:1 270:1 288:1 667:1 950:1 
-0.5 34:1 65:1 68:1 178:1 327:1 922:1 
-0.5 21:1 22:2 28:2 53:2 54:1 55:1 59:2 68:1 136:1 175:1 446:1 477:1 
-0.5 14:2 15:1 21:1 34:1 35:2 68:1 72:1 78:1 81:2 86:2 166:1 167:1 245:1 276:1 294:1 879:1 
-0.5 35:2 40:1 45:1 96:1 162:1 417:1 504:1 542:1 
-0.5 10:1 21:1 22:1 52:1 136:1 144:1 146:1 478:1 
-0.5 30:1 34:1 43:2 45:1 136:1 356:1 535:2 542:1 543:2 
-0.5 14:2 16:2 30:1 33:2 35:2 275:1 285:1 288:1 1476:1 
-0.5 21:1 22:1 33:2 36:1 114:1 447:1 463:2 
-0.5 0:1 1:1 10:1 35:2 90:1 126:1 167:1 197:1 333:2 334:1 
-0.5 1:1 5:1 30:2 35:2 40:1 68:1 86:1 93:2 116:2 162:1 189:1 239:1 325:1 743:2 950:1 
-0.5 1:1 80:1 108:1 209:1 381:2 382:1 748:1 
-0.5 1:2 14:1 16:2 33:4 35:2 65:1 78:1 86:1 158:1 178:1 197:1 
-0.5 10:1 21:1 30:1 34:1 35:2 45:1 126:1 128:1 145:1 146:1 167:1 185:1 324:1 400:1 475:1 703:2 
-0.5 0:1 1:1 3:2 33:2 36:1 37:1 41:1 68:1 165:1 463:2 525:1 
-0.5 21:1 22:1 112:2 
-0.4349417583180123 14:1 16:2 21:1 26:1 30:2 52:1 86:1 239:1 240:1 474:1 477:2 490:1 547:1 
-0.5 1:1 7:1 14:1 21:1 22:1 34:1 35:2 68:1 72:2 86:1 116:2 166:1 167:1 189:1 202:1 383:2 1189:1 
-0.5 1:1 21:1 53:2 61:1 63:2 64:1 72:1 86:1 114:1 146:2 264:1 275:1 709:2 
-0.5 2:1 14:1 16:2 22:2 44:1 78:1 251:1 264:1 435:2 667:1 
-0.5 2:1 7:1 14:1 179:1 264:2 354:1 442:1 499:1 
-0.5 1:1 2:1 16:2 33:2 86:1 135:2 390:1 
-0.5 21:1 41:1 53:2 61:1 63:2 723:2 
-0.5 14:1 16:2 27:1 37:1 41:1 52:2 78:1 136:1 165:1 
-0.5 40:1 115:1 504:1 
-0.5 5:1 34:1 59:1 74:1 128:1 139:2 
-0.5 21:1 36:1 40:1 78:1 525:1 
-0.5 0:2 2:1 7:1 35:2 165:1 179:2 262:2 263:2 264:1 265:1 268:1 269:1 
-0.4198447217754779 14:1 16:2 197:1 251:1 356:1 667:2 
-0.5 0:1 1:1 10:2 28:1 35:2 40:1 86:1 126:1 140:1 330:2 595:1 
-0.5 7:1 22:1 53:2 65:1 69:1 84:1 178:1 537:1 671:1 709:1 922:1 
-0.5 2:1 3:2 7:1 10:1 14:1 15:1 34:1 35:2 68:1 78:1 116:2 234:1 386:2 
-0.5 7:1 34:1 72:1 87:1 108:1 110:1 112:2 176:1 381:2 382:1 527:1 
-0.5 1:1 35:2 73:2 86:1 338:1 
-0.5 0:2 1:1 14:1 15:1 21:1 22:1 35:2 52:1 78:1 86:1 157:1 191:1 226:1 399:1 798:1 
-0.5 0:1 1:1 3:2 4:1 10:1 14:1 21:1 30:1 34:1 37:1 40:1 41:1 86:1 145:2 179:1 185:2 
-0.5 13:2 14:1 18:1 22:1 33:2 35:2 43:2 45:1 47:1 136:1 402:1 
-0.5 1:2 7:1 21:1 22:1 33:3 36:3 39:1 40:3 44:1 92:1 116:2 189:1 279:2 299:1 371:1 373:2 389:1 827:1 
-0.5 0:1 10:1 28:1 34:1 35:2 40:2 126:1 128:1 279:2 299:1 524:1 
-0.5 3:2 10:1 14:2 15:1 21:1 35:2 68:1 78:1 81:2 86:1 95:2 116:2 162:1 245:1 401:1 638:1 
-0.5 2:2 22:1 35:2 84:1 92:1 263:2 264:1 359:1 613:2 844:1 
-0.5 1:1 21:1 22:1 28:1 65:1 128:1 179:1 311:1 373:2 375:1 378:1 
-0.5 34:1 43:2 44:1 45:1 52:1 77:1 79:1 82:1 136:1 
-0.5 0:1 3:2 6:1 7:1 14:1 72:1 142:1 169:1 179:1 291:1 292:1 293:2 791:1 
-0.5 14:1 86:1 108:1 281:2 333:2 381:2 382:1 392:1 896:1 
-0.5 0:1 1:1 3:2 33:2 36:1 39:1 40:1 369:1 911:1 
-0.5 1:2 4:1 9:2 14:1 72:1 86:1 331:1 342:1 518:1 
-0.5 43:2 45:1 53:2 65:1 187:1 197:1 613:2 754:1 950:1 990:2 
-0.5 1:1 10:4 21:1 26:1 30:1 53:2 72:2 145:3 146:1 239:1 
-0.5 21:1 53:2 63:2 197:1 199:1 221:1 279:1 307:1 703:2 723:2 917:1 
-0.5 14:1 34:1 37:1 41:1 52:1 72:2 86:1 117:1 178:1 342:2 373:2 452:1 795:1 
-0.5 20:1 21:1 22:1 34:1 47:1 86:1 
-0.5 21:1 41:1 53:2 61:1 63:2 531:1 
-0.5 21:1 22:1 40:1 146:1 525:1 709:1 911:1 
-0.5 7:1 14:1 33:2 35:2 36:1 78:1 389:1 637:3 1871:2 
-0.5 1:2 7:1 10:1 35:2 42:1 68:2 116:2 130:1 131:1 189:1 234:1 295:2 343:2 
-0.5 27:1 34:1 41:1 43:2 45:1 52:1 136:1 166:2 167:1 275:1 393:2 
-0.5 2:2 7:1 21:2 22:2 43:2 72:1 146:1 228:1 423:3 
-0.5 21:1 40:1 53:2 61:1 63:2 199:1 279:1 299:1 355:1 531:1 618:1 
-0.2324561817147264 21:1 40:2 53:2 61:1 63:2 64:1 247:1 355:1 618:1 
-0.5 1:1 2:1 7:1 14:1 15:1 27:1 30:1 35:2 78:1 81:2 92:1 145:1 167:1 184:1 185:1 294:1 
-0.5 7:1 14:1 15:1 34:1 35:2 73:2 78:1 98:1 372:1 373:2 
-0.5 0:1 1:1 2:1 3:2 7:1 14:1 72:1 157:1 166:1 169:1 286:1 397:1 401:1 421:1 797:1 
-0.5 0:1 1:1 3:2 33:2 36:1 39:1 40:1 279:1 296:1 299:1 435:2 
-0.5 14:1 16:2 92:1 119:1 251:1 
-0.5 0:1 21:1 22:1 28:1 34:1 128:1 166:1 167:1 
-0.5 0:1 1:1 3:2 33:2 36:1 39:1 40:1 279:1 299:1 
-0.5 21:1 28:3 394:1 587:1 588:1 
-0.5 1:1 65:2 67:1 68:1 72:1 75:1 527:1 
-0.5 14:1 15:1 30:1 35:2 72:1 78:1 81:2 85:1 86:1 90:1 91:1 167:1 703:2 
-0.5 7:1 21:1 22:1 68:1 116:2 130:1 131:1 234:1 343:2 1017:1 
-0.5 21:1 22:1 28:1 55:1 141:1 311:1 
-0.5 2:1 16:2 67:1 100:1 103:2 110:2 187:1 227:1 287:1 675:1 677:1 
-0.5 7:1 13:2 14:1 34:1 64:1 72:1 90:1 115:1 169:1 197:1 333:2 375:1 1119:1 
-0.5 1:1 65:2 69:1 75:1 
-0.5 3:2 10:1 30:1 34:1 39:1 40:1 43:2 45:1 136:1 197:2 199:2 242:1 278:1 279:1 307:1 369:1 
-0.5 0:2 1:2 3:2 4:1 34:1 35:2 43:2 45:1 126:1 137:1 145:2 172:1 176:1 185:2 383:2 595:1 609:1 
-0.5 27:1 28:1 34:2 43:2 45:2 56:1 59:1 136:2 166:1 286:1 421:1 
-0.5 1:1 2:1 14:1 15:1 35:2 72:1 78:1 86:1 161:1 179:1 264:2 268:1 349:1 442:1 
-0.5 2:1 14:1 33:3 35:2 36:2 68:2 78:1 371:1 435:2 463:2 1135:2 
-0.5 35:2 40:1 45:1 325:1 504:1 
-0.5 1:1 15:1 28:1 33:2 35:2 36:2 40:1 72:1 78:1 86:1 342:1 389:2 1059:1 
-0.5 3:2 67:2 100:1 110:1 187:1 189:1 191:1 
-0.5 14:1 16:2 35:2 45:1 72:1 86:1 115:1 1059:1 1071:1 1151:2 
-0.5 35:2 78:1 162:1 552:1 1458:1 
-0.5 7:1 72:1 79:1 80:1 92:1 93:2 95:1 96:1 97:1 98:1 
-0.5 15:1 22:1 27:1 30:2 35:2 39:1 40:2 43:2 62:1 78:1 86:1 135:2 284:1 291:1 304:1 390:1 403:2 543:2 609:1 610:1 
-0.5 0:1 3:2 37:1 41:1 117:2 199:2 279:1 531:1 537:1 599:1 
-0.5 1:1 7:1 14:1 21:2 27:1 30:1 68:1 72:1 86:1 93:2 95:1 97:1 116:2 162:1 638:2 
-0.5 5:1 21:1 28:1 35:2 87:1 119:1 122:1 220:1 539:1 547:1 
-0.5 28:1 30:1 34:1 40:1 43:2 45:1 136:1 166:1 286:1 355:1 421:1 618:1 703:2 917:1 
-0.5 1:1 5:1 35:2 73:2 86:1 338:1 
-0.5 1:2 9:1 10:1 35:2 86:1 115:1 155:1 743:2 
-0.5 0:1 2:1 7:1 21:1 22:1 36:1 68:1 179:2 263:2 264:1 268:1 269:1 1135:2 
-0.5 13:2 27:1 34:1 35:2 43:2 45:2 52:1 136:2 166:1 167:1 170:1 275:1 553:2 
-0.5 1:1 7:1 18:1 21:1 64:1 189:1 535:2 692:1 963:2 1115:1 
-0.5 2:1 7:2 14:1 30:2 40:1 44:1 56:1 93:2 98:1 223:2 239:1 321:1 325:1 636:1 
-0.3346150133988753 1:1 10:2 14:1 16:2 30:1 35:2 40:1 86:1 145:1 167:1 185:1 474:1 590:1 
-0.5 35:2 37:1 40:2 41:1 100:1 263:2 1041:1 1042:1 1247:2 
-0.5 0:1 1:1 3:2 14:1 33:2 36:1 39:1 117:1 296:1 297:1 
-0.08431239852783928 2:1 14:1 16:2 18:1 68:1 86:1 87:1 291:1 307:1 609:2 610:1 
-0.5 14:1 27:1 29:1 35:2 41:1 72:1 78:1 145:1 166:2 167:1 169:1 170:1 395:1 
-0.5 2:3 10:1 14:1 34:1 72:1 92:1 126:1 145:1 179:1 185:1 307:1 343:2 373:2 456:1 595:1 661:2 703:2 705:1 917:1 1204:1 
-0.5 3:2 33:2 36:1 37:1 40:1 41:1 296:1 298:1 299:1 781:2 
-0.5 21:1 35:2 40:1 53:2 54:1 58:1 63:2 249:1 723:2 
-0.5 21:1 22:1 138:1 395:1 
-0.5 16:2 35:2 78:1 143:2 220:1 657:1 835:2 837:2 1294:2 1295:2 1296:2 
-0.5 4:1 5:1 6:1 7:2 10:1 16:2 44:1 349:1 450:1 1017:1 
-0.2144390575939204 14:2 16:2 34:1 35:2 44:1 68:1 81:2 86:1 91:1 92:1 153:2 234:1 235:2 404:1 405:1 654:1 692:1 705:1 879:1 
-0.5 1:2 2:1 3:2 9:1 10:1 72:1 86:1 169:1 
-0.5 21:1 39:1 40:1 53:2 61:1 63:2 275:1 524:1 
-0.5 21:1 22:1 27:1 41:1 136:1 166:2 167:1 275:1 393:2 542:1 543:2 
-0.4691679587707966 16:2 22:1 84:1 167:1 1031:1 
-0.5 1:1 5:2 6:1 14:1 15:1 34:1 35:2 68:1 78:1 81:2 86:1 116:2 291:1 791:1 1126:1 
-0.5 1:2 86:1 114:1 157:1 339:1 373:2 388:1 399:1 827:2 
-0.5 21:1 22:1 39:1 40:2 257:1 532:1 
-0.5 14:1 16:2 44:1 77:1 82:1 137:1 713:2 1148:1 
-0.5 2:2 7:1 35:2 40:1 50:1 86:1 87:1 92:1 229:1 231:1 386:1 408:1 431:1 524:1 537:1 599:1 764:1 
-0.5 15:1 35:2 39:1 40:1 78:1 172:1 435:2 627:1 
-0.5 1:1 14:1 15:1 35:2 73:2 78:1 81:2 86:1 139:2 373:2 827:1 
-0.5 0:1 1:1 2:1 3:2 33:2 36:1 37:1 39:2 40:2 41:1 298:1 299:1 375:1 435:2 
-0.3260126226410704 14:1 15:1 16:2 22:1 27:1 30:1 39:1 40:1 138:1 769:1 
-0.5 1:1 18:1 21:1 22:1 36:1 64:2 86:1 189:1 963:2 
-0.5 0:2 1:1 10:1 21:1 22:1 28:1 30:1 35:2 72:1 126:1 128:1 356:1 400:1 
-0.5 0:1 1:1 10:1 30:1 35:2 40:2 53:2 58:1 126:1 221:1 242:1 298:1 299:1 
-0.5 22:1 35:2 44:1 78:1 87:1 130:1 178:1 246:2 290:1 527:1 790:1 
-0.5 1:3 5:1 7:2 34:1 35:2 45:1 49:1 81:2 130:1 132:1 202:1 372:1 547:1 601:1 633:2 
-0.5 67:2 197:1 281:2 283:2 
-0.5 13:2 31:1 32:1 35:2 285:1 288:1 835:2 844:1 
-0.5 6:1 7:1 43:2 115:1 130:2 401:1 442:1 565:1 
-0.5 1:1 2:1 16:2 33:2 53:2 86:1 477:1 547:1 665:1 752:1 
-0.5 2:2 14:1 34:1 96:1 119:1 142:1 153:2 154:2 156:1 157:1 160:1 202:1 879:1 1019:1 
-0.5 0:1 1:1 3:2 6:1 14:2 72:1 73:2 86:1 139:2 246:1 372:1 791:1 
-0.2684284998363748 13:2 30:1 34:1 35:2 39:1 40:2 43:2 45:2 136:2 197:2 199:2 242:1 278:1 279:1 355:1 369:1 618:1 
-0.5 9:1 21:1 53:2 103:2 112:1 178:1 189:1 327:1 355:1 
-0.5 21:2 22:2 137:1 336:2 383:2 507:1 
-0.5 0:2 1:2 3:2 13:2 14:1 34:1 35:2 81:2 86:1 88:1 104:2 121:2 156:1 160:1 202:1 386:1 654:1 692:1 705:1 879:1 
-0.5 21:1 40:2 53:2 61:1 63:2 64:1 355:1 618:1 
-0.5 0:2 2:1 3:2 6:2 35:2 37:1 40:1 41:1 86:1 126:1 130:1 226:1 246:1 254:1 290:1 292:1 293:2 402:1 480:1 534:2 791:1 
-0.5 35:2 179:1 189:1 264:1 268:1 390:1 413:2 442:1 1069:1 1432:2 
-0.5 5:1 7:1 14:1 15:1 21:1 27:1 28:1 35:2 68:3 72:1 78:1 116:2 294:2 
-0.4028444681995893 10:1 14:1 16:2 30:1 39:1 41:1 145:1 185:1 720:1 
-0.5 2:1 14:3 16:2 21:1 22:1 33:2 36:1 117:1 197:1 278:1 297:1 307:1 370:1 371:1 394:1 
-0.5 35:2 37:1 41:1 45:1 72:1 504:1 
-0.5 0:1 1:1 3:2 10:2 37:1 40:1 41:1 145:1 153:2 154:1 165:1 242:1 298:1 299:1 480:1 
-0.09438843904120132 2:1 14:1 16:2 21:2 26:1 27:1 28:1 30:2 44:1 73:2 86:1 176:1 254:1 769:1 1031:1 
-0.5 10:1 21:1 28:1 30:1 35:2 37:1 40:1 41:1 44:1 126:1 298:1 299:1 480:1 
-0.5 14:1 16:2 44:1 77:1 78:1 82:1 137:1 713:2 
-0.5 14:2 15:1 34:1 35:2 72:1 78:1 81:2 160:1 166:1 167:1 170:1 202:1 245:1 276:1 342:1 879:1 
-0.5 1:1 14:1 34:1 35:2 72:1 78:1 86:1 96:1 153:2 160:1 202:1 403:2 404:1 405:1 1189:1 
-0.5 0:1 21:1 22:1 53:2 81:2 
-0.5 14:1 34:1 65:1 69:1 86:1 178:1 329:1 613:2 
-0.5 1:1 5:1 10:1 16:2 27:1 28:1 35:2 86:1 119:1 120:2 539:1 547:1 595:1 745:1 1019:1 
-0.5 1:1 31:1 32:1 33:2 34:1 42:1 197:1 199:1 279:1 609:1 774:1 1161:2 1162:2 
-0.5 21:1 24:1 30:1 331:1 
-0.5 13:2 14:1 15:1 21:1 27:1 28:1 35:2 44:2 81:2 85:1 86:1 91:1 
-0.5 1:1 4:1 9:1 16:2 86:1 92:1 518:1 547:1 
-0.5 14:1 15:1 27:2 30:1 35:2 40:3 78:1 197:1 251:1 392:1 481:2 535:2 701:1 873:2 
-0.5 1:1 21:1 37:1 39:1 41:1 53:2 61:1 63:2 64:1 72:1 169:1 194:1 197:1 198:1 199:1 
-0.5 1:1 2:1 42:1 131:2 170:1 202:1 
-0.5 0:1 1:1 2:1 3:2 5:2 6:1 7:1 8:1 12:1 14:1 68:1 86:1 142:1 234:1 245:1 715:1 
-0.5 2:1 10:3 35:2 45:1 87:1 145:1 153:4 154:2 321:1 326:1 401:1 402:1 403:2 404:2 405:2 504:1 
-0.5 14:1 53:2 172:1 178:2 786:1 787:1 1011:2 
-0.5 0:1 1:1 35:2 36:1 126:1 197:1 199:1 279:1 297:1 1161:1 1162:1 
-0.4711030972311145 7:1 14:1 15:1 16:2 22:1 34:1 43:2 44:1 45:1 77:1 79:1 80:1 82:1 83:2 136:1 137:2 383:2 
-0.5 21:1 22:1 28:1 141:1 166:1 167:1 311:1 
-0.5 14:1 86:1 108:1 281:2 333:2 381:2 382:1 392:1 896:1 
-0.5 1:1 21:1 22:1 157:1 162:2 275:1 373:2 417:2 827:1 
-0.5 1:2 2:2 5:1 42:1 73:2 95:1 98:1 119:1 372:1 790:1 1019:1 
-0.5 21:1 53:2 63:2 197:1 199:1 221:1 275:1 279:1 307:1 703:2 917:1 
-0.5 0:1 21:1 22:1 37:1 41:1 74:1 126:1 172:1 197:1 199:1 240:1 257:2 581:2 720:1 1059:1 1119:1 1521:2 
-0.5 0:1 1:1 3:2 10:1 21:1 28:1 30:1 40:1 44:1 279:1 655:1 656:1 
-0.5 28:1 34:1 128:1 223:2 
-0.5 28:1 34:1 55:1 166:1 167:1 1458:1 1459:1 
-0.5 2:1 7:1 14:1 28:1 35:2 44:1 47:1 72:1 78:1 92:1 240:1 245:1 354:1 551:1 879:1 1119:1 
-0.5 0:1 1:1 35:2 36:1 37:1 41:1 126:1 297:1 1161:1 1162:1 
-0.5 1:1 14:1 26:1 35:2 72:2 78:1 86:1 87:1 144:1 179:1 359:1 390:1 403:2 654:2 745:1 
-0.5 1:1 6:1 7:1 21:1 22:1 34:2 45:1 132:1 179:1 226:1 290:3 336:1 442:1 790:1 1072:1 
-0.5 14:1 15:1 35:2 44:1 52:1 72:1 86:1 87:1 93:2 115:1 162:1 169:1 189:1 215:1 
-0.5 33:2 35:2 36:1 40:1 114:1 126:1 525:1 
-0.5 16:2 67:1 86:1 100:1 103:2 104:1 
-0.5 1:1 7:1 14:1 15:1 18:1 24:1 35:2 64:2 78:1 390:1 535:2 705:1 963:2 
-0.5 1:1 31:1 32:1 34:1 86:1 92:1 229:1 230:1 251:1 
-0.5 0:1 1:1 3:2 5:1 136:1 165:1 421:2 539:1 
-0.5 2:1 21:1 22:1 34:1 40:1 43:2 45:1 289:1 375:1 486:1 655:1 656:1 
-0.5 2:1 14:1 27:1 37:1 41:1 92:1 131:1 162:1 170:1 275:1 417:1 451:1 
-0.5 1:1 10:1 14:1 21:1 24:1 26:1 30:1 34:1 35:2 72:1 73:2 86:1 189:1 228:1 323:2 342:1 373:2 827:1 
-0.5 0:1 2:1 13:2 14:1 21:1 33:2 36:1 47:1 72:1 87:1 115:1 269:1 386:1 388:1 
-0.5 3:2 7:1 21:1 33:2 36:1 40:1 525:3 
-0.5 14:1 15:1 35:2 40:3 44:1 78:1 92:1 436:3 447:1 873:2 1031:1 
-0.5 0:1 5:1 21:2 34:1 44:1 59:1 86:1 104:1 128:1 141:1 245:1 
-0.5 1:2 5:1 30:2 72:1 86:1 401:2 592:1 602:1 
-0.5 0:1 1:1 10:1 28:1 35:2 72:1 90:1 126:1 
-0.5 14:1 53:2 72:1 172:1 178:1 450:1 786:1 787:1 1011:2 
-0.5 1:2 5:2 24:1 30:1 73:2 81:2 86:1 223:2 337:1 
-0.5 14:1 15:1 34:1 35:2 68:1 72:1 78:1 85:1 86:1 88:1 90:1 91:1 116:2 
-0.5 7:1 10:1 14:2 18:1 30:1 34:1 35:2 40:1 64:1 220:1 242:1 
-0.5 0:1 1:1 3:2 78:1 137:1 769:2 770:2 
-0.5 34:1 65:1 75:1 86:1 104:1 178:1 329:1 
-0.5 2:1 14:1 33:3 35:2 36:2 68:2 78:1 371:1 435:2 463:2 1135:2 
-0.5 1:1 4:1 21:1 30:1 72:1 86:1 145:2 185:2 240:1 324:1 543:2 
-0.5 2:1 21:1 22:1 34:1 47:1 65:1 67:1 72:1 75:1 86:2 249:1 280:1 529:1 722:1 
-0.1087545697789878 14:1 16:2 30:1 81:2 87:1 545:1 547:1 
-0.5 2:1 7:1 14:2 15:1 18:1 22:1 35:2 64:1 78:1 146:1 169:1 307:2 402:1 963:2 
-0.5 5:1 14:1 15:1 21:1 28:1 35:2 37:1 41:1 73:2 78:1 117:1 141:1 523:2 
-0.3550471007725182 2:1 16:2 55:1 197:1 375:1 655:1 667:1 671:1 
-0.5 1:1 7:2 14:1 34:1 47:1 65:1 67:1 69:1 178:1 329:1 613:2 647:1 752:1 754:1 853:2 
-0.5 5:1 14:1 15:1 22:1 35:2 44:1 72:1 130:1 144:1 179:1 220:1 245:1 246:1 290:1 715:1 790:1 
-0.5 14:3 15:1 21:1 34:1 35:2 37:1 41:1 68:1 78:1 81:2 86:1 146:1 166:1 167:1 169:1 202:1 294:1 
-0.5 10:1 14:1 16:2 30:1 35:2 41:1 72:1 223:2 1174:2 
-0.4324815729051864 1:1 2:1 10:1 13:2 14:2 30:1 31:1 35:2 44:1 72:1 78:1 81:2 86:1 87:1 90:3 142:1 189:1 
-0.5 10:1 12:1 14:2 34:1 35:2 40:1 43:2 45:1 78:1 145:1 146:1 162:1 321:1 325:1 417:1 636:1 
-0.5 21:1 22:1 37:1 41:1 257:1 531:1 532:1 
-0.5 10:1 14:1 15:1 21:1 28:1 35:2 44:1 78:1 129:1 226:1 534:1 595:1 703:2 
-0.5 1:1 2:2 5:1 10:2 14:2 72:1 81:2 86:1 90:1 166:1 167:1 339:1 
-0.5 1:1 2:2 13:2 14:1 33:2 34:1 72:1 1124:1 
-0.5 0:1 21:1 22:1 72:1 162:1 245:1 276:1 342:1 552:1 553:2 
-0.5 0:1 1:1 4:1 15:1 22:1 25:1 35:2 72:1 78:1 84:1 100:1 137:1 147:1 167:2 215:1 239:1 240:1 
-0.5 0:1 21:1 22:1 28:1 30:1 40:2 279:2 299:1 
-0.5 2:1 9:1 20:1 30:1 65:1 75:1 178:1 329:1 
-0.5 10:3 14:1 21:1 22:1 30:1 34:1 92:1 145:1 146:2 162:1 417:1 
-0.5 67:2 100:1 287:1 1154:1 
-0.5 4:2 5:2 9:1 30:1 34:2 43:2 45:2 52:1 136:1 331:1 
-0.05739883398338703 1:1 2:1 9:1 10:1 14:1 16:2 30:1 33:2 86:2 92:1 178:1 304:1 307:1 327:2 355:1 863:2 
-0.4907085966861289 16:2 28:1 36:1 72:1 342:1 389:1 
-0.5 2:2 9:1 14:2 21:1 40:1 44:1 145:1 185:1 240:1 355:1 383:2 529:1 618:1 752:1 
-0.5 1:1 35:2 155:1 187:1 677:1 
-0.5 21:1 22:1 27:1 30:1 136:1 356:1 535:2 542:1 543:2 
-0.5 1:1 9:1 14:1 16:2 67:1 80:1 86:1 108:1 251:1 
-0.5 7:1 79:1 80:1 204:1 209:1 
-0.5 0:1 10:1 28:1 34:1 35:2 37:1 40:1 41:1 126:1 480:1 
-0.5 1:1 30:2 56:1 73:2 86:1 157:1 223:2 324:1 399:1 
-0.5 2:1 13:2 31:1 32:1 35:2 72:1 285:1 288:1 
-0.5 7:1 10:1 14:1 16:2 88:1 
-0.5 0:1 27:1 29:1 34:1 40:1 43:2 45:1 136:2 451:1 480:1 
-0.5 21:1 40:1 53:2 61:1 62:1 63:2 64:1 
-0.5 1:1 10:4 14:1 21:1 29:1 30:1 92:1 114:1 145:3 146:3 147:1 152:1 
-0.5 1:1 21:1 22:1 34:2 45:1 86:1 157:1 179:1 226:1 290:2 442:1 565:1 708:1 1072:1 
-0.5 7:1 10:3 14:1 21:1 30:1 35:2 78:1 146:1 474:1 
-0.5 0:1 1:1 3:2 6:1 72:1 73:2 86:1 245:1 246:1 
-0.2513448165387735 6:3 14:1 16:2 96:1 178:3 245:1 289:1 1017:1 1126:2 1189:2 
-0.5 0:1 2:1 21:1 22:1 65:4 68:1 69:1 75:1 
-0.1128657946291086 1:1 5:1 7:1 13:2 14:1 15:1 16:2 35:2 73:2 78:1 162:1 176:1 245:1 372:1 
-0.5 1:1 10:1 30:1 35:2 86:1 145:1 167:1 185:1 590:1 
-0.5 0:1 1:1 3:2 27:1 35:2 137:1 138:1 144:1 647:1 
-0.5 13:2 14:1 33:3 35:2 36:1 43:2 45:1 228:1 251:1 349:1 486:1 1097:2 
-0.5 0:1 1:1 21:1 27:1 28:2 35:2 41:2 126:1 129:1 137:1 138:1 141:1 
-0.5 1:1 2:1 15:1 31:1 33:2 35:2 39:1 40:1 57:1 72:1 78:1 86:1 342:1 392:1 613:2 774:1 1059:1 1298:1 
-0.5 2:1 3:2 7:1 10:1 90:1 167:1 178:1 197:1 333:2 713:2 1237:1 
-0.5 14:1 28:1 30:1 34:1 246:1 303:2 304:1 307:1 
-0.5 0:1 3:2 7:1 34:1 133:2 169:1 231:1 394:1 535:2 613:2 655:1 656:1 
-0.5 14:1 15:1 35:2 40:1 78:1 153:2 490:1 507:1 627:1 
-0.5 1:1 35:2 86:1 157:1 286:1 
-0.5 67:2 197:1 255:1 281:2 
-0.5 21:1 35:2 40:1 53:2 54:1 58:1 63:2 247:1 249:1 
-0.5 9:1 16:2 135:2 390:1 
-0.5 21:1 22:1 24:1 35:2 39:1 40:2 53:2 54:1 145:1 247:1 355:1 618:1 703:2 917:1 1476:1 
-0.5 0:1 1:1 3:2 14:1 33:2 36:1 40:1 279:2 296:1 297:1 299:1 
-0.5 2:1 7:1 9:1 21:1 63:2 65:1 75:1 104:1 159:1 722:1 
-0.5 0:1 10:1 28:1 34:1 35:2 37:1 41:1 72:1 126:1 128:1 141:1 146:1 480:1 
-0.5 10:1 21:1 27:1 28:1 35:2 41:1 126:1 
-0.5 1:1 7:1 13:2 14:1 15:1 35:2 68:2 78:1 86:1 104:2 115:1 116:2 121:2 386:1 654:1 692:1 
-0.5 0:1 9:1 21:1 22:1 92:1 112:2 327:1 355:1 863:2 1255:2 
-0.5 1:1 2:1 5:1 7:1 21:1 40:1 41:1 68:3 87:1 145:1 166:2 167:1 392:1 595:1 
-0.5 35:2 84:1 179:1 189:1 264:1 
-0.5 10:1 14:1 26:1 35:2 220:1 223:2 474:1 
-0.5 1:1 2:1 14:1 16:2 33:2 35:2 41:1 86:1 90:1 155:1 245:1 
-0.5 0:1 1:1 3:2 4:1 7:1 10:1 21:1 145:1 146:1 478:1 543:2 
-0.5 1:2 2:1 9:2 86:1 327:1 
-0.5 2:3 21:1 28:2 30:1 58:1 73:2 136:1 175:1 226:1 442:1 715:1 790:1 1204:1 
-0.5 2:1 9:1 14:1 16:2 53:2 67:1 72:1 86:1 155:1 204:1 209:1 327:1 665:1 932:1 
-0.5 0:1 21:1 22:1 44:1 65:2 69:1 234:1 725:1 
-0.5 7:1 14:1 15:1 35:2 78:1 153:2 229:1 230:1 231:1 235:2 251:1 507:1 
-0.5 0:1 1:2 3:2 21:1 30:1 72:1 86:2 95:1 97:1 202:1 245:1 401:1 638:2 
-0.5 2:1 3:2 27:1 33:2 103:2 138:1 535:2 
-0.5 0:1 3:2 6:1 234:1 290:1 291:1 292:1 293:2 343:2 1148:1 
-0.5 1:1 21:1 22:1 67:1 92:1 354:1 375:1 
-0.5 0:1 1:1 3:2 10:1 30:1 39:1 40:1 194:1 197:1 198:1 199:1 242:1 396:1 
-0.5 157:1 162:2 275:1 417:1 499:1 
-0.5 27:1 30:1 34:1 43:2 45:1 136:1 137:1 356:1 383:2 535:2 542:1 
-0.5 1:1 2:1 5:1 7:1 21:1 40:1 68:4 392:1 595:1 1122:1 
-0.5 2:1 21:1 22:1 65:3 68:1 69:1 75:1 375:1 
-0.5 0:1 21:1 34:1 41:1 59:1 128:1 145:1 166:2 167:1 
-0.5 2:1 14:3 16:2 21:1 22:1 33:2 36:1 114:1 117:1 197:1 278:1 297:1 307:1 370:1 371:1 
-0.5 7:1 9:1 47:1 67:1 92:1 159:1 197:1 199:1 281:2 294:1 334:1 675:1 786:1 
-0.5 1:1 5:1 30:1 35:2 40:1 68:1 86:1 93:2 116:2 162:1 239:1 325:1 950:1 
-0.5 1:1 7:1 18:2 21:1 51:1 53:2 61:1 63:2 64:1 172:1 296:1 531:1 709:1 963:2 1115:1 
-0.5 0:1 1:1 2:1 3:2 7:1 14:1 36:1 92:1 165:1 447:1 459:2 551:1 
-0.5 35:2 86:1 504:1 613:2 655:1 656:1 
-0.5 1:1 86:1 95:1 97:1 135:2 
-0.5 28:1 35:2 78:1 79:1 83:2 86:1 87:1 91:1 119:1 120:1 122:1 228:1 547:1 633:2 
-0.5 0:2 1:1 21:1 22:1 72:1 86:1 91:1 255:2 283:2 336:1 337:1 338:1 339:1 
-0.5 0:1 1:1 3:2 22:1 72:1 84:1 153:2 154:1 156:1 307:1 543:2 647:1 
-0.1198248089716269 1:1 2:1 10:1 13:2 14:2 15:1 30:1 31:1 35:2 72:1 78:1 81:2 86:1 90:3 142:1 189:1 
-0.5 21:1 39:1 40:2 53:2 61:1 63:2 355:1 531:1 618:1 
-0.5 14:1 21:1 22:1 33:2 
-0.5 1:1 21:1 22:1 28:1 65:1 128:1 179:1 373:2 375:1 378:1 446:1 
-0.5 0:1 1:1 3:2 21:1 27:1 28:1 86:1 136:1 146:1 166:2 592:1 769:1 1031:1 
-0.5 5:2 6:1 12:1 14:1 34:1 72:1 86:1 152:1 170:1 175:1 386:1 791:1 
-0.5 2:1 7:1 14:2 26:1 27:1 30:1 35:2 72:2 78:1 137:2 215:1 
-0.3322656019478599 1:2 5:1 10:1 16:2 30:1 86:1 92:1 139:2 264:1 324:1 1122:1 
-0.5 1:1 5:1 14:1 15:1 24:1 30:2 35:2 73:2 78:1 81:2 86:1 223:2 337:1 
-0.5 10:1 14:1 16:2 22:1 30:1 35:2 40:1 84:1 117:1 145:1 167:1 185:1 375:1 477:1 542:1 701:1 
-0.5 1:2 7:1 18:2 21:1 22:1 43:2 53:2 61:1 63:2 64:3 72:2 84:1 114:1 115:1 172:1 275:1 396:1 709:2 963:2 1115:1 
-0.5 0:1 28:1 34:1 1459:1 
-0.5 0:1 2:1 7:1 14:1 21:1 33:2 36:2 43:2 56:1 68:1 115:1 179:1 269:1 
-0.3705356621981787 1:1 7:1 14:1 34:1 47:1 65:1 67:1 69:1 86:1 178:1 329:1 613:2 647:1 752:1 754:1 853:2 
-0.5 1:1 10:1 15:1 30:1 35:2 72:1 78:1 86:1 90:1 92:1 145:1 147:1 167:1 185:1 239:1 543:2 
-0.5 1:1 15:1 35:2 78:1 86:1 114:1 157:2 339:1 388:1 705:1 
-0.5 21:1 30:1 40:1 53:2 54:1 63:2 275:1 279:1 299:1 304:1 
-0.5 1:1 33:2 86:1 197:1 
-0.5 3:2 21:1 22:1 64:1 172:1 197:2 199:2 279:1 532:1 
-0.5 1:1 2:1 14:1 35:2 81:2 86:1 202:1 263:2 296:1 613:2 
-0.5 0:1 35:2 72:1 126:1 162:1 534:1 
-0.5 30:1 35:2 40:1 242:1 307:1 
-0.5 14:1 18:1 35:2 72:1 86:1 92:1 131:2 220:1 251:1 289:1 354:1 413:2 581:2 
-0.1750853961253604 2:1 3:2 13:2 40:1 92:1 96:1 103:2 114:1 383:2 386:1 388:1 
-0.5 14:1 15:1 21:1 22:1 27:1 35:2 44:1 47:1 78:1 81:2 92:1 153:2 156:1 395:1 609:1 647:1 
-0.5 33:2 35:2 36:1 72:1 126:1 279:1 395:1 655:1 656:1 
-0.5 14:1 15:1 27:2 30:1 35:2 40:2 78:1 197:1 392:1 481:2 535:2 701:1 873:2 
-0.5 7:1 14:2 15:1 21:1 35:2 68:1 78:1 116:2 130:1 131:1 132:1 234:1 343:2 
-0.5 21:1 22:1 28:1 41:1 129:1 141:1 145:1 166:1 
-0.5 1:1 21:1 22:1 34:1 86:1 179:3 708:1 727:1 732:1 
-0.5 1:1 7:1 33:2 197:1 1069:1 
-0.5 21:1 30:1 40:1 53:2 54:1 63:2 279:1 299:1 304:1 723:2 
-0.5 10:1 14:1 16:2 34:1 72:1 85:1 86:1 88:1 90:1 91:1 
-0.5 0:1 22:1 28:2 34:1 55:1 128:1 178:1 311:1 312:1 
-0.5 0:1 9:1 21:1 22:1 92:1 112:2 327:1 355:1 863:2 1255:2 
-0.5 1:2 5:1 24:1 30:2 73:2 81:2 86:1 223:2 337:1 
-0.5 1:1 7:1 18:2 34:1 35:2 36:1 64:1 189:1 289:1 781:2 963:2 1115:1 
-0.5 10:1 14:1 24:1 26:1 28:1 30:1 35:2 52:1 78:1 87:1 92:1 162:1 552:1 1189:1 1458:1 
-0.5 2:1 7:1 10:1 14:1 21:1 35:2 40:1 44:1 86:1 189:1 254:1 312:1 321:1 325:1 336:1 636:1 
-0.5 1:1 2:1 14:2 33:2 44:1 86:1 92:1 147:1 296:1 408:1 
-0.5 1:1 13:2 20:1 65:1 75:1 178:1 327:1 329:1 
-0.5 21:1 22:1 30:1 53:2 54:1 61:1 62:1 197:1 199:1 304:1 1476:1 
-0.5 0:1 6:4 21:1 22:1 43:2 115:1 534:1 609:1 1126:1 
-0.5 14:1 26:1 29:1 30:2 35:2 220:1 331:1 474:1 475:1 477:1 
-0.5 1:1 7:1 18:2 35:2 64:1 189:1 231:1 289:1 963:2 1115:1 
-0.5 5:1 14:1 15:1 21:1 28:2 35:2 68:3 78:1 86:1 116:2 294:1 
-0.5 14:2 15:1 34:1 35:2 68:1 85:1 86:1 91:1 92:1 116:2 153:2 220:1 234:1 383:2 403:2 404:1 405:1 654:1 
-0.5 21:1 22:1 62:1 197:1 199:1 257:1 532:1 
-0.5 10:2 14:1 15:1 30:2 35:2 146:1 220:1 323:2 480:1 
-0.5 2:1 5:1 13:2 14:1 16:2 35:2 44:1 45:1 49:1 104:1 121:1 202:1 321:1 326:1 401:1 601:1 602:1 
-0.5 14:1 66:1 197:2 329:1 749:1 755:1 
-0.5 14:1 15:1 35:2 78:1 103:2 285:1 288:1 
-0.4457789182750174 16:2 40:1 42:1 240:1 394:1 395:1 524:1 537:2 598:1 599:2 
-0.5 7:1 14:2 15:1 21:1 34:1 35:2 68:2 78:1 85:1 86:1 88:1 91:1 104:1 116:2 121:1 156:1 
-0.5 1:1 16:2 80:1 92:1 204:1 284:1 748:1 
-0.5 21:1 22:1 40:1 275:1 525:1 655:1 656:1 911:1 
-0.5 1:1 5:1 6:1 14:1 16:2 78:1 86:1 339:2 1017:1 
-0.5 0:1 2:1 7:1 21:1 22:1 36:1 68:1 179:2 263:2 264:1 265:1 268:1 269:1 1135:2 
-0.5 7:2 15:1 22:1 35:2 43:2 78:1 87:1 227:1 229:1 230:1 235:2 236:1 284:2 655:2 
-0.5 21:1 40:1 53:2 61:1 63:2 199:1 247:1 279:1 299:1 355:1 618:1 
-0.5 21:1 40:2 53:2 61:1 63:2 64:1 355:1 531:1 618:1 
-0.4407171489396871 10:1 28:1 34:1 40:4 128:1 279:2 299:1 355:1 524:2 525:1 526:1 618:1 
-0.5 53:2 65:2 68:1 69:1 178:3 329:1 922:1 
-0.2996875161348633 14:1 16:2 36:1 37:1 41:1 278:1 297:1 369:1 370:1 394:1 1148:1 
-0.5 1:1 7:1 21:1 22:1 36:2 39:3 40:2 64:2 146:1 169:1 189:1 709:1 
-0.189715668396256 1:2 18:1 21:1 22:1 36:1 64:4 86:2 189:1 963:2 
-0.5 16:2 44:1 155:1 170:1 197:1 655:1 
-0.5 0:1 1:1 35:2 36:1 40:1 126:1 297:1 298:1 299:1 1161:1 1162:1 
-0.5 14:1 16:2 35:2 66:1 67:1 197:1 255:1 748:1 749:1 
-0.5 2:2 4:1 14:2 18:1 40:1 72:1 92:1 137:1 145:1 176:1 185:1 355:1 618:1 
-0.5 14:1 16:2 21:1 28:1 34:1 43:2 45:1 68:1 92:1 136:1 137:1 386:1 595:1 654:1 
-0.5 1:1 2:2 13:2 14:1 21:1 22:1 28:1 35:2 36:2 39:1 371:2 375:1 435:2 463:2 609:1 613:2 701:1 1298:1 
-0.5 0:1 1:1 3:2 7:1 24:2 26:1 30:2 34:1 35:2 45:1 52:1 86:1 239:1 312:1 477:1 701:1 
-0.5 10:1 13:2 14:2 15:1 35:2 72:1 78:1 81:2 87:1 90:1 166:1 167:1 613:2 
-0.4759700828085494 2:3 13:2 14:1 52:1 72:1 197:1 199:1 312:1 342:1 373:2 452:1 547:1 
-0.5 7:1 14:1 21:1 35:2 74:1 108:1 209:1 333:2 
-0.5 2:1 7:1 14:1 16:2 21:1 31:1 33:2 53:2 56:1 72:1 87:1 161:1 179:1 
-0.5 1:2 5:1 14:1 35:2 40:2 73:2 197:1 202:1 279:2 372:1 373:2 406:1 827:2 879:1 
-0.5 2:1 14:1 21:1 22:1 28:1 136:1 139:2 372:1 375:1 1458:1 
-0.5 1:1 2:1 7:1 10:1 14:1 43:2 72:1 228:1 307:1 383:2 537:2 613:2 703:2 917:1 
-0.5 0:1 10:2 14:2 16:2 21:1 28:1 34:1 35:2 72:1 78:1 90:1 595:1 1459:1 
-0.5 0:1 21:1 22:1 43:2 72:1 284:1 421:1 
-0.5 2:4 14:3 33:2 34:1 40:1 142:1 165:1 529:1 1124:1 
-0.5 14:1 21:1 28:1 30:1 35:2 136:2 166:1 220:1 286:1 421:1 
-0.5 14:2 15:1 21:1 35:2 68:2 78:1 81:2 86:1 146:2 166:1 167:1 170:1 234:1 245:1 276:1 342:1 343:2 
-0.5 7:1 21:1 22:1 44:2 62:1 63:2 103:2 104:1 234:1 247:1 249:1 307:1 327:1 722:1 723:2 725:1 
-0.5 178:1 786:1 787:1 
-0.5 31:1 32:1 34:1 40:1 43:2 86:1 284:1 285:1 286:1 288:1 
-0.5 31:1 32:1 34:1 285:1 288:1 
-0.5 0:1 21:1 28:1 34:1 128:1 245:1 253:2 254:1 
-0.5 1:1 21:1 22:1 65:2 86:1 142:1 189:1 197:2 950:1 990:1 992:1 1182:2 
-0.5 0:1 1:1 3:2 7:1 14:1 34:1 81:2 131:2 202:1 547:1 
-0.5 1:1 3:2 30:1 37:1 41:1 73:2 86:1 117:1 523:2 
-0.273490184784519 2:1 7:1 14:1 16:2 36:1 45:1 87:1 
-0.5 1:1 2:1 7:2 14:1 15:1 35:2 78:1 96:1 130:1 246:1 408:1 1133:2 
-0.5 1:1 13:2 20:1 65:1 69:1 178:1 327:1 922:1 
-0.5 7:1 21:1 22:2 37:1 41:1 172:1 227:1 394:1 655:2 656:2 657:1 
-0.5 0:1 1:1 3:2 21:1 28:1 137:1 392:1 595:1 1458:1 
-0.5 0:1 1:1 3:2 7:1 10:1 27:1 30:1 165:1 166:1 167:1 170:1 275:1 401:1 451:1 
-0.5 35:2 40:2 45:1 325:1 504:1 
-0.5 2:3 13:2 14:2 81:2 85:1 153:2 202:1 228:1 349:1 383:2 404:1 405:1 929:1 1204:1 
-0.5 13:2 31:1 35:2 36:3 116:2 117:1 243:2 447:1 463:2 
-0.5 21:1 28:1 34:1 104:1 121:1 156:1 245:1 790:1 1458:1 1459:1 
-0.5 2:2 7:1 14:1 33:2 36:2 178:1 1031:1 
-0.274805962545702 16:2 67:1 86:1 197:1 255:1 280:1 675:1 786:1 802:2 
-0.2356408274193526 2:1 14:1 16:2 33:2 44:1 69:1 86:2 87:1 100:1 178:1 226:1 371:1 431:1 537:1 598:1 599:1 764:1 798:1 
-0.5 33:2 35:2 155:1 189:1 853:2 
-0.5 0:1 21:1 28:1 34:1 128:1 245:1 253:2 254:1 
-0.5 2:2 8:1 13:2 14:2 35:2 40:1 68:1 92:1 96:1 119:1 132:1 708:1 1019:1 
-0.5 0:1 1:1 3:2 33:2 36:1 39:1 655:1 656:1 
-0.5 14:1 15:1 22:1 30:1 35:2 36:1 114:1 117:1 197:1 220:1 278:1 304:1 369:1 435:2 
-0.5 1:1 21:1 22:1 34:1 86:1 179:1 442:2 565:1 727:1 732:1 790:1 791:1 1133:2 
-0.5 14:1 15:1 35:2 44:2 77:2 78:1 79:1 80:1 81:2 82:2 83:2 
-0.5 6:1 12:1 14:2 15:1 34:1 35:2 68:1 78:1 86:1 116:2 291:1 791:1 
-0.5 0:1 1:1 14:1 33:2 35:2 38:1 47:1 251:1 317:1 
-0.5 0:1 21:1 28:1 34:1 104:1 121:1 128:1 141:1 245:1 
-0.5 21:1 41:1 53:2 61:1 63:2 
-0.5 1:1 10:1 86:1 307:1 327:1 863:2 
-0.3111357385354246 21:1 40:2 53:2 61:1 63:2 279:1 355:1 524:1 531:1 618:1 
-0.5 0:1 1:1 2:1 3:2 14:1 33:2 36:1 37:1 39:2 40:2 41:1 197:1 199:1 297:1 298:1 299:1 371:1 
-0.5 34:1 53:2 54:1 59:1 62:1 128:1 539:1 1458:1 1476:1 
-0.5 7:1 13:2 14:1 15:1 22:1 34:1 35:2 41:2 68:1 78:1 90:1 116:2 166:2 167:1 
-0.5 47:1 65:2 66:1 67:2 69:1 527:1 529:1 
-0.5 1:1 13:2 31:2 32:2 33:2 34:1 35:2 36:1 37:1 38:1 39:1 40:1 41:1 42:1 
-0.5 1:1 14:1 86:1 114:1 133:2 394:1 929:2 
-0.5 14:1 34:1 37:1 41:1 52:1 72:2 86:1 117:1 178:1 342:1 373:2 451:1 452:1 
-0.5 1:1 16:2 21:1 33:2 72:1 386:1 797:1 1056:1 
-0.5 13:2 31:1 32:1 35:2 227:1 236:1 285:1 288:1 844:1 
-0.5 21:1 22:1 27:1 28:2 68:1 114:1 392:1 
-0.5 2:1 13:2 14:2 15:1 31:1 33:2 35:2 36:1 57:1 72:1 78:1 297:1 342:1 370:1 371:1 392:1 394:1 774:1 
-0.5 1:2 14:1 33:2 34:1 36:2 38:1 68:1 86:1 142:1 178:1 179:1 269:2 
-0.5 0:1 1:1 3:2 10:1 40:1 355:1 618:1 
-0.5 33:3 36:3 43:2 115:1 116:2 117:1 172:1 
-0.5 14:1 30:1 35:2 36:1 117:1 220:1 278:1 297:1 304:1 369:1 386:1 
-0.5 0:1 21:1 34:1 41:1 128:1 141:1 145:1 166:2 167:1 
-0.5 1:1 7:1 14:1 16:2 34:1 68:3 117:1 187:1 197:1 342:1 402:1 705:1 
-0.4125741477495167 2:3 5:1 6:2 8:1 12:1 13:2 14:1 68:3 86:1 126:1 234:1 245:1 326:1 392:1 1204:1 
-0.3486502065182138 1:1 2:1 14:1 16:2 35:2 72:1 86:1 108:1 137:1 209:1 381:2 382:1 383:2 
-0.3350520892929373 13:2 14:1 15:1 34:1 35:2 68:1 78:1 81:2 86:1 90:1 116:2 145:1 167:1 184:1 185:1 349:1 
-0.5 14:1 66:1 197:2 749:1 755:1 922:1 
-0.5 14:1 16:2 21:1 28:1 30:1 33:2 37:1 40:1 41:1 53:2 141:1 249:1 
-0.5 1:1 7:1 33:2 197:1 209:1 337:1 1069:1 
-0.5 0:1 1:1 14:1 15:1 21:1 22:1 35:2 52:1 78:1 86:1 191:1 234:1 343:2 
-0.5 1:1 10:4 13:2 21:1 26:1 30:1 35:2 43:2 45:1 58:1 72:1 86:1 145:2 146:1 147:1 
-0.5 21:1 39:1 40:2 53:2 61:1 63:2 247:1 355:1 618:1 
-0.5 1:1 21:1 22:1 34:1 72:1 86:2 157:1 286:1 732:1 797:1 
-0.5 0:1 1:1 14:1 15:1 21:1 22:1 35:2 52:1 78:1 86:1 162:1 191:1 417:1 
-0.5 43:2 53:2 65:1 115:1 187:1 197:1 613:2 754:1 950:1 990:2 
-0.5 0:1 1:1 3:2 10:1 53:2 72:1 307:1 349:1 456:1 
-0.5 1:2 7:1 9:1 10:3 16:2 21:1 30:1 37:1 41:1 114:1 145:2 146:1 
-0.5 3:2 10:1 21:1 22:1 28:1 39:1 40:1 330:1 790:1 1458:1 
-0.5 0:1 1:3 2:1 3:2 21:1 31:1 33:2 51:1 53:2 57:1 72:1 86:1 92:2 162:1 189:1 342:1 417:1 451:1 
-0.5 1:1 5:1 7:1 21:1 41:1 68:2 87:1 130:1 131:1 145:1 166:2 167:1 170:1 392:1 395:1 
-0.5 3:2 10:2 37:1 40:1 41:1 153:2 154:1 242:1 298:1 299:1 480:1 
-0.5 0:1 1:1 3:2 33:2 36:1 40:1 279:1 296:1 299:1 435:2 525:1 
-0.5 53:2 65:1 69:1 178:1 1219:2 
-0.5 1:2 7:2 10:1 13:2 14:1 30:1 35:2 81:2 90:3 91:1 189:1 296:1 
-0.4629798925771625 0:1 1:1 3:2 7:1 10:1 16:2 26:1 30:1 51:1 52:1 239:1 240:1 331:1 474:1 477:1 490:1 538:1 547:1 
-0.5 10:1 14:1 15:1 26:1 30:1 35:2 72:1 78:1 
-0.5 1:1 2:2 6:1 7:1 13:2 21:1 22:1 45:1 132:1 179:1 226:1 290:3 336:1 397:1 442:1 790:1 1071:1 1072:1 
-0.5 1:2 92:1 131:1 202:1 204:1 354:1 355:1 
-0.5 0:1 21:1 22:1 72:2 162:1 245:1 276:1 342:1 397:1 552:1 553:2 
-0.5 0:1 1:1 3:2 33:2 36:1 37:1 40:1 41:1 298:1 299:1 
-0.5 1:1 5:1 7:1 13:2 35:2 45:1 49:1 81:2 189:1 601:1 
-0.5 2:1 54:1 65:1 67:1 69:1 86:1 103:2 104:1 178:1 280:1 327:1 450:1 922:1 1237:1 
-0.5 14:2 22:1 33:2 34:1 55:1 67:1 110:1 178:1 853:2 
-0.5 0:1 9:1 14:1 35:2 38:1 47:1 251:1 264:1 317:1 581:2 
-0.04254559889209545 16:2 86:1 87:1 135:2 179:1 390:1 518:1 
-0.5 0:1 1:1 3:2 14:1 33:2 36:1 37:1 41:1 296:1 297:1 298:1 299:1 
-0.5 0:1 21:1 28:1 34:1 115:1 128:1 141:1 155:1 
-0.5 0:1 14:1 34:2 59:1 88:1 128:1 141:1 477:1 636:1 
-0.5 1:1 10:1 86:1 187:1 197:1 435:2 786:1 787:2 1154:1 
-0.5 1:1 2:1 14:2 34:1 35:2 68:1 78:1 86:1 96:1 116:2 146:1 153:2 154:1 156:1 160:1 202:1 1189:1 
-0.5 2:1 5:1 14:1 15:1 30:1 35:2 40:1 56:1 68:1 78:1 86:1 116:2 239:1 321:1 325:1 326:1 595:1 
-0.5 0:1 2:1 3:2 6:1 12:1 14:2 68:1 116:2 234:1 290:1 291:1 293:2 343:2 
-0.07926064822079219 2:1 7:1 10:1 14:2 16:2 30:1 31:1 34:1 39:1 41:2 98:1 167:2 179:1 243:2 745:1 
-0.5 21:1 39:1 40:1 53:2 61:1 62:1 63:2 524:1 
-0.5 0:1 3:2 6:1 12:1 86:1 90:1 166:1 290:1 
-0.5 27:1 29:1 34:1 43:2 45:1 131:1 136:1 170:1 395:1 
-0.5 21:1 22:1 73:2 157:2 399:2 421:1 1802:2 
-0.5 39:2 40:2 86:1 93:2 97:1 153:2 154:1 162:1 524:2 
-0.5 6:1 7:1 14:1 16:2 21:1 27:1 34:1 37:1 41:1 43:2 45:1 73:2 114:1 534:1 609:1 1017:1 
-0.5 1:1 7:1 10:1 16:2 30:1 62:1 86:1 87:1 135:2 390:1 518:1 
-0.5 21:1 22:1 68:1 92:1 137:1 386:1 535:2 538:1 654:1 
-0.5 16:2 21:1 22:1 35:2 47:1 67:3 86:1 197:1 255:1 281:2 283:2 
-0.5 21:1 22:1 40:1 146:1 525:1 587:1 709:1 911:1 
-0.5 14:1 33:2 34:1 35:2 52:1 72:1 78:1 613:2 1298:1 
-0.5 2:1 14:2 15:1 18:1 35:2 44:1 72:2 78:1 86:1 87:1 121:1 131:1 234:1 289:1 392:1 408:1 413:2 
-0.5 1:1 86:1 157:1 162:1 399:1 403:2 417:1 743:2 
-0.5 16:2 28:1 36:1 72:1 389:1 1059:1 
-0.5 0:1 1:1 34:1 43:2 45:1 50:1 68:2 86:1 136:1 477:1 592:1 708:1 
-0.4239218199727129 10:4 14:1 15:1 28:1 30:1 35:2 40:3 58:1 64:2 78:1 116:2 141:1 145:1 146:1 242:1 253:2 539:1 
-0.5 10:1 21:1 22:1 52:1 136:1 144:1 146:1 478:1 
-0.5 1:1 2:1 16:2 86:1 197:1 665:1 748:2 1154:1 
-0.5 0:2 1:2 3:2 14:1 21:1 22:1 53:2 67:1 68:1 81:2 395:1 397:1 853:2 
-0.5 0:1 1:1 28:1 34:1 72:1 128:1 136:1 226:1 397:1 534:1 
-0.5 1:1 2:1 13:2 14:1 33:2 34:1 72:1 100:1 1124:1 
-0.5 0:1 1:1 13:2 114:1 157:1 286:2 399:1 
-0.5 0:1 1:1 3:2 33:2 43:2 72:1 114:1 133:2 228:1 394:3 535:2 655:2 656:1 911:1 
-0.5 13:2 21:1 22:1 28:1 30:1 31:1 35:2 40:1 53:2 54:2 57:1 63:2 242:1 247:1 
-0.5 13:2 14:1 15:1 33:2 35:2 78:1 1024:1 1056:1 1122:1 1124:1 
-0.5 21:1 22:1 27:1 114:1 138:1 
-0.008723058245938093 1:1 16:2 67:1 86:1 87:1 137:1 280:1 
-0.3473031912034061 2:1 14:1 16:2 162:1 226:1 417:1 705:1 798:1 1122:1 
-0.5 1:1 2:1 14:1 34:1 35:2 68:2 78:1 86:1 96:1 116:2 153:2 154:2 156:1 202:1 403:2 1189:1 
-0.5 0:1 2:1 7:1 21:1 22:1 179:2 263:2 264:1 268:1 269:1 1041:1 1042:1 
-0.5 1:1 14:2 16:2 33:3 35:2 72:1 78:1 86:1 1024:2 1056:1 1122:1 
-0.328936571046277 0:1 13:2 14:1 16:2 22:1 29:1 35:2 41:3 84:1 145:1 166:3 
-0.5 13:2 35:2 43:2 45:1 136:1 143:2 657:1 835:2 
-0.5 0:1 1:1 9:1 15:1 22:1 34:1 43:2 44:1 45:1 47:1 49:1 50:1 51:1 52:1 
-0.5 7:1 14:1 30:1 35:2 45:1 72:1 137:1 152:1 215:1 220:1 239:1 
-0.5 34:1 65:1 75:1 178:1 329:1 537:1 598:1 671:1 
-0.5 3:2 10:1 14:1 15:1 21:1 28:1 30:1 34:1 35:2 72:1 78:1 81:2 86:1 90:1 
-0.5 14:1 16:2 33:2 36:1 92:1 296:1 389:1 781:2 
-0.5 21:1 22:1 138:1 535:2 
-0.5 10:1 13:2 14:2 15:1 35:2 72:1 78:1 81:2 87:1 90:1 166:1 167:1 613:2 
-0.5 3:2 21:1 22:1 33:2 68:1 72:1 103:2 137:1 
-0.5 1:1 7:1 14:1 34:1 47:1 65:1 67:1 69:1 86:1 178:1 329:1 613:2 647:1 752:1 754:1 853:2 
-0.5 1:1 21:2 30:1 72:1 86:2 95:1 97:1 401:1 638:2 
-0.5 1:1 7:1 227:1 229:1 230:1 835:2 
-0.5 2:1 14:1 34:1 86:1 155:1 253:2 254:2 255:1 993:2 
-0.5 0:2 1:2 3:2 4:1 34:1 35:2 43:2 45:1 126:1 137:1 145:2 172:1 176:1 185:2 383:2 595:1 609:1 
-0.5 1:2 2:2 6:1 7:1 13:2 21:1 22:1 45:1 179:2 226:1 290:3 336:1 397:1 442:1 790:1 1071:1 1072:1 
-0.5 1:1 35:2 86:1 95:1 
-0.5 1:3 10:1 14:1 21:1 22:1 30:3 35:2 68:1 72:1 78:1 86:2 116:2 158:1 240:1 397:1 401:1 1210:2 
-0.5 1:1 7:1 14:1 86:1 133:2 172:1 231:1 587:1 655:1 656:1 927:2 929:1 
-0.5 21:1 22:1 137:1 535:2 537:1 
-0.5 2:1 5:1 16:2 21:1 22:2 27:2 28:1 35:2 44:1 47:1 120:2 547:1 720:1 1154:1 
-0.0572005943140201 15:1 27:2 30:1 35:2 40:4 78:1 117:1 243:2 251:1 392:1 481:2 535:2 701:1 873:2 
-0.5 1:1 2:1 9:1 14:1 16:2 86:1 202:1 204:1 355:1 
-0.5 27:1 34:1 43:2 45:1 52:1 136:1 166:1 167:1 275:1 393:2 
-0.5 10:3 14:1 26:1 30:1 52:1 72:1 92:1 145:2 146:2 147:1 152:1 172:1 239:1 896:1 
-0.5 0:1 1:1 3:2 10:1 40:2 298:1 299:1 355:1 618:1 
-0.5 0:1 1:1 15:1 21:1 22:1 24:1 25:1 26:1 27:1 28:1 29:1 30:1 
-0.5 0:2 1:2 3:2 14:1 21:1 22:1 53:2 67:1 68:1 81:2 397:1 535:2 853:2 
-0.5 115:1 480:1 504:1 
-0.5 1:1 7:1 18:1 21:1 64:1 189:1 963:2 1115:1 
-0.5 0:1 21:1 28:1 34:1 128:1 245:1 253:2 254:1 
-0.5 14:1 15:1 35:2 40:1 78:1 153:2 394:1 507:1 627:1 
-0.5 0:1 1:1 3:2 13:2 28:2 30:1 33:2 34:1 35:2 43:2 45:2 53:2 54:1 56:2 58:2 59:2 72:2 234:1 795:1 
-0.5 1:1 21:1 22:1 65:2 86:1 142:1 189:1 279:2 990:1 992:1 
-0.5 10:2 14:1 15:1 26:1 30:2 35:2 37:1 40:1 41:1 78:1 146:1 323:2 
-0.5 13:2 21:1 22:1 28:1 30:2 34:1 35:2 375:1 534:1 1119:1 1458:1 1459:1 
-0.5 7:1 21:1 35:2 72:1 95:2 98:1 638:2 945:1 
-0.5 0:1 1:1 3:2 21:1 22:1 33:2 36:1 37:1 40:1 41:1 72:1 298:2 299:2 
-0.5 10:1 14:1 35:2 40:1 100:1 220:1 279:1 307:1 456:1 524:1 537:1 598:1 
-0.5 1:1 33:2 86:1 103:2 104:1 135:2 950:1 
-0.5 1:1 7:1 227:1 229:1 230:1 342:1 835:2 
-0.5 7:1 9:1 13:2 14:1 20:1 21:1 22:1 34:1 104:1 189:1 307:1 327:1 723:2 725:2 1476:1 
-0.5 21:1 27:1 30:1 34:1 43:2 44:1 45:1 59:1 136:1 137:1 383:2 
-0.5 13:2 14:1 15:1 34:1 35:2 68:1 85:1 86:1 88:1 90:1 91:1 116:2 220:1 349:1 
-0.4135277666095312 1:1 2:1 7:1 13:2 14:1 15:1 22:1 34:1 35:2 68:1 78:1 86:1 90:1 116:2 166:2 167:1 326:1 
-0.5 0:1 10:1 28:1 34:1 35:2 126:1 128:1 129:1 141:1 223:2 226:1 
-0.5 2:1 9:1 14:1 16:2 86:1 333:2 1237:1 
-0.5 1:1 5:2 12:1 14:1 34:1 72:1 86:1 130:1 152:1 170:1 175:1 386:1 1133:2 
-0.5 1:1 21:1 22:1 34:1 86:1 130:1 179:1 442:2 601:1 727:1 732:1 790:1 791:1 1119:1 1133:2 
-0.5 0:2 1:2 3:2 10:2 13:2 14:1 30:1 50:1 81:2 87:1 90:2 142:1 435:2 
-0.5 0:1 21:1 28:1 34:1 41:1 128:1 166:2 167:1 
-0.5 14:1 16:2 44:1 77:1 78:1 82:1 137:1 713:2 
-0.5 16:2 22:1 24:1 627:1 1363:2 
-0.5 13:2 29:2 34:1 35:2 43:2 44:1 45:2 77:1 79:1 80:1 82:1 83:2 136:2 
-0.5 0:1 10:1 14:1 16:2 21:1 22:1 28:1 40:1 129:1 141:1 
-0.5 0:1 3:2 22:1 28:1 43:2 51:1 84:1 134:2 137:1 284:1 531:1 647:2 1458:1 
-0.5 1:1 5:1 10:1 14:1 24:1 30:1 72:1 81:2 86:1 139:2 234:1 239:1 245:1 323:2 373:2 827:1 
-0.5 21:1 22:1 40:2 275:1 525:1 655:1 656:1 
-0.5 1:1 13:2 14:1 33:2 34:1 35:2 65:1 69:1 86:2 178:1 329:1 647:1 752:2 754:1 755:1 
-0.5 4:1 10:1 34:1 43:2 45:1 52:1 136:1 145:1 146:1 165:1 478:1 
-0.5 2:1 14:1 35:2 44:2 47:1 72:1 78:1 117:1 278:1 281:2 388:2 796:1 
-0.03980244859618575 1:2 14:2 16:2 81:2 86:1 142:1 307:1 661:2 703:2 917:1 
-0.5 0:1 5:1 21:1 28:1 34:1 128:1 245:1 
-0.5 14:1 15:1 35:2 81:2 86:1 92:1 167:1 184:1 220:1 592:1 
-0.5 35:2 406:1 408:1 527:1 592:1 595:2 764:1 
-0.5 1:1 21:1 30:1 35:2 41:1 43:2 45:1 87:1 90:1 179:1 220:1 386:1 
-0.5 0:1 1:1 3:2 7:1 26:1 28:1 30:1 35:2 72:1 87:1 92:1 137:1 138:1 215:1 386:1 
-0.5 27:1 29:1 34:1 43:2 45:1 88:1 136:1 239:1 393:2 395:1 
-0.5 1:1 7:1 21:1 22:1 33:2 36:1 117:1 153:2 189:1 349:1 507:1 
-0.2355716293446012 1:2 2:1 10:1 13:2 27:1 30:1 35:2 68:1 86:2 92:1 116:2 145:1 167:1 185:1 189:1 386:1 
-0.4811233753151847 1:1 7:1 14:1 34:1 47:1 65:1 67:1 69:1 86:1 178:1 329:1 613:2 647:1 752:1 754:1 853:2 
-0.4577858052548553 1:1 2:3 13:2 14:3 21:1 35:2 68:1 81:2 88:1 104:1 121:1 156:1 202:1 386:1 654:1 879:1 1204:1 
-0.5 0:1 21:1 22:1 44:1 65:2 75:1 234:1 725:1 
-0.4862660032933693 21:1 22:1 35:2 40:5 45:1 325:2 504:1 
